tree
version=v4
num_class=1
num_tree_per_iteration=1
label_index=0
max_feature_idx=13
objective=poisson
feature_names=shot_distance shot_value is_3pt_attempt shot_zone_basic shot_zone_area shot_made period seconds_remaining_in_period score_margin home_or_away in_bonus n_shots n_off_rebs has_and1
feature_infos=[1:79] none none -1:0:3:1 -1:0:1:2 [0:1] [1:6] [0:720] [-59:60] -1:1:0 [0:1] [1:7] [0:5] none
tree_sizes=6629 6892 6926 6944 6918 6909 6925 6927 6856 6828 6883 6918 6919 6837 6829 6953 6995 6974 6973 6981 6981 6969 6989 6933 6867 6988 6959 6967 6956 6941 6952 7005 6927 6987 6915 6890 7000 6934 6922 7018 6888 7009 7031 7027 7013 6994 7032 6972 6968 7030 6936 6973 7023 7034 6992 7037 6998 7024 6989 6916 6978 7059 7028 6917 7041 6940 7043 7011 6971 6926 6993 7027 7043 6975 6984 7036 6990 6987 7050 6966 7016 7010 7034 7039 6932 7012 6946 7022 7027 7027 6991 7028 7055 6989 6943 6970 7018 7001 6991 7000 7014 7053 7000 7038 7052 7057 6966 7083 6957 7021 7011 7058 7014 6994 7018 6977 7051 7011 7017 6974 7005 6956 6989 6997 7032 6980 6965 7003 7028 6961 7015 6930 7026 7003 6989 7012 7041 6968 6982 6933 7021 6992 7030 7056 7028 7048 6998 7003 7032 7019 7024 7016 6933 6898 6987 7005 6940 6971 7004 6980 7033 7037 6967 6953 6986 6884 6999 6988 7004 7000 6952 6962 7004 7000 6979 7018 6995 6991 7027 6990 7013 6928 7028 6950 6979 7045 6977 7022 7024 7049 6947 6975 7009 7051 6991 7052 6947 6926 6988 6986 7015 7007 7048 6966 6966 7001 6930 6998 6962 7035 6918 7045 7051 6906 7052 6979 7058 7042 6951 6921 6962 7010 6991 6948 6962 7028 6941 6992 6877 6943

Tree=0
num_leaves=63
num_cat=9
split_feature=12 11 12 11 11 7 3 7 6 11 8 8 3 11 3 6 7 7 11 8 7 7 7 7 8 6 6 3 6 8 6 8 8 8 3 6 8 8 7 7 6 3 8 3 7 9 7 7 7 7 8 6 7 7 7 7 9 8 7 8 6 7
split_gain=3351.49 2423.01 1570.35 806.312 166.984 139.193 120.658 74.0506 70.2332 56.0938 53.0316 49.3817 66.6315 55.1197 70.4425 43.5048 42.4702 32.1613 44.6964 30.9358 26.1641 35.6447 24.3216 23.9932 23.1288 21.0939 20.1149 19.9833 19.9683 29.1917 18.705 17.8484 33.4304 16.3384 16.2157 15.781 15.593 14.965 13.4574 12.7149 12.6927 12.2225 11.5951 10.8788 10.676 9.87283 9.56373 9.49784 10.6886 9.06918 8.54866 8.17168 8.07295 7.68087 7.42911 7.15413 6.89069 6.71505 9.09686 6.7882 6.23516 6.20405
threshold=1.5000000000000002 2.5000000000000004 1.0000000180025095e-35 1.5000000000000002 2.5000000000000004 597.50000000000011 0 73.500000000000014 1.5000000000000002 1.5000000000000002 1.0000000180025095e-35 -1.4999999999999998 1 1.5000000000000002 2 1.5000000000000002 697.50000000000011 671.50000000000011 2.5000000000000004 1.5000000000000002 655.50000000000011 291.50000000000006 663.50000000000011 579.50000000000011 -1.0000000180025095e-35 1.5000000000000002 2.5000000000000004 3 1.5000000000000002 1.0000000180025095e-35 1.5000000000000002 -1.4999999999999998 1.0000000180025095e-35 1.5000000000000002 4 1.5000000000000002 1.0000000180025095e-35 5.5000000000000009 225.50000000000003 182.50000000000003 2.5000000000000004 5 -1.4999999999999998 6 585.50000000000011 7 555.50000000000011 151.50000000000003 97.500000000000014 552.50000000000011 6.5000000000000009 3.5000000000000004 465.50000000000006 651.50000000000011 396.50000000000006 234.50000000000003 8 -1.0000000180025095e-35 66.500000000000014 1.5000000000000002 2.5000000000000004 354.50000000000006
decision_type=2 2 2 2 2 2 9 2 2 2 2 2 9 2 9 2 2 2 2 2 2 2 2 2 2 2 2 9 2 2 2 2 2 2 9 2 2 2 2 2 2 9 2 9 2 1 2 2 2 2 2 2 2 2 2 2 1 2 2 2 2 2
left_child=2 -2 3 5 7 6 30 9 33 -4 27 12 -9 14 35 19 17 18 23 46 21 25 41 26 -11 -16 -5 -3 -15 43 37 -28 38 42 60 -13 -26 39 -33 47 49 53 -7 -30 54 -6 -8 48 -1 56 57 -52 -42 -10 -31 -27 -23 -36 -59 -60 -17 -21
right_child=1 10 4 16 45 8 15 11 22 24 -12 13 -14 28 20 34 -18 -19 -20 61 -22 40 -24 -25 36 55 31 -29 29 44 -32 32 -34 -35 50 -37 -38 -39 -40 -41 52 -43 -44 -45 -46 -47 -48 -49 -50 -51 51 -53 -54 -55 -56 -57 -58 58 59 -61 -62 -63
leaf_value=-1.7327334983314133 -1.5353782968721361 -1.7010178236343241 -1.7005726238967822 -1.7231547252745982 -1.6913855895926231 -1.7381996361775327 -1.7425201699912098 -1.7256356001519533 -1.7366455602771593 -1.7056304831081277 -1.7186555289771737 -1.7220780280481229 -1.6997825244494189 -1.7348859180579581 -1.7300739575343482 -1.7415194321237721 -1.733615573663067 -1.6989753793735347 -1.7002037190003523 -1.7464258088633395 -1.7067638931105811 -1.7315749639081048 -1.7476121639372366 -1.7320162310309544 -1.7315924180415136 -1.713733102634825 -1.7225494503115233 -1.6830062635669893 -1.7241843168386881 -1.7220244792144808 -1.7363325777737317 -1.6920444743252092 -1.7203198623001457 -1.7569356212670877 -1.7430154554069348 -1.7071105115668421 -1.713919799719299 -1.7472602142371552 -1.7086782172676489 -1.7406121082162147 -1.7303749028321069 -1.7435901152100051 -1.7509335402890536 -1.7324629681877637 -1.7312114673795824 -1.703581901714365 -1.7486823889110028 -1.7248625885351621 -1.7435413893054561 -1.7250346272614754 -1.7458599813213205 -1.7412211246126723 -1.7220918422388201 -1.745788841485004 -1.7125824684410047 -1.7228886180593943 -1.740516614512253 -1.7357422737418609 -1.7403680178870418 -1.7439867317932134 -1.7396740700887829 -1.7503075459715904
leaf_weight=640.70790719985962 317.16458901762962 249.12481126189232 587.90620467066765 1324.2950493395329 333.82015961408615 193.48811799287796 8664.7948224246502 557.43005421757698 1223.2985042333603 182.85690271854401 212.26993164420128 225.38176381587982 450.76352763175964 1283.542057454586 373.15565612912178 6945.0185648798943 452.53539684414864 222.90114691853523 302.28088763356209 2321.8574159145355 185.69189345836639 422.41362023353577 3300.2835949957371 385.55874061584473 396.54432973265648 772.18060275912285 476.27844429016113 403.27743273973465 504.62835168838501 544.67259588837624 12762.773936837912 208.72619321942329 468.83659359812737 1255.54652389884 5823.0709795951843 805.4917439520359 182.14815503358841 614.48424285650253 291.29529851675034 3103.6061124205589 596.41117689013481 4339.66207498312 2349.8529494702816 1857.6276822686195 199.86684715747833 329.92204734683037 678.98028218746185 208.72619321942329 355.79133784770966 233.88673603534698 2861.5687780082226 1420.684734493494 580.46435397863388 282.79032629728317 337.36389803886414 294.83903694152832 439.77793851494789 809.74423006176949 4717.7789649069309 1786.7529137730598 13427.579265326262 1849.1227100491524
leaf_count=1808 895 703 1659 3737 942 546 24451 1573 3452 516 599 636 1272 3622 1053 19598 1277 629 853 6552 524 1192 9313 1088 1119 2179 1344 1138 1424 1537 36015 589 1323 3543 16432 2273 514 1734 822 8758 1683 12246 6631 5242 564 931 1916 589 1004 660 8075 4009 1638 798 952 832 1241 2285 13313 5042 37891 5218
internal_value=-1.73729 -1.65359 -1.73829 -1.74071 -1.72186 -1.7418 -1.7409 -1.72321 -1.74655 -1.71217 -1.69695 -1.72461 -1.71408 -1.72571 -1.72201 -1.74213 -1.71916 -1.71738 -1.71857 -1.74457 -1.72508 -1.726 -1.74418 -1.72033 -1.72113 -1.71984 -1.7187 -1.68988 -1.72956 -1.72758 -1.73734 -1.71462 -1.71073 -1.75227 -1.74126 -1.71038 -1.72603 -1.73996 -1.70173 -1.73892 -1.7299 -1.74224 -1.74996 -1.73069 -1.72078 -1.69745 -1.74297 -1.73456 -1.73659 -1.73377 -1.74238 -1.74432 -1.72629 -1.73836 -1.71841 -1.71626 -1.73614 -1.74175 -1.74074 -1.74136 -1.7403 -1.74815
internal_weight=99931.3 1181.84 98749.5 86070.7 12678.8 81938 68993 12015 12944.9 1349.46 864.672 10665.6 1008.19 9657.4 4929.69 51307 4132.71 3680.17 3457.27 13514.8 3898.82 3713.13 9146.03 3154.99 761.549 1440.18 2769.43 652.402 4727.7 3444.16 17686.1 1445.14 968.858 3798.89 37792.2 1030.87 578.692 4923.32 500.021 4308.83 2272.95 5845.75 2543.34 2362.26 1081.9 663.742 9343.78 1205.23 996.499 1096.08 17419.6 4282.25 1176.88 1506.09 882.036 1067.02 862.192 13137.3 7314.28 6504.53 20372.6 4170.98
internal_count=281994 3335 278659 242881 35778 231219 194690 33905 36529 3808 2440 30097 2845 27252 13911 144782 11662 10385 9756 38137 11002 10478 25809 8903 2149 4064 7815 1841 13341 9719 49908 4078 2734 10720 106645 2909 1633 13893 1411 12159 6414 16496 7177 6666 3053 1873 26367 3401 2812 3093 49156 12084 3321 4250 2489 3011 2433 37072 20640 18355 57489 11770
cat_boundaries=0 1 2 3 4 5 6 7 8 9
cat_threshold=2 8 8 8 1 2 2 2 2
is_linear=0
shrinkage=1


Tree=1
num_leaves=63
num_cat=6
split_feature=11 11 6 5 7 0 3 7 0 6 11 7 5 3 7 7 0 7 6 6 5 0 7 7 7 5 0 3 7 7 0 0 6 0 7 3 7 7 7 7 0 7 7 7 7 7 7 7 7 7 7 6 7 6 0 7 0 9 6 7 9 7
split_gain=2416.85 213.92 149.464 108.8 101.044 78.9008 55.848 52.9451 50.5299 45.7359 43.3794 42.4406 38.6038 28.5642 25.5478 23.3971 21.5559 19.7934 24.147 15.3178 14.5011 12.3382 12.3299 12.3695 12.0176 12.2394 10.9482 10.4956 10.6682 10.2276 9.69697 16.963 13.171 8.68068 8.5056 8.11342 7.23845 6.94206 6.84901 6.67552 6.58044 7.01629 7.88425 6.51881 6.48452 6.3777 6.14547 6.09919 11.3438 7.16091 6.01374 5.68048 5.63315 5.54124 5.52633 5.31317 5.14731 7.09138 4.94222 4.87403 4.68981 4.68096
threshold=1.5000000000000002 2.5000000000000004 1.5000000000000002 1.0000000180025095e-35 555.50000000000011 5.5000000000000009 0 659.50000000000011 21.500000000000004 1.5000000000000002 3.5000000000000004 597.50000000000011 1.0000000180025095e-35 1 182.50000000000003 690.50000000000011 22.500000000000004 124.50000000000001 2.5000000000000004 1.5000000000000002 1.0000000180025095e-35 3.5000000000000004 699.50000000000011 663.50000000000011 697.50000000000011 1.0000000180025095e-35 6.5000000000000009 2 91.500000000000014 26.650000000000002 17.500000000000004 14.500000000000002 2.5000000000000004 26.500000000000004 432.50000000000006 3 594.50000000000011 306.50000000000006 387.50000000000006 26.650000000000002 4.5000000000000009 342.50000000000006 225.50000000000003 615.50000000000011 43.850000000000001 231.50000000000003 645.50000000000011 426.50000000000006 507.50000000000006 607.50000000000011 675.50000000000011 3.5000000000000004 73.500000000000014 3.5000000000000004 9.5000000000000018 685.50000000000011 10.500000000000002 4 2.5000000000000004 432.50000000000006 5 112.50000000000001
decision_type=2 2 2 2 2 2 9 2 2 2 2 2 2 9 2 2 2 2 2 2 2 2 2 2 2 2 2 9 2 2 2 2 2 2 2 9 2 2 2 2 2 2 2 2 2 2 2 2 2 2 2 2 2 2 2 2 2 1 2 2 1 2
left_child=2 6 4 11 12 50 15 8 54 45 13 16 14 59 52 19 21 18 -11 37 -15 -4 23 35 25 -19 -21 28 -14 -20 31 32 -28 38 -22 51 -6 -2 -16 -23 -27 42 -42 -37 -10 60 -45 -43 -49 -50 -5 -13 -1 -41 -7 -25 57 -30 -46 -3 -8 -54
right_child=1 10 3 5 36 7 9 -9 44 17 -12 22 27 20 33 -17 -18 24 29 26 34 39 -24 55 -26 40 30 -29 56 -31 -32 -33 -34 -35 -36 43 -38 -39 -40 53 41 47 -44 46 58 -47 -48 48 49 -51 -52 -53 61 -55 -56 -57 -58 -59 -60 -61 -62 -63
leaf_value=0.0046396631279789994 0.024620184602961708 0.02732112091269728 1.3175436249251104e-05 -0.0062401433625010553 -0.0093161461506456548 0.00028162184450020026 0.017212026683276385 -0.011693005518330853 0.0012035842112197784 0.012682181282073532 0.052097290961050216 -0.0076109755180556573 0.0034498363601335996 0.042732748024732911 -0.0015743818003839394 0.0085333901893913169 -0.00017432779389268141 0.019639773003337774 0.038118203380555125 0.018306495128357841 0.036754409128178921 0.010107263346480884 0.007511719737899253 -0.010734147702026471 0.0060310890184750061 0.012271525005517963 0.036865619027332451 -0.0077130770378181744 -0.012925245347068296 0.025021914295026072 0.021662802646004113 0.042528569849029661 0.023884672693951569 -0.0096019950823731867 0.023147052647379388 -0.005961588524550949 -0.013561457664076352 0.013819211831042259 -0.0053385890954557487 0.0025482591824394882 0.019312096602082076 0.028121152235213831 0.0061954158383926324 0.0050207064589765449 -0.0051017033991431326 0.0070350979355386263 -0.002986092325526722 0.007568960795906997 0.028550354580371563 0.015329436419861835 -0.011657446917508626 -0.00083228435634795015 -0.0037294412714615056 0.005233364102379727 0.0029943004247833514 -0.003794478865732539 -0.0033226677150689056 -0.0038286528623688145 -0.0027560725331621776 0.018408633657423366 0.0087044726305807504 0.001999694707433206
leaf_weight=1102.8565351963043 265.9281362593174 386.38256859779358 3015.0015759468079 14220.682550609112 1340.8006555140018 2946.9289066195488 330.62732619047165 1225.6152301132679 772.10141578316689 365.22185406088829 322.38542068004608 966.99499395489693 406.66071560978889 552.82544925808907 2560.7525323629379 224.80224868655205 12376.831189751625 2121.7009128928185 195.40102428197861 256.16796541213989 260.62102252244949 389.27736496925354 217.9896519780159 929.39984127879143 273.81409373879433 1448.7562099397182 294.18971052765846 7376.0585454702377 428.42670118808746 628.87177270650864 309.73025271296501 272.42561855912209 581.96895822882652 627.16432273387909 205.30963018536568 347.15454977750778 3998.116007745266 337.65883755683899 2288.2736919820309 5944.6571790575981 215.21764644980431 182.24596640467644 244.96625748276711 629.81633260846138 3398.7980312108994 1385.5603849291801 386.8485603928566 189.8252087533474 218.24808767437935 192.98432284593582 531.43763545155525 454.22380384802818 552.13732206821442 2839.0729727745056 5173.6717957556248 392.20745527744293 1222.8805594742298 428.55893066525459 6618.8884665369987 254.4064439535141 317.59060153365135 1006.3752290010452
leaf_count=3104 737 1053 8486 40353 3817 8326 916 3493 2185 1010 874 2740 1147 1490 7246 626 34926 5850 535 705 708 1091 618 2640 768 4028 810 20980 1214 1731 850 748 1599 1777 559 979 11437 937 6480 16726 595 504 678 1776 9632 3867 1094 524 604 536 1515 1286 1561 7983 14588 1113 3465 1214 18727 694 882 2843
internal_value=-4.64922e-05 0.0202087 -0.00303091 -0.00177807 -0.00645449 -0.0036573 0.0174505 -0.00162208 -0.000969365 0.0154666 0.0353141 0.000491374 -0.00466276 0.0320538 -0.00211361 0.0239345 0.00129547 0.0175778 0.0233845 0.0254281 0.0372563 0.00278804 -0.00407607 -0.00469117 0.0162202 0.0167998 0.0278397 -0.00676605 -0.00395678 0.0281265 0.0295143 0.0316315 0.0282433 -0.00406666 0.0307584 -0.00280084 -0.0124953 0.0185779 -0.00335073 0.00370009 0.0145617 0.0172299 0.0123298 -4.59263e-05 -0.0032116 0.00895023 0.00197406 0.0201086 0.0176791 0.022346 -0.0064353 -0.00544449 0.0019051 0.00341614 0.00200988 -0.00867469 -0.00540494 -0.00837625 -0.0035519 0.0237827 0.0130438 -2.99776e-05
internal_weight=99952.5 12835.8 87116.7 63777.6 23339.1 34888.1 10853.9 20136 18910.4 8311.03 1981.93 28889.5 18000.1 1659.55 8137.56 2542.87 24564.8 6277.25 1189.49 2318.07 1018.76 12188 4324.64 4106.65 5087.76 4813.94 1714.48 9862.59 2486.53 824.273 1458.31 1148.58 876.159 5476.19 465.931 2785.04 5338.92 603.587 4849.03 9173.01 2692.24 1243.49 460.184 1363.82 10789.8 2033.78 1016.66 783.304 601.058 411.232 14752.1 1421.22 2661.37 8783.73 8120.6 1321.61 2079.87 856.986 10017.7 640.789 648.218 1558.51
internal_count=281980 35418 246562 180277 66285 98819 30040 56951 53458 23028 5378 81458 51031 4504 23011 7012 69212 17363 3276 6386 2757 34286 12246 11628 14087 13319 4712 28020 7040 2266 4007 3157 2409 15503 1267 7875 15254 1674 13726 25800 7469 3441 1273 3849 30544 5665 2870 2168 1664 1140 41868 4026 7508 24709 22914 3753 5893 2428 28359 1747 1798 4404
cat_boundaries=0 1 2 3 4 5 6
cat_threshold=2 8 2 1 2 2
is_linear=0
shrinkage=0.05


Tree=2
num_leaves=63
num_cat=2
split_feature=12 11 12 11 11 6 0 7 7 8 0 11 0 7 0 0 8 8 7 7 11 0 7 7 7 6 8 6 8 7 8 10 6 0 3 6 7 0 7 6 3 0 6 7 8 0 0 8 7 0 0 0 7 8 7 8 7 8 8 7 6 8
split_gain=2744.51 1535.21 1372.49 699.001 179.436 122.26 87.8918 86.7243 67.3477 62.8107 80.0212 79.2116 90.8381 76.7425 56.6919 41.8829 32.9609 32.6461 28.3364 29.2909 34.3998 27.1969 25.7029 32.1133 20.7538 18.9078 28.308 17.5044 15.6123 15.2234 15.1096 14.7577 14.7261 14.1772 13.6269 13.2965 15.2161 12.5666 12.3717 11.5418 10.4938 10.4166 13.6781 11.5344 10.0864 9.88031 9.87683 9.78588 11.4764 9.10456 7.98897 7.82233 7.47566 7.45692 7.30365 6.71622 6.28422 6.11935 14.8108 6.10746 5.92766 9.29145
threshold=1.5000000000000002 2.5000000000000004 1.0000000180025095e-35 1.5000000000000002 2.5000000000000004 1.5000000000000002 4.5000000000000009 555.50000000000011 659.50000000000011 -2.4999999999999996 3.5000000000000004 1.5000000000000002 6.5000000000000009 60.500000000000007 21.500000000000004 5.5000000000000009 -1.4999999999999998 1.5000000000000002 697.50000000000011 671.50000000000011 2.5000000000000004 23.500000000000004 637.50000000000011 306.50000000000006 579.50000000000011 1.5000000000000002 1.0000000180025095e-35 1.5000000000000002 1.5000000000000002 378.50000000000006 -11.499999999999998 1.0000000180025095e-35 1.5000000000000002 4.5000000000000009 0 2.5000000000000004 447.50000000000006 2.5000000000000004 215.50000000000003 3.5000000000000004 1 12.500000000000002 3.5000000000000004 188.50000000000003 7.5000000000000009 3.5000000000000004 25.500000000000004 -3.4999999999999996 387.50000000000006 6.5000000000000009 26.500000000000004 28.500000000000004 675.50000000000011 9.5000000000000018 351.50000000000006 -9.4999999999999982 573.50000000000011 2.5000000000000004 -1.0000000180025095e-35 10.65 2.5000000000000004 -14.499999999999998
decision_type=2 2 2 2 2 2 2 2 2 2 2 2 2 2 2 2 2 2 2 2 2 2 2 2 2 2 2 2 2 2 2 2 2 2 9 2 2 2 2 2 9 2 2 2 2 2 2 2 2 2 2 2 2 2 2 2 2 2 2 2 2 2
left_child=2 -2 3 5 9 7 52 17 14 10 55 12 35 -14 49 -3 -9 37 19 20 24 -12 23 32 27 -13 31 29 -18 -5 -29 34 -15 53 -27 36 38 -1 -11 56 -17 42 57 -43 -35 -37 -34 -39 50 -8 -49 59 -7 -28 -19 -4 -25 58 -32 -16 61 -61
right_child=1 15 4 18 -6 6 8 16 -10 11 21 25 13 22 51 40 28 54 -20 -21 -22 -23 -24 39 -26 26 33 30 -30 -31 41 -33 46 44 -36 45 -38 47 -40 -41 -42 43 -44 -45 -46 -47 -48 48 -50 -51 -52 -53 -54 -55 -56 -57 -58 -59 -60 60 -62 -63
leaf_value=-0.0082209235972748526 0.15325390576573583 0.023787357106362431 0.015443496419755532 0.01480461993973348 0.038278577748376452 -0.0058537518611981188 -0.0014015556686502123 0.0018985389251836089 -0.0097467352892417758 0.026397112844804928 0.044940989158290562 0.002690292571543578 0.033664194616090035 0.0065721918278787515 -0.0080175169515897243 0.040035445014658687 -0.012157245098479716 -0.0076075348917770307 0.0045462468046568788 0.034910233897405038 0.032284414639980052 0.023566619143291011 0.025682968746878289 0.0016688318373119339 0.0045073394677733946 0.012311498665077058 0.014889063716696843 0.0075139615293019733 -0.018156097714115228 -0.0011790893308155563 0.013953994533135089 0.019330273546621531 0.020827705200277657 0.027844836038171741 0.0034770326192014134 0.026945795340683726 0.034334626352487137 -6.4089426977323902e-05 0.008615636566528577 0.01109153717146223 0.054548442601028403 0.024278132111093368 0.03240209391448827 0.013043705705489631 0.015270289406585553 0.039398656289595504 0.011206468207011542 -0.0023246839452712074 -0.0069079178001541525 0.0015224838373329142 -0.008087549331237235 -0.0071567883299136882 -0.011363213930444359 0.0039740270871667961 -0.011548889869499396 0.0038169921897164717 0.010746585913464656 0.013152890541958437 0.033497328796601576 0.0072129498656566303 -0.0020118660670204952 -0.004072983697218621
leaf_weight=1764.1737462580204 399.53242176771164 393.89820063114166 230.92531141638756 452.89529123902321 727.32639130949974 17140.511289358139 3355.0014562904835 338.59870791435242 2536.0467008054256 182.52315092086792 361.18544021248817 1538.9055795073509 388.93237060308456 412.40123888850212 535.33989727497101 349.95916470885277 3117.1035235822201 2958.4714969098568 454.46017482876778 233.51384216547012 320.41360622644424 253.12070032954216 257.36339366436005 1298.2064149677753 403.93222478032112 554.64663752913475 347.44664439558983 264.35210171341896 1663.377728253603 221.98564767837524 198.53926640748978 203.8064760863781 780.82272958755493 271.48066422343254 2049.0139966309071 334.13769996166229 182.54377326369286 1603.0574572682381 210.79445824027061 620.81018033623695 193.3792285323143 342.10731476545334 322.37570902705193 687.82562494277954 386.53795903921127 304.38475513458252 405.15340888500214 4983.4297556579113 2854.1381845474243 12890.984853625298 683.92031848430634 1052.4840215742588 638.64307636022568 284.6896807551384 1950.2461364269257 268.79602438211441 223.4661925137043 226.42211249470711 189.45045700669289 187.25297281146049 14024.385243982077 6990.6548322439194
leaf_count=5033 903 1044 632 1242 1904 48839 9492 971 7292 501 970 4278 1055 1155 1514 902 9017 8474 1267 623 842 677 712 3646 1113 1504 950 721 4837 612 542 559 2153 737 5638 915 505 4567 583 1728 502 917 873 1861 1050 833 1120 14131 8140 36262 1948 2984 1839 778 5606 737 625 618 511 533 39737 19864
internal_value=2.31668e-05 0.0711858 -0.00094098 -0.00324632 0.0141442 -0.00428792 -0.00310944 -0.00747934 -0.00185114 0.0127231 0.0240474 0.0116005 0.0158113 0.0124614 -0.00133819 0.0362012 -0.0131768 -0.00574302 0.0163562 0.0177453 0.0166411 0.0361338 0.0103989 0.00934737 0.0151268 0.00741576 0.00919047 0.0166029 -0.0142446 0.00954717 0.0187372 0.00637324 0.0147108 0.015321 0.005359 0.0279135 0.0224043 -0.00432664 0.0168673 0.00534601 0.0452008 0.0202458 0.0240612 0.0167754 0.0204582 0.0328821 0.0175409 -0.00364807 -0.00432228 0.000918633 -0.00302013 -0.00294697 -0.00605166 0.00997335 -0.00917345 0.00918969 0.00300195 0.0196849 0.0234968 -0.00274314 -0.00260997 -0.00377856
internal_weight=100002 1336.77 98665.5 85586.1 13079.4 81267.8 59351.3 21916.5 41572.1 12352.1 1114.03 11238.1 5601.54 4387.16 39036.1 937.237 5119.08 16797.4 4318.27 3863.81 3630.3 614.306 3998.22 3740.86 3309.89 5636.53 4097.62 2905.95 4780.48 674.881 2231.07 2807.47 1598.38 1290.15 2603.66 1214.38 575.861 11888.7 393.318 2142.48 543.338 1966.72 936.788 1029.93 658.019 638.522 1185.98 10124.5 8521.49 16246 5667.35 22790.1 17779.2 632.136 4908.72 499.721 1521.67 614.412 387.99 21737.6 21202.3 7177.91
internal_count=282118 3351 278767 242822 35945 231080 168356 62724 117678 34041 3016 31025 15531 12194 110386 2448 14825 47899 11742 10475 9852 1647 11139 10427 9010 15494 11216 7897 13854 1854 6043 7701 4428 3515 7142 3337 1589 33819 1084 5999 1404 5322 2544 2778 1787 1748 3273 28786 24219 45754 16079 64632 50678 1728 14080 1369 4271 1671 1053 61648 60134 20397
cat_boundaries=0 1 2
cat_threshold=2 1
is_linear=0
shrinkage=0.05


Tree=3
num_leaves=63
num_cat=4
split_feature=12 12 11 11 11 6 8 0 8 11 0 0 5 10 0 8 3 6 11 8 0 6 8 6 10 0 0 5 6 0 3 5 3 3 8 6 0 8 8 8 0 8 6 8 8 10 8 8 0 0 6 6 0 10 0 0 10 8 0 0 8 8
split_gain=2368.06 1298.67 1165.37 662.708 154.126 97.2951 75.6133 67.8527 65.98 83.0811 83.6461 73.6432 47.2731 43.6818 43.4267 33.7385 29.8663 23.9816 23.5756 19.4308 19.2323 17.3405 15.8357 22.3336 14.773 11.8889 10.3251 9.34818 18.5099 15.6759 7.88755 7.7727 6.84959 6.68677 6.40769 6.11226 6.01467 5.34772 5.34436 4.96966 5.61655 4.92302 4.30806 4.27847 4.18201 5.57578 5.55753 4.20787 4.05553 4.72566 3.96957 3.85357 10.7738 3.81225 3.6286 3.62153 3.59412 4.53781 4.78791 4.42869 3.71192 3.58034
threshold=1.5000000000000002 1.0000000180025095e-35 2.5000000000000004 1.5000000000000002 2.5000000000000004 1.5000000000000002 1.5000000000000002 4.5000000000000009 -2.4999999999999996 1.5000000000000002 6.5000000000000009 3.5000000000000004 1.0000000180025095e-35 1.0000000180025095e-35 21.500000000000004 1.0000000180025095e-35 0 1.5000000000000002 2.5000000000000004 -4.4999999999999991 5.5000000000000009 2.5000000000000004 13.500000000000002 3.5000000000000004 1.0000000180025095e-35 6.5000000000000009 18.500000000000004 1.0000000180025095e-35 2.5000000000000004 12.500000000000002 1 1.0000000180025095e-35 2 3 1.5000000000000002 2.5000000000000004 7.5000000000000009 21.500000000000004 8.5000000000000018 2.5000000000000004 12.500000000000002 -9.4999999999999982 2.5000000000000004 3.5000000000000004 -12.499999999999998 1.0000000180025095e-35 -4.4999999999999991 8.5000000000000018 11.500000000000002 14.500000000000002 1.5000000000000002 2.5000000000000004 23.500000000000004 1.0000000180025095e-35 3.5000000000000004 13.500000000000002 1.0000000180025095e-35 12.500000000000002 20.500000000000004 13.500000000000002 -2.4999999999999996 -23.499999999999996
decision_type=2 2 2 2 2 2 2 2 2 2 2 2 2 2 2 2 9 2 2 2 2 2 2 2 2 2 2 2 2 2 9 2 9 9 2 2 2 2 2 2 2 2 2 2 2 2 2 2 2 2 2 2 2 2 2 2 2 2 2 2 2 2
left_child=1 3 -2 5 8 6 19 44 11 10 21 41 24 26 25 20 -13 34 27 -1 -4 -10 23 36 30 -9 -12 28 -5 -30 50 -6 39 -21 -14 -20 -19 38 -27 -8 -41 -3 -16 -34 61 46 -46 -47 -40 -50 -11 -28 -53 -44 -23 -52 57 58 59 60 -29 -7
right_child=2 4 15 18 31 7 32 14 9 12 13 16 17 -15 42 -17 -18 22 35 33 -22 54 -24 -25 -26 37 51 56 29 -31 -32 -33 43 -35 -36 -37 -38 -39 48 40 -42 -43 53 -45 45 47 -48 -49 49 -51 55 52 -54 -55 -56 -57 -58 -59 -60 -61 -62 -63
leaf_value=-0.00037413374619024974 0.12865157925533932 0.014793687888178432 0.027080012892044952 0.011891025503030934 0.030700100836810726 -0.0080159156214856669 -0.013993487454350374 -0.0028509699107180809 0.020494090889116221 0.00098755317752519415 0.0072405046700121508 0.051268473650714602 0.011151118523570095 0.031754576417381143 -0.0044836708970205849 0.015922947479142649 0.027771417838827792 0.010720907663350781 0.020976114405100034 -0.0041747606473158923 0.04381744780048772 0.028692805124028439 0.0071227909022403202 0.029958831233242014 0.015445396851562668 0.00060609872213316209 0.010631629308129914 0.0090215825699678006 0.035763378460404366 0.018666807122960379 0.00093611651965037576 0.040890811793430598 -0.01471735681909821 -0.0066307596257380716 0.00073198328188876067 0.033150122278787247 0.019243719843058213 0.0062718111187138256 0.0004256130825995286 -0.01026263086379587 -0.0032853917000423595 0.0048847223182006023 -0.0032782225053320196 -0.011588346997129734 -0.0086089320341308367 -0.0043670567951673202 -0.0059635833267964837 0.0032193117087531637 -0.008849209904659627 -0.0016941137836644776 0.0057985184365605654 0.022673517601498897 0.012114766020197655 -0.00016713351189493082 0.03609581359539115 0.014357908047259553 0.018980449111245919 0.018066495692806047 0.0081513268457528969 0.019214600749334378 0.014452257878821182 -0.0025261367233421501
leaf_weight=1788.9905906915665 465.20463109016418 229.66486963629723 270.66452485322952 590.95392772555351 395.28634250164032 371.7284440100193 350.69010230898857 3553.5058227777481 595.71934616565704 205.29253008961678 1356.4176045060158 194.48672610521317 227.90195786952972 265.0933501124382 8183.59011515975 234.34310778975487 443.91058200597763 468.3521554172039 206.30764764547348 3899.8756820261478 469.06834009289742 344.71759957075119 388.08144548535347 323.06287786364555 227.18998715281487 11731.697956413031 1347.9637570083141 584.91888371109962 200.51939144730568 404.63424354791641 2518.8835956454277 355.29477444291115 1616.9054997563362 9577.7093861103058 418.60239619016647 206.10773304104805 370.97555488348007 376.19277486205101 724.61249259114265 659.04036578536034 512.90683868527412 275.9643067419529 14922.712366044521 3368.3465006351471 2361.2339722514153 742.83283579349518 12475.032844632864 242.43654116988182 381.72584447264671 583.52763825654984 310.17588749527931 306.29784864187241 1143.6218222379684 1054.2479118406773 318.42387998104095 205.42436295747757 222.55338075757027 305.3914832174778 701.92796805500984 250.88624399900436 680.98174446821213 1477.3712703883648
leaf_count=5112 902 619 696 1596 992 1068 1025 10084 1608 566 3719 493 630 713 23370 607 1157 1267 529 11167 1150 919 1047 867 614 33022 3732 1584 523 1065 6934 899 4738 27556 1160 526 988 1059 2044 1906 1480 754 42440 9797 6785 2124 35755 697 1074 1642 833 836 3130 2993 838 549 599 820 1901 672 1835 4245
internal_value=-0.000123345 -0.00105325 0.0635482 -0.00331414 0.0135184 -0.00433627 -0.00719393 -0.00328487 0.0121955 0.0110412 0.0153151 0.0236399 0.00675651 0.0120762 -0.00218029 0.0324558 0.0349298 0.0124948 0.0156857 -0.0052702 0.0376933 0.0266856 0.015868 0.0187877 0.00312024 -0.000271974 0.0108205 0.0144959 0.0181853 0.0243318 0.00225594 0.035524 -0.0117067 -0.00592009 0.00440488 0.0270602 0.0144879 0.000392227 0.000227428 -0.0087716 -0.00720902 0.00938553 -0.00355078 -0.0126032 -0.00587975 -0.00614271 -0.0063846 -0.00250035 -0.00240145 -0.00452372 0.00686754 0.0125561 0.0143453 -0.00307294 0.0322475 0.00920873 0.0128893 0.0123522 0.0115657 0.0131457 0.011943 -0.00362976
internal_weight=99988.2 98548.9 1439.28 85312.1 13236.8 80956.9 21774.5 59182.4 12486.2 11342.2 5678.26 1144.03 5663.94 4419.39 41511.8 974.076 638.397 2196.98 4355.18 15266.6 739.733 1258.86 1550.47 1162.39 3466.97 17351.3 4154.3 3942.77 1196.11 605.154 3239.78 750.581 6507.89 13477.6 646.504 412.415 839.328 13797.8 13421.6 1522.64 1171.95 505.629 24160.6 4985.25 17670.6 15821.5 14836.3 985.269 1689.87 965.253 720.893 2797.88 1449.92 15977 663.141 515.6 2746.66 2524.11 2218.71 1516.79 1265.9 1849.1
internal_count=282052 278697 3355 242833 35864 231183 62781 168402 33973 30950 15495 3023 15455 12130 117728 2453 1650 5959 11650 43835 1846 3365 4169 3122 9496 48925 11417 10595 3184 1588 8882 1891 18946 38723 1790 1055 2255 38841 37782 4411 3386 1373 68803 14535 50674 45361 42540 2821 4760 2716 1948 7698 3966 45433 1757 1382 7411 6812 5992 4091 3419 5313
cat_boundaries=0 1 2 3 4
cat_threshold=2 2 2 2
is_linear=0
shrinkage=0.05


Tree=4
num_leaves=63
num_cat=4
split_feature=11 11 5 7 6 0 3 7 7 6 11 0 6 6 7 0 7 0 7 6 10 7 7 3 7 0 6 0 0 6 7 7 7 6 7 0 0 7 3 7 0 7 6 10 7 6 7 0 7 7 6 9 7 0 7 7 7 7 7 6 7 0
split_gain=1980.56 158.582 156.77 91.8515 65.3024 61.0652 42.0862 38.6893 36.5911 36.5861 33.4508 29.6496 29.4805 28.764 25.1771 21.5932 21.069 17.0113 16.6862 16.0124 13.7477 13.1569 13.0506 13.0229 12.7456 12.1573 12.1499 12.7286 12.0489 11.7046 10.7327 11.7545 9.86858 9.8216 8.94555 8.76493 10.087 8.34101 6.59318 7.22321 6.22475 6.62251 6.13628 5.74237 5.55807 16.4048 5.42649 5.42113 5.42005 5.36206 4.99646 4.82311 4.81614 4.60811 5.18376 4.4295 8.76072 6.14585 5.86349 5.20917 5.70007 5.13334
threshold=1.5000000000000002 2.5000000000000004 1.0000000180025095e-35 594.50000000000011 1.5000000000000002 5.5000000000000009 0 659.50000000000011 591.50000000000011 1.5000000000000002 3.5000000000000004 21.500000000000004 1.5000000000000002 1.5000000000000002 57.850000000000001 4.5000000000000009 699.50000000000011 21.500000000000004 690.50000000000011 3.5000000000000004 1.0000000180025095e-35 231.50000000000003 447.50000000000006 1 697.50000000000011 3.5000000000000004 1.5000000000000002 8.5000000000000018 2.5000000000000004 2.5000000000000004 699.50000000000011 657.50000000000011 573.50000000000011 2.5000000000000004 655.50000000000011 17.500000000000004 14.500000000000002 597.50000000000011 2 615.50000000000011 26.500000000000004 215.50000000000003 2.5000000000000004 1.0000000180025095e-35 124.50000000000001 2.5000000000000004 333.50000000000006 9.5000000000000018 687.50000000000011 73.500000000000014 3.5000000000000004 3 103.50000000000001 3.5000000000000004 46.750000000000007 507.50000000000006 426.50000000000006 315.50000000000006 543.50000000000011 2.5000000000000004 378.50000000000006 25.500000000000004
decision_type=2 2 2 2 2 2 9 2 2 2 2 2 2 2 2 2 2 2 2 2 2 2 2 9 2 2 2 2 2 2 2 2 2 2 2 2 2 2 9 2 2 2 2 2 2 2 2 2 2 2 2 1 2 2 2 2 2 2 2 2 2 2
left_child=2 6 3 9 8 49 18 11 23 14 15 33 24 21 -1 46 20 25 26 32 28 52 40 -4 -5 -11 -2 -28 37 -19 31 38 -17 47 44 36 42 -15 -14 -40 -16 -42 -29 -13 45 -30 -3 -7 -33 -6 -45 -44 -8 54 -25 56 57 61 -57 -59 -61 -46
right_child=1 10 4 12 5 7 13 -9 -10 17 -12 43 30 16 22 19 -18 29 -20 -21 -22 -23 -24 53 -26 -27 27 35 34 -31 -32 48 -34 -35 -36 -37 -38 -39 39 -41 41 -43 51 50 55 -47 -48 -49 -50 -51 -52 -53 -54 -55 -56 58 -58 59 -60 60 -62 -63
leaf_value=0.0058625167412224323 0.016193359332961694 0.014811953955525124 -0.0035344586984257399 -0.01283325763842446 -0.0032825373412691534 -0.0041712397209983671 0.0099199403825739954 -0.010495466152776505 -0.013853768309752594 0.00025558383172042141 0.043901232759548055 -0.0032604146166453603 -0.0047403134996571675 0.012967452428828314 -0.0011405280408104735 0.031176446073590488 0.00060778902585183073 -0.0017719896469661222 0.0083725053965244024 0.041118971699716747 0.024112233280204728 0.0059305260901681735 -0.0062399740208329583 -0.0019799372836066123 0.00014811752654578085 0.0039554349737939221 0.017333858975406145 0.032097587881920263 0.009930312443396181 0.0014457146209195968 0.0070175156823798733 -0.0092951733135993482 0.019454066141430724 0.0023200347417990123 0.0081407625826347071 0.019635822295721344 0.036525521971094467 0.0022939414308547029 -0.0052777262735793952 0.0028140223012979144 -0.00016320779594956983 -0.010755299317567697 0.017493961499590715 -0.0014782597820455559 0.017197694008954791 0.026291197019302694 0.024396395683061456 0.00035117060944385946 -0.0019587598629367243 -0.0063663282554065172 0.0076442826862287627 0.027674748783312882 0.01841677109022484 -0.0065393337236160712 -0.0095663256929372515 0.026135365832258863 0.0095912430035792091 0.014580468255812351 0.017037550009790889 0.02906166955484903 0.017568462877414533 0.010173341512988746
leaf_weight=882.97250312566757 643.54731315374374 295.14733281731606 2627.4011745750904 1613.0367448031902 1582.6069094240665 1050.4391974508762 313.6762373149395 1192.9845077097416 2072.7991188764572 2975.8998488783836 372.46929389238358 9914.7611701190472 1334.0666501820087 1340.0634591579437 4905.2847582697868 640.11328801512718 231.94509762525558 4232.9370307922363 242.45694968104362 307.8171751499176 477.10022637248039 1414.1838551461697 2267.4345317482948 242.89554873108864 214.19378530979156 8744.2286451756954 498.06555956602097 245.92963299155235 221.52167874574661 8504.288183838129 219.80243414640427 1223.1162291169167 249.52955573797226 5327.9458030462265 288.14049452543259 332.84540283679962 308.85935631394386 211.99558252096176 401.50292783975601 880.86483678221703 247.30341166257858 365.92386609315872 244.54657098650932 464.64808219671249 711.44809606671333 496.86561587452888 295.5775465965271 1795.0443634092808 317.00218400359154 12896.106456488371 221.71892178058624 221.88779726624489 356.10200062394142 4335.7188830375671 3085.906298995018 233.49526503682137 534.56502988934517 228.36997944116592 733.27765491604805 240.30015590786934 195.76520836353302 409.96946737170219
leaf_count=2479 1697 738 7556 4736 4562 2967 837 3481 6171 8394 894 28342 3808 3551 13959 1550 633 12016 652 744 1226 3850 6543 706 627 24361 1284 624 586 23972 622 3529 613 14986 763 847 773 568 1136 2475 708 1058 624 1326 1868 1274 745 5039 908 37271 630 565 949 12624 9000 605 1404 604 1929 627 513 1077
internal_value=7.33183e-05 0.0178519 -0.0027207 -0.000393632 -0.00467587 -0.003557 0.0154936 -0.00176433 -0.00779289 0.00065202 0.0302698 -0.00120953 -0.00597726 0.0137815 -0.00213901 0.0274304 0.0154083 0.0016413 0.0208952 0.0312895 0.0159512 0.00866463 -0.00304643 -0.00657223 -0.0113115 0.00301599 0.0221118 0.0241683 0.0152852 0.000376381 -0.00375008 -0.00431948 0.0278885 0.00105338 0.0166499 0.0266822 0.0289787 0.0115096 -0.00227949 0.000280536 -0.00173427 -0.0064837 0.0257067 -0.00295423 0.017262 0.0212462 0.0196077 -0.00131832 -0.00778512 -0.00602925 0.00146862 0.0223371 0.0144375 -0.00761358 -0.00901276 0.0163913 0.0152066 0.0168875 0.0192349 0.0206981 0.023902 0.0146297
internal_weight=99678.4 13537.6 86140.8 39329.9 46811 34446.3 11376.9 19967.5 12364.7 33126.3 2160.65 18774.6 6203.59 8638.79 8668.92 1788.18 6554.82 24457.4 2738.14 1197.46 6322.88 2083.96 7785.95 10291.9 1827.23 11720.1 2495.68 1852.13 5845.78 12737.2 4376.36 4156.55 889.643 8173.43 4293.72 1354.07 1021.22 1552.06 2616.43 1282.37 5518.51 613.227 712.364 10601.1 4005.58 718.387 590.725 2845.48 1540.12 14478.7 686.367 466.434 669.778 7664.52 3328.8 3287.19 2320.42 1785.85 966.773 664.435 436.065 1121.42
internal_count=281206 35214 245992 111331 134661 98604 29930 56771 36057 93490 5284 53290 17841 22864 24747 4390 17228 68743 7066 2907 16595 5636 22268 29886 5363 32755 6414 4717 15369 35988 12478 11856 2163 22992 11250 3433 2586 4119 7419 3611 15725 1766 1813 30298 10487 1860 1483 8006 4437 41833 1956 1189 1786 22330 9706 8627 6093 4689 2534 1744 1140 2945
cat_boundaries=0 1 2 3 4
cat_threshold=2 2 1 2
is_linear=0
shrinkage=0.05


Tree=5
num_leaves=63
num_cat=4
split_feature=12 12 11 11 7 11 0 0 6 7 7 11 5 5 0 11 7 5 3 7 6 7 7 11 6 7 3 0 7 6 7 0 6 3 7 6 7 5 6 7 0 6 6 7 0 7 7 6 7 0 0 5 5 0 7 7 0 0 7 7 7 3
split_gain=2168.05 1105.32 857.058 583.209 110.239 107.911 107.897 64.9759 58.1228 50.2398 57.1675 58.6134 34.2744 25.7764 33.8687 81.4545 31.9825 24.7036 24.5772 22.5343 21.7027 21.0572 35.0838 29.6873 20.1335 19.1505 17.4218 15.9425 15.0382 14.9526 15.1864 15.1315 13.1865 12.4154 12.327 14.1509 12.3043 11.6953 11.6039 11.2126 10.2209 10.0224 9.52401 8.92408 8.65518 10.746 7.8558 7.8493 7.64029 6.743 6.68133 6.60843 6.30606 6.1643 6.15446 6.07948 6.19858 6.01139 5.73063 5.72584 5.15096 4.95698
threshold=1.0000000180025095e-35 1.5000000000000002 2.5000000000000004 1.5000000000000002 597.50000000000011 2.5000000000000004 4.5000000000000009 21.500000000000004 1.5000000000000002 697.50000000000011 179.50000000000003 1.5000000000000002 1.0000000180025095e-35 1.0000000180025095e-35 6.5000000000000009 1.5000000000000002 641.50000000000011 1.0000000180025095e-35 0 663.50000000000011 1.5000000000000002 697.50000000000011 671.50000000000011 2.5000000000000004 1.5000000000000002 579.50000000000011 1 23.500000000000004 306.50000000000006 1.5000000000000002 348.50000000000006 14.500000000000002 3.5000000000000004 2 85.500000000000014 1.5000000000000002 513.50000000000011 1.0000000180025095e-35 2.5000000000000004 444.50000000000006 6.5000000000000009 1.5000000000000002 3.5000000000000004 483.50000000000006 11.500000000000002 133.50000000000003 540.50000000000011 3.5000000000000004 327.50000000000006 3.5000000000000004 26.500000000000004 1.0000000180025095e-35 1.0000000180025095e-35 5.5000000000000009 552.50000000000011 651.50000000000011 8.5000000000000018 8.5000000000000018 231.50000000000003 246.50000000000003 701.50000000000011 3
decision_type=2 2 2 2 2 2 2 2 2 2 2 2 2 2 2 2 2 2 9 2 2 2 2 2 2 2 9 2 2 2 2 2 2 9 2 2 2 2 2 2 2 2 2 2 2 2 2 2 2 2 2 2 2 2 2 2 2 2 2 2 2 9
left_child=3 5 -3 4 6 9 41 24 -6 10 11 34 -13 14 15 38 18 -4 -15 33 46 22 23 25 36 29 -14 -28 42 30 -5 37 -20 55 47 -36 -8 -31 39 -12 -26 48 58 -30 -37 -46 50 -2 -1 -43 51 -9 -7 -19 -51 56 -10 -39 -16 -52 -21 -60
right_child=1 2 17 21 8 52 7 20 19 -11 13 12 26 16 28 -17 -18 53 32 60 -22 -23 -24 -25 40 -27 27 -29 43 31 -32 -33 -34 -35 35 44 -38 57 -40 -41 -42 49 -44 -45 45 -47 -48 -49 -50 54 59 -53 -54 -55 -56 -57 -58 -59 61 -61 -62 -63
leaf_value=-0.0063733380503044352 0.032827504992114745 0.10832723533804692 0.037859998655450838 0.013496836011421286 -0.013721683021847998 0.026460655875001002 -0.0013537623051046975 -0.0027345298862693343 -0.0048386534567094013 0.035289355588126806 0.010939069412249527 0.004181660470184461 0.011062369173881391 0.027400923098696253 0.0032602009951637118 0.000944108276958227 -0.003387229736254447 0.017331323446519532 0.010911175921893073 -0.010295639096049273 -0.002682309440696768 0.004310681405080753 0.033632822317365439 0.028241843119993556 -0.0014002435692394184 0.0029380714756404858 0.034103689724346915 0.015517340736466895 0.0015317301226200047 0.029257285249153154 -0.00189732947126836 0.011993289642422094 0.020907402708684717 -0.0056988115011680357 0.0084489619526368562 0.032587646161247978 -0.0079193126612870802 0.015496312766599666 0.028607438205843161 0.026780073535340482 0.0018619738037158511 -0.0061052806980498734 0.017616395041486006 0.0064330715601434111 0.011051442840553439 0.027743033656536277 -0.010769402773629909 0.021714037376629129 -0.010225396987866821 -0.0024192711250400306 -0.0050633597739103212 -0.0063647537504973777 0.035326401533818809 0.028598232452518687 -0.011976835929565261 -0.0071456275349982157 0.0032068488339160105 0.025235787545168004 0.01730855139948137 -0.011387212604813485 -0.0040391880983939405 0.0076701429620784356
leaf_weight=2706.4476330280304 471.75726336240768 537.71314251422882 555.91656044125557 437.03897288441658 3583.1379835903645 426.00962626934052 4658.0471712946892 2638.6376049220562 325.15263420343399 222.89267030358315 265.59805205464363 923.78989467024803 479.22030755877495 366.64619925618172 411.18617182970047 702.2751507461071 247.17802289128304 266.83688390254974 1421.3590543270111 2800.4022725224495 20418.155914008617 464.99742051959038 251.4450076520443 349.53104430437088 3026.1613935232162 419.5577038526535 227.37702620029449 234.22044506669044 1828.4590197205544 268.08882719278336 252.92239084839821 1117.5215893387794 429.63339677453041 4223.6320937275887 198.3278736770153 192.45201230049133 842.69900754094124 781.14193806052208 501.52795025706291 192.79456400871277 11623.664341837168 12614.836168408394 327.47753137350082 1887.2549389302731 188.12337821722031 197.82281321287155 736.13805395364761 239.5618579685688 2454.8290256857872 2137.4392019212246 693.11269557476044 2388.3654181659222 379.01666429638863 222.73174846172333 182.84481018781662 274.26484540104866 907.75774994492531 198.74142616987228 201.71904429793358 740.21432989835739 372.77399954199791 393.85332581400871
leaf_count=7885 1224 901 1285 1151 10766 1006 13393 7582 922 601 711 2465 1251 922 1107 1902 655 662 3759 8231 58314 1264 628 839 8596 1118 569 600 5003 664 682 2872 1113 12203 542 500 2458 2034 1287 507 32546 36550 875 5126 501 527 2175 617 7219 6154 2010 6991 894 524 527 788 2549 507 542 2171 1085 1072
internal_value=6.71579e-05 0.017497 0.0570303 -0.00304158 -0.00402682 0.0128804 -0.00323237 -0.00193917 -0.00834428 0.0117596 0.011341 0.0169287 0.0110228 0.00929967 0.00769387 0.0138846 0.0136726 0.0306474 0.0155741 -0.00618031 -0.00351447 0.0143913 0.0155413 0.0143519 0.000219652 0.0129548 0.0177401 0.0246727 0.00565618 0.0143302 0.00785372 0.0162192 0.0132314 -0.0043086 0.0243292 0.0199742 -0.00235959 0.0200035 0.0233518 0.0176016 0.00118811 -0.00630604 0.0102095 0.00402118 0.0239261 0.019607 -0.00587552 0.0290847 -0.00820547 -0.00564964 -0.00531788 -0.00445928 0.0306348 0.0224573 -0.00317243 -0.000412728 0.00108503 0.0174717 0.00780021 -0.00832919 -0.00956065 0.0109347
internal_weight=100030 15140.7 1583.2 84889.7 80348.7 13557.5 67861.6 47765.2 12487.1 12752.5 12529.6 3352.65 1864.61 9176.96 6712.15 1662.2 2464.82 1045.49 2217.64 8903.98 27614.6 4540.99 4075.99 3824.54 20150.6 3475.01 940.818 461.597 5049.95 3055.46 689.961 2365.49 1850.99 5730.81 1488.05 776.726 5500.75 1247.97 959.921 458.393 14649.8 20096.4 1334.24 3715.71 578.398 385.946 7196.47 711.319 5161.28 14935.1 6460.33 5027 805.026 489.569 2320.28 1507.18 1232.91 979.883 1006.76 1433.33 3173.18 595.572
internal_count=282124 39250 3372 242874 231115 35878 194571 136236 36544 33978 33377 8796 4885 24581 18132 4407 6449 2471 5794 25778 79243 11759 10495 9867 56993 9028 2420 1169 13725 7910 1833 6077 4872 16462 3911 2070 15851 3205 2505 1218 41142 58335 3596 10129 1528 1028 20929 1841 15104 43231 18754 14573 1900 1186 6681 4259 3471 2541 2721 4181 9316 1614
cat_boundaries=0 1 2 3 4
cat_threshold=2 8 2 2
is_linear=0
shrinkage=0.05


Tree=6
num_leaves=63
num_cat=6
split_feature=11 5 11 7 3 6 3 6 7 7 6 8 6 7 11 0 7 7 3 6 7 0 7 8 5 8 7 7 8 0 0 0 8 7 7 3 0 6 6 7 0 9 0 8 7 9 7 7 7 8 7 0 6 0 7 8 0 7 8 8 0 7
split_gain=1796.06 132.496 111.031 78.042 67.5092 46.8211 36.5289 37.8808 39.7312 36.5091 31.8465 47.2316 31.669 24.1656 22.2422 23.7829 25.9401 21.9467 20.1068 19.7965 18.8304 18.6958 16.9324 15.5657 13.6863 11.5157 11.8412 11.3006 13.1621 10.8399 10.3268 9.41964 9.3713 9.24578 15.269 10.4534 9.04898 8.28465 8.2577 8.03573 7.93477 7.73694 7.7035 7.64091 10.3169 7.58011 7.55032 7.2738 7.194 11.5029 6.68511 6.59349 6.58488 6.61874 6.37613 6.33984 7.4483 6.2791 7.23162 7.679 6.21937 5.91008
threshold=1.5000000000000002 1.0000000180025095e-35 2.5000000000000004 567.50000000000011 0 1.5000000000000002 1 2.5000000000000004 124.50000000000001 647.50000000000011 1.5000000000000002 1.5000000000000002 2.5000000000000004 594.50000000000011 3.5000000000000004 4.5000000000000009 604.50000000000011 675.50000000000011 2 2.5000000000000004 19.450000000000003 5.5000000000000009 690.50000000000011 1.0000000180025095e-35 1.0000000180025095e-35 -3.4999999999999996 483.50000000000006 647.50000000000011 5.5000000000000009 11.500000000000002 24.500000000000004 6.5000000000000009 1.5000000000000002 699.50000000000011 657.50000000000011 3 3.5000000000000004 1.5000000000000002 1.5000000000000002 145.50000000000003 6.5000000000000009 4 2.5000000000000004 -3.4999999999999996 66.500000000000014 5 697.50000000000011 685.50000000000011 127.50000000000001 -11.499999999999998 76.500000000000014 26.500000000000004 1.5000000000000002 10.500000000000002 351.50000000000006 1.0000000180025095e-35 25.500000000000004 35.350000000000001 -12.499999999999998 -23.499999999999996 22.500000000000004 333.50000000000006
decision_type=2 2 2 2 9 2 9 2 2 2 2 2 2 2 2 2 2 2 9 2 2 2 2 2 2 2 2 2 2 2 2 2 2 2 2 9 2 2 2 2 2 1 2 2 2 1 2 2 2 2 2 2 2 2 2 2 2 2 2 2 2 2
left_child=1 3 6 12 9 46 22 27 30 19 11 25 18 54 15 -4 55 21 -1 31 -20 57 23 41 -10 26 -6 28 37 36 -9 -3 -11 34 35 -7 -14 -8 -34 -22 61 -2 -39 -33 -45 -26 -5 -36 49 -23 -42 -41 53 -46 -13 56 -17 -12 59 -59 -49 -21
right_child=2 4 14 5 10 33 7 8 24 32 17 13 29 -15 -16 16 -18 -19 20 40 39 48 -24 -25 45 -27 -28 -29 -30 -31 -32 43 38 -35 47 -37 -38 42 -40 51 50 -43 -44 44 52 -47 -48 60 -50 -51 -52 -53 -54 -55 -56 -57 -58 58 -60 -61 -62 -63
leaf_value=0.0017975472379852366 0.019737024647775294 -0.0071870072190668086 0.016462216285346474 -0.012119962443130952 -0.0025090941232075552 -0.0038713591152573744 0.0094612634451228146 0.021718737971030262 0.01739532862238578 -0.0053603112222825261 -0.0010080177340418472 -0.0080372093901118109 0.0013051255833270094 -0.018975465788494548 0.037226716346288866 0.030605190932922466 0.01424166675435889 -0.012298050468644144 0.0084264579576403664 0.001620736146503947 -5.058902841757145e-05 -0.0087841254773258892 0.0070313762251668901 0.013970283327819492 0.008123805488072967 -0.006310509884977486 0.010812051778989099 0.0033396890638357603 0.0039244862909256122 0.0012433705972201413 0.032932619637524738 0.0017676818106904795 -0.023736478713607262 0.0074325202043359351 -0.0092550416717992016 0.0013842485346823405 0.0056446424405499794 0.0084924204228009875 -0.010413804094995968 -0.0026312007033815477 -0.0029925232396822016 0.026041623180515169 0.016490021592495682 0.0057105456353477163 -0.010243122817330821 0.014272073388515947 -0.0021417601076522508 -0.0072866313359999622 -0.0035680075467133029 0.0010837133155688617 0.0033792543895577593 -0.0064253471447497969 -0.0010554967583340589 -0.0036123954282036791 -0.012095154955653935 0.024325095825752083 0.040944971333911506 -0.0096653537093521185 -0.0064527341862484324 -0.0012111117759763367 0.0054939720811539366 -0.006973526162827458
leaf_weight=4615.6482466161251 949.1478898525238 875.73822495341301 645.41157022118568 2006.4044012725353 1400.0788820981979 1930.059215337038 1605.3995663225651 583.26884385943413 1580.8322542607784 454.5698826611042 671.66927593946457 2176.6245464682579 1901.7087689936161 888.31217330694199 402.05632674694061 558.3170120716095 264.90282106399536 913.71829235553741 408.9521658718586 396.97541028261185 2572.776686668396 349.01534247398376 246.38549754023552 637.8940227329731 1010.5279836952686 2635.1663256585598 189.38694190979004 594.62626007199287 596.44391113519669 10388.285932302475 316.81791591644287 1274.582355260849 183.01844003796577 221.62443694472313 1130.0723860859871 1855.912983328104 3261.806864798069 399.13947251439095 319.1018306016922 7138.0096849501133 460.23349153995514 998.6065054833889 1225.8198046088219 325.80424103140831 545.03786626458168 994.8508537709713 209.36633586883545 202.36412897706032 9496.1455405652523 1919.8873508572578 3899.5311339199543 1363.8400235176086 1383.8781996667385 1216.0135107934475 1743.3490754663944 223.78482323884964 253.13862803578377 336.3248382806778 10638.569559544325 1333.7198211848736 179.73014768958092 403.23170465230942
leaf_count=12972 2322 2537 1546 6016 4076 5533 4242 1446 3966 1345 1954 6458 5361 2749 896 1258 617 2723 1145 1137 7282 998 644 1609 2606 7791 555 1580 1568 29123 773 3600 566 622 3315 5207 9010 1037 940 20394 1287 2435 3124 924 1599 2563 618 586 27315 5504 10906 3946 3884 3546 5239 520 568 985 31116 3886 521 1156
internal_value=4.77116e-05 -0.00266854 0.0165944 -0.000535447 -0.00447806 -0.00503748 0.0146094 0.0130367 0.0162737 -0.00120031 -0.00558706 -0.00814031 0.000564854 -0.0115293 0.0265208 0.0243084 0.0282034 -0.00468822 -0.000989611 -0.000369627 -0.00210987 -0.00440723 0.0195558 0.0207492 0.0139164 -0.0042831 -0.000921862 0.00975231 0.0107487 0.00217404 0.0256659 -0.00242244 -0.0105613 -0.00257288 -0.00299141 -0.00129502 0.00404641 0.0120087 -0.0152698 -0.00249894 0.00186662 0.0229694 0.0145256 -0.00154315 -0.002759 0.0111739 -0.0111771 -0.00723861 -0.00296365 -0.000434213 0.00270663 -0.00323985 -0.00363642 -0.00566458 -0.00984192 0.0317759 0.0338307 -0.00571566 -0.00597255 -0.00291368 -0.00127487 -0.00270999
internal_weight=99903.6 85816.2 14087.4 39386.6 46429.7 7735.53 11739.8 8907.73 4486.3 11737.7 34692 9032.92 31651 4808.29 2347.61 1945.55 1300.14 25659.1 16099.2 10781 11483.6 24745.3 2832.03 2585.65 3586.21 4224.63 1589.47 4421.43 3826.8 15551.8 900.087 5621.05 956.69 5519.76 5298.14 3785.97 5163.52 3230.36 502.12 11074.6 5159.97 1947.75 1624.96 4745.32 3470.73 2005.38 2215.77 1512.17 11765 2268.9 4359.76 8501.85 3144.93 1761.05 3919.97 1035.24 811.456 12980.3 12308.6 1670.04 382.094 800.207
internal_count=281747 246427 35320 111651 134776 22418 29915 22905 11354 33427 101349 26868 89233 14446 5405 4509 2963 74481 45739 30576 32767 71758 7010 6366 9135 12422 4631 11551 9971 43494 2219 16090 2851 15784 15162 10740 14371 8403 1506 31622 14486 4757 4161 13553 9953 5169 6634 4422 33817 6502 12193 24340 9029 5145 11697 2346 1826 37941 35987 4871 1107 2293
cat_boundaries=0 1 2 3 4 5 6
cat_threshold=2 2 2 1 2 2
is_linear=0
shrinkage=0.05


Tree=7
num_leaves=63
num_cat=2
split_feature=12 12 11 11 7 0 11 6 11 0 5 7 3 3 7 8 7 7 8 6 6 8 0 5 6 8 8 7 0 8 7 6 5 6 0 6 7 7 0 7 7 7 6 5 7 7 6 7 7 8 8 0 7 7 0 0 7 0 7 7 6 8
split_gain=1888.24 892.39 696.806 473.615 112.701 98.3184 83.1636 63.903 52.4102 86.5962 84.2265 74.6922 47.4653 43.6423 39.3238 33.9462 31.2196 28.8725 25.2674 21.677 21.5942 17.2084 16.8697 15.6244 15.276 19.1795 14.5674 14.4335 14.0232 26.8461 12.8526 12.7531 11.7129 11.5058 10.2053 10.2001 10.1056 9.6623 9.14628 8.90244 39.9701 9.98866 17.3386 13.3695 8.76671 8.48304 8.42672 7.92528 7.83576 7.22461 13.0294 6.87326 6.72089 6.65263 7.77143 6.50216 6.47643 6.39856 6.02697 9.10076 5.98222 5.83833
threshold=1.0000000180025095e-35 1.5000000000000002 2.5000000000000004 1.5000000000000002 645.50000000000011 4.5000000000000009 2.5000000000000004 1.5000000000000002 1.5000000000000002 6.5000000000000009 1.0000000180025095e-35 60.500000000000007 0 1 655.50000000000011 1.0000000180025095e-35 555.50000000000011 291.50000000000006 -2.4999999999999996 3.5000000000000004 1.5000000000000002 2.5000000000000004 5.5000000000000009 1.0000000180025095e-35 1.5000000000000002 -1.4999999999999998 1.5000000000000002 628.50000000000011 3.5000000000000004 -3.4999999999999996 679.50000000000011 2.5000000000000004 1.0000000180025095e-35 1.5000000000000002 26.500000000000004 1.5000000000000002 38.050000000000004 97.500000000000014 25.500000000000004 697.50000000000011 673.50000000000011 348.50000000000006 1.5000000000000002 1.0000000180025095e-35 483.50000000000006 673.50000000000011 1.5000000000000002 222.50000000000003 158.50000000000003 -1.0000000180025095e-35 5.5000000000000009 6.5000000000000009 372.50000000000006 194.50000000000003 18.500000000000004 28.500000000000004 345.50000000000006 11.500000000000002 441.50000000000006 215.50000000000003 2.5000000000000004 5.5000000000000009
decision_type=2 2 2 2 2 2 2 2 2 2 2 2 9 9 2 2 2 2 2 2 2 2 2 2 2 2 2 2 2 2 2 2 2 2 2 2 2 2 2 2 2 2 2 2 2 2 2 2 2 2 2 2 2 2 2 2 2 2 2 2 2 2
left_child=3 6 -3 4 5 24 8 16 9 31 30 -11 55 18 17 22 21 35 -12 39 26 34 -4 -21 25 -1 32 28 49 -30 46 58 -6 -31 -7 -13 -27 -23 53 40 41 43 -43 48 52 -22 -10 -25 -5 -15 -51 -14 -19 54 -37 60 -33 -34 59 -2 -9 -44
right_child=1 2 15 19 20 7 -8 12 10 11 13 14 51 27 -16 -17 -18 44 -20 23 45 37 -24 47 -26 36 -28 -29 29 33 -32 56 57 -35 -36 38 -38 -39 -40 -41 -42 42 61 -45 -46 -47 -48 -49 -50 50 -52 -53 -54 -55 -56 -57 -58 -59 -60 -61 -62 -63
leaf_value=-0.0030816567016586751 0.024512498081625242 0.093395728113992743 0.021722735778065119 0.013291513916220118 -0.014251287695565688 -0.0024231793213338438 0.026930539957815715 -0.0036460780620967154 -0.0026915910442246145 0.031094166849581956 0.038560003328860171 0.006214622523121595 -0.0011211955099465502 0.0040887747340474321 0.030861437335804261 0.010241183311944775 -0.010732747093868029 0.0059883429229675772 0.01773129298690896 0.027409724622789775 -0.0062154849847520684 -0.0011413270465993474 0.036441539640676444 0.021769267962718906 -0.0054169901958996854 0.00027584841356850706 -0.020251316200612393 -1.0484168827433165e-05 0.026224115430128765 0.0014837858496917124 0.013313462312745973 0.035007781486841659 0.0031445557910151573 0.014192705400534036 -0.0074563333953835123 0.015717990449629109 -0.0106578679787004 -0.0091195151546282355 0.0092732705281723723 0.0041614816804894086 0.031541426038597019 -0.0024149530040335071 0.0082145707862806092 0.00968634964442186 0.0079052787867729037 -0.010487809476550215 0.0031193331527571626 0.011099048004493061 0.026753365165821476 0.019271855365167706 0.0058247055676901765 0.0014460268845982256 -0.0011910228456698214 0.013642310996494376 0.029455551955895234 -0.0065493743783816118 0.025289904663348042 -0.010323733318756566 0.027543563577937271 0.0097810666937907884 -0.0018478969114889485 0.01756993105755842
leaf_weight=1271.4041698873043 205.70809465646744 601.395676612854 301.81301802396774 212.48253971338272 940.63355442881584 7908.5656870603561 846.216477394104 6984.312675088644 828.90369814634323 419.32333254814148 228.74534234404564 397.82388198375702 3264.7111793756485 577.49418985843658 194.82605546712875 249.49780970811844 2085.6214757859707 548.38778546452522 400.60564774274826 345.52735462784767 2396.0742530822754 462.26058545708656 548.38515844941139 260.73782134056091 16023.36678096652 223.06212344765663 709.92515113949776 280.02986893057823 408.39607074856758 243.22530695796013 255.61884564161301 354.29555970430374 176.9511561691761 665.00998315215111 1154.0942169725895 194.83439359068871 4018.6580674648285 2119.7027643024921 391.46648621559143 467.39051240682602 231.50328290462494 370.2991199195385 733.87363687157631 1044.4548127353191 994.36240690946579 2255.6984988749027 2522.4878577589989 523.2641986310482 220.03530848026276 314.0509772002697 422.45750364661217 12945.621967434883 803.78225895762444 354.80740079283714 218.29308208823204 1017.5115795433521 332.20821651816368 175.79500257968903 200.48563656210899 213.80898985266685 13693.701825588942 215.80597832798958
leaf_count=3738 526 889 700 520 2873 22843 1887 20174 2235 1047 514 1086 9303 1496 516 591 6344 1505 996 828 7047 1364 1160 635 46844 652 2242 740 989 649 676 876 537 1670 3399 502 12014 6318 1038 1256 553 977 1844 2622 2713 6731 6570 1308 543 817 1098 36138 2217 933 566 2931 827 534 515 569 39188 545
internal_value=-7.97843e-05 0.0159504 0.0501226 -0.00302543 -0.00392674 -0.00336016 0.0117435 -0.00217651 0.0107528 0.0142734 0.00788365 0.0109948 -0.00111789 0.0133627 0.0089385 0.0264576 -0.0050991 0.00784438 0.0253017 0.0125299 -0.0101563 -0.00409008 0.0312165 0.0185516 -0.0061981 -0.00846831 -0.0144963 0.0107812 0.0119299 0.0155769 0.00250639 0.0256106 -0.0113375 0.0107893 -0.00306413 0.0131229 -0.0100829 -0.00769114 0.0154933 0.0105842 0.0115754 0.00992286 0.00676215 0.0127476 0.00434144 -0.00828718 0.00168211 0.0146477 0.02014 0.00827569 0.0115586 0.000928996 0.00172065 0.018664 0.0229768 -0.00264727 0.0303052 -0.00356752 0.0204125 0.0170046 -0.00245526 0.0103405
internal_weight=99971.8 15518.7 1701.09 84453 79827.7 73172.6 13817.7 51636.1 12971.4 5824.41 7147.03 4517.91 37905.9 3540.01 4098.58 1099.7 13730.2 3903.76 629.351 4625.37 6655.08 11644.6 850.198 1129.53 21536.5 5513.12 2003.3 2910.66 2630.63 1316.63 3607.01 1306.51 1293.38 908.235 9062.66 1557.23 4241.72 2581.96 1159.4 3495.85 3028.45 2796.95 1319.98 1476.97 2346.53 4651.77 3351.39 784.002 432.518 1314 736.508 16210.3 1352.17 767.935 413.127 21695.5 686.504 352.746 620.003 419.517 20678 949.68
internal_count=281958 39113 3340 242845 231214 211250 35773 148002 33886 15436 18450 12123 107734 8969 11076 2451 40268 10560 1510 11631 19964 33924 1860 2771 63248 16404 6186 7459 6719 3308 9481 3313 3944 2319 26242 4125 12666 7682 3039 8860 7604 7051 3366 3685 6435 13778 8805 1943 1063 3411 1915 45441 3722 2001 1068 62293 1703 1071 1610 1095 59362 2389
cat_boundaries=0 1 2
cat_threshold=1 2
is_linear=0
shrinkage=0.05


Tree=8
num_leaves=63
num_cat=10
split_feature=12 12 11 11 6 11 0 11 5 0 3 0 10 3 0 6 10 5 0 5 0 0 0 6 3 0 6 10 0 0 11 0 9 5 3 0 6 0 0 3 0 9 9 9 0 10 0 6 5 0 0 6 6 0 0 9 0 0 0 6 6 0
split_gain=1810.85 758.417 561.895 495.374 89.4812 76.8 73.4114 45.3175 64.8249 64.4738 40.9672 40.2075 21.2197 19.3679 18.5894 18.0714 17.6036 17.0458 11.7115 11.1975 14.2953 9.92872 9.78295 9.61769 9.27202 7.38477 6.41097 6.36568 7.98257 6.21045 8.15004 5.84097 6.00119 5.56877 5.51924 15.7985 10.454 6.63658 5.99674 5.41525 5.39622 4.46643 3.7264 3.68387 3.55989 3.33697 3.24904 3.17113 3.01486 2.8897 3.68149 3.39715 2.90776 2.84331 2.71423 2.70982 3.97153 3.6467 2.64412 2.47784 3.22895 2.45191
threshold=1.0000000180025095e-35 1.5000000000000002 2.5000000000000004 1.5000000000000002 1.5000000000000002 2.5000000000000004 4.5000000000000009 1.5000000000000002 1.0000000180025095e-35 6.5000000000000009 0 21.500000000000004 1.0000000180025095e-35 1 5.5000000000000009 2.5000000000000004 1.0000000180025095e-35 1.0000000180025095e-35 3.5000000000000004 1.0000000180025095e-35 7.5000000000000009 2.5000000000000004 23.500000000000004 2.5000000000000004 2 7.5000000000000009 1.5000000000000002 1.0000000180025095e-35 1.5000000000000002 3.5000000000000004 2.5000000000000004 2.5000000000000004 3 1.0000000180025095e-35 4 23.500000000000004 2.5000000000000004 11.500000000000002 13.500000000000002 5 3.5000000000000004 6 7 8 21.500000000000004 1.0000000180025095e-35 23.500000000000004 3.5000000000000004 1.0000000180025095e-35 19.500000000000004 17.500000000000004 2.5000000000000004 3.5000000000000004 18.500000000000004 10.500000000000002 9 25.500000000000004 22.500000000000004 29.500000000000004 3.5000000000000004 1.5000000000000002 14.500000000000002
decision_type=2 2 2 2 2 2 2 2 2 2 9 2 2 9 2 2 2 2 2 2 2 2 2 2 9 2 2 2 2 2 2 2 1 2 9 2 2 2 2 9 2 1 1 1 2 2 2 2 2 2 2 2 2 2 2 1 2 2 2 2 2 2
left_child=3 5 -3 4 13 7 31 9 16 15 54 25 34 -1 41 -2 39 -7 47 20 -5 -15 -22 -13 -16 33 -20 28 -21 -30 44 32 -6 -8 37 36 -36 -11 -39 -9 -17 -4 -28 -40 -31 58 -44 -12 -23 50 61 -52 -51 -53 -10 57 59 -41 -25 60 -57 -27
right_child=1 2 14 19 6 17 11 8 10 12 18 23 -14 21 24 40 -18 -19 26 27 22 48 -24 45 -26 49 42 -29 29 30 -32 -33 -34 -35 35 -37 -38 38 43 55 -42 -43 46 -45 -46 -47 -48 -49 -50 52 51 53 -54 -55 -56 56 -58 -59 -60 -61 -62 -63
leaf_value=-0.0041357028049924544 0.017356313757482516 0.083043146500064821 0.021972618350384401 0.026228076207136131 -0.0073897773727475344 0.019399730598616501 0.00045929819724263051 0.0060963079108421747 0.020956547039756992 0.012554152530165811 0.005741113119442004 -0.0043847882062926103 0.02422906893719548 -0.0098008707115272795 0.025809703302303023 0.024823929597911729 0.016514643646900796 0.033401238873155069 0.0075028362105388595 0.017864253872981666 0.0091376189116735996 -0.0059921787761748196 0.018554003818240197 -0.0023482362546421529 0.037836399914088353 0.00051532188357633797 0.012466752895847812 0.0184157912355652 0.0053024835938137189 0.01193552951264768 0.020210007053635317 -0.0043315626301329057 -0.0050314465210091232 -0.002950694051743123 0.011806836694869011 0.0096612342845090581 0.025607511885815032 -0.0015180178406305812 0.010975540180056842 -0.003839599339535447 0.033471006235555087 0.011981875594335462 0.023156886254613897 0.0039763411477430084 0.007570255495785075 0.0004696586181890063 0.01524543178671328 0.011078424730981555 -0.0076029016707051455 0.0014980918294215946 0.0017321360519016605 -0.0058672697670186479 0.0076077906598580741 -0.00023863193244504414 0.027533225720069682 0.0013323983655841377 -0.0010849612785004471 0.0016541864459328802 -0.0067104147088337604 -1.6130651774830585e-05 0.0087655010205473574 0.0023273351223268308
leaf_weight=5837.5642291903496 635.28818696737289 656.33092695474625 227.55494511127472 301.62165838479996 5547.7546185851097 457.84444409608841 2119.5351702272892 746.95463106036186 300.31136956810951 481.49690636992455 1071.2984844446182 8036.4004812240601 288.43213346600533 3639.7766559720039 447.28398951888084 381.64714929461479 234.61739149689674 413.87242612242699 346.40494894981384 336.11659017205238 540.23206573724747 5733.3707409799099 563.58131909370422 14387.686336994171 249.73803490400314 7837.9656667709351 577.8096738755703 284.42557415366173 620.60785636305809 1022.7175257205963 215.36759984493256 6344.6134227514267 5250.5783978104591 2751.5507838129997 259.30706441402435 2248.4452596902847 291.453991740942 238.08249855041504 388.21604451537132 474.04279816150665 342.19394820928574 220.04208105802536 207.35149028897285 364.51237523555756 859.58061969280243 1045.4989974796772 346.85228005051613 375.96403497457504 5889.2290057837963 558.35457229614258 455.54826292395592 543.19179022312164 299.04070994257927 382.25937801599503 328.47940871119499 217.87604895234108 421.15363851189613 832.59540069103241 355.98285034298897 201.50618210434914 443.52146810293198 2450.6013359427452
leaf_count=17150 1616 884 526 726 16370 997 5974 1903 707 1279 2789 23357 720 11007 931 931 593 895 909 848 1304 16928 1385 41416 519 21957 1418 702 1568 2552 486 18603 15494 7901 695 6011 759 637 1029 1261 812 508 505 969 2202 2977 844 951 17761 1565 1276 1520 835 1069 762 594 1115 2205 1032 528 1170 6861
internal_value=5.03406e-05 0.0156295 0.046161 -0.00285761 -0.00379462 0.0116786 -0.00278582 0.0107185 0.00803289 0.0139521 0.0128135 -0.00164231 0.0111032 -0.00658514 0.0250126 0.0235105 0.00327613 0.0260473 0.0103249 0.0128374 0.0165814 -0.007522 0.0139454 -0.00297669 0.0301188 0.000185036 0.0134549 0.0112614 0.0105952 0.00969632 0.0109963 -0.00553562 -0.00624306 -0.00146692 0.0102169 0.0115203 0.0191099 0.00773865 0.0053985 0.00234554 0.0289118 0.0170611 0.0152763 0.00758614 0.00994206 -0.00226 0.0182054 0.00712762 -0.00680834 0.000827395 0.000621552 -0.00180246 0.00362902 -0.00354235 0.0243922 0.00126411 0.00289535 -0.000338936 -0.00245356 0.00483801 0.00631691 0.00094692
internal_weight=99929.2 15718.5 1800.95 84210.8 79466.5 13917.5 58366.6 13045.8 7126.74 5919.08 3554.47 41223.6 4559.95 21099.9 1144.62 1359.13 3572.27 871.717 2925.68 4744.25 1405.44 15262.4 1103.81 23825.6 697.022 17398 1478.42 3338.82 3054.39 2718.27 2097.67 17142.9 10798.3 4871.09 4271.51 2799.21 550.761 1472.31 990.811 3337.65 723.841 447.597 1132.01 752.728 1882.3 15789.2 554.204 1447.26 11622.6 12527 11669.6 1381 857.395 925.451 628.791 2590.7 1284.06 1306.64 14743.7 862.904 661.398 10288.6
internal_count=281798 38972 3368 242826 231053 35604 168207 33712 18254 15458 8885 117740 12099 62846 2484 3359 9369 1892 7416 11773 3415 45696 2689 68782 1450 48958 3676 8358 7656 6808 5240 50467 31864 13875 11379 7465 1454 3914 2635 8776 1743 1034 2767 1998 4754 45425 1349 3740 34689 35083 32683 3865 2400 2589 1469 6873 3407 3466 42448 2292 1764 28818
cat_boundaries=0 1 2 3 4 5 6 7 8 9 10
cat_threshold=2 2 1 2 2 2 2 2 2 2
is_linear=0
shrinkage=0.05


Tree=9
num_leaves=63
num_cat=11
split_feature=12 12 11 11 6 11 0 0 11 5 3 0 10 6 0 6 6 0 0 0 10 6 0 0 0 6 0 3 5 3 0 6 3 0 0 0 0 9 6 9 10 9 0 0 11 6 10 0 0 5 9 0 9 0 0 9 0 0 0 0 5 9
split_gain=1665.65 619.279 500.059 463.474 96.8 70.7204 63.7675 39.4774 33.5227 84.7945 40.3095 38.2014 22.1081 15.0436 13.341 13.2409 12.2084 11.0096 10.298 9.6104 9.25963 7.49254 6.94927 9.73065 6.209 5.40629 7.15942 5.30385 5.2033 5.05155 4.8175 4.73114 5.16873 9.81158 6.84131 8.65818 4.3217 5.50165 4.28881 7.40542 4.05553 4.01306 3.85316 4.1523 3.65653 3.46691 4.96389 3.71542 3.41045 3.30401 5.05552 3.21163 3.16314 7.22213 7.44053 2.98997 2.84259 2.8124 2.75737 2.72627 2.71895 3.4863
threshold=1.0000000180025095e-35 1.5000000000000002 2.5000000000000004 1.5000000000000002 1.5000000000000002 2.5000000000000004 5.5000000000000009 20.500000000000004 1.5000000000000002 1.0000000180025095e-35 0 6.5000000000000009 1.0000000180025095e-35 3.5000000000000004 2.5000000000000004 1.5000000000000002 3.5000000000000004 5.5000000000000009 26.500000000000004 3.5000000000000004 1.0000000180025095e-35 2.5000000000000004 5.5000000000000009 18.500000000000004 7.5000000000000009 1.5000000000000002 19.500000000000004 1 1.0000000180025095e-35 2 4.5000000000000009 2.5000000000000004 3 23.500000000000004 11.500000000000002 16.500000000000004 19.500000000000004 4 2.5000000000000004 5 1.0000000180025095e-35 6 13.500000000000002 8.5000000000000018 2.5000000000000004 2.5000000000000004 1.0000000180025095e-35 28.500000000000004 29.500000000000004 1.0000000180025095e-35 7 13.500000000000002 8 13.500000000000002 24.500000000000004 9 23.500000000000004 26.500000000000004 25.500000000000004 1.5000000000000002 1.0000000180025095e-35 10
decision_type=2 2 2 2 2 2 2 2 2 2 9 2 2 2 2 2 2 2 2 2 2 2 2 2 2 2 2 9 2 9 2 2 9 2 2 2 2 1 2 1 2 1 2 2 2 2 2 2 2 2 1 2 1 2 2 1 2 2 2 2 2 1
left_child=3 5 -3 4 14 8 28 36 11 15 42 38 31 18 -1 55 19 41 25 -12 27 -19 -7 -24 -15 26 -5 51 -6 -16 -18 52 34 -34 -33 -36 -8 -38 39 -2 59 -4 43 -11 58 -9 47 -47 57 -26 -51 -17 53 -13 -55 56 -10 60 -27 -30 61 -31
right_child=1 2 17 13 6 22 7 45 9 10 16 12 -14 24 29 20 30 21 -20 -21 -22 -23 23 -25 49 44 -28 -29 40 48 -32 32 33 -35 35 -37 37 -39 -40 -41 -42 -43 -44 -45 -46 46 -48 -49 -50 50 -52 -53 -54 54 -56 -57 -58 -59 -60 -61 -62 -63
leaf_value=-0.0094292798930714853 0.022407242327904257 0.074373714388581022 0.020072349620583709 0.0098230749471673855 -0.0036873473763928792 0.031210172867999209 0.00023070675656046197 -0.0036925793881162727 -0.0022080915014094558 0.016851727737693358 0.0056444188584999682 0.0020211825909180791 0.023790578143806036 0.021876867454917782 -0.0048923149365344308 0.0044897503218853758 0.012837486402995122 0.019857798736474849 0.019893604540112946 0.012200965296608187 0.014295673956766924 0.030215976235352701 0.013832387694841037 0.026708992492445918 0.01840863362790544 0.0099568218997491426 0.00099751641505073461 0.0021597579043808393 -0.0069311285468864631 -0.0069805087814214968 0.020945897680247502 0.014951901381986247 0.02131760694327749 0.011154611042802574 -0.0012263183117985678 0.012061952048176745 0.010003563299940781 2.9363223065155062e-05 0.022827619740009561 0.011645402625763973 -0.0023529994548461631 0.010779466426037637 0.029808308951817492 0.026576060787531025 0.017264046943377267 -0.0024853318499144712 0.00087274972199466005 -0.0062453915590204561 0.00034223733590000368 0.0063257777770662745 0.017056681850938348 0.012130291723587103 0.0061854897842883892 0.017293628270963698 0.0079180478143374214 0.0002295304802486743 -0.010109090929443017 -0.0086822469673108818 0.015994880411301333 -0.005359898859377335 -0.0072954068145964744 -0.0042487443818468142
leaf_weight=3675.3281928598881 333.42854338884354 720.24046397209167 231.61750531196594 689.70810720324516 4708.6551006138325 281.05206900835037 14804.485884934664 8109.123741954565 276.28982174396515 218.32493233680725 1099.3091539740562 221.5977937579155 305.43084764480591 438.9145240187645 5692.946999579668 330.84330713748932 420.79551208019257 330.0731498003006 278.38106325268745 1136.9089416861534 212.14090529084206 370.60424247384071 239.25516146421432 379.32986065745354 300.66215944290161 1845.5654372870922 344.60352456569672 1921.1514193415642 3933.3703220188618 2341.8998029232025 324.41173455119133 241.32022270560265 295.79469633102417 1204.7062261402607 275.38934341073036 220.91978937387466 261.24780806899071 293.66061574220657 744.90810939669609 307.06242340803146 896.50123113393784 233.08889645338058 223.28956231474876 220.79424342513084 226.87689632177353 14238.764259070158 1066.0642590224743 688.76920402050018 168.84172868728638 223.07784858345985 216.06291902065277 235.39243251085281 1026.9305728077888 385.77596986293793 468.74075025320053 452.93477523326874 193.61183831095695 1715.4870005846024 210.6596442759037 9260.7019948363304 5004.6030496954918 2329.8729710280895
leaf_count=11221 833 892 524 1738 13627 603 41561 23661 742 505 2846 589 744 1047 16792 833 1048 669 695 2818 524 746 504 796 694 4549 878 5043 11726 6933 772 626 751 3155 725 572 729 818 1742 769 2647 532 504 500 509 41057 3033 2006 510 540 519 581 2751 1023 1255 1220 524 5194 525 27511 15200 6900
internal_value=-4.17379e-05 0.0146989 0.0416209 -0.00286531 -0.00377745 0.0111234 -0.00272971 -0.00158799 0.0102055 0.00791826 0.0133036 0.0129608 0.0107881 0.0122635 -0.00669412 0.00250095 0.0108248 0.0213787 0.0106566 0.00897781 0.00426841 0.0253365 0.0246907 0.0217286 0.0171655 0.00988151 0.00688265 0.00341322 -0.00512633 -0.00611149 0.0163673 0.00987332 0.0114734 0.013158 0.00804632 0.00468863 0.000393084 0.00472516 0.020248 0.0172478 -0.00560719 0.0154112 0.0244605 0.0217412 0.0112401 -0.00285042 -0.00242342 -0.00265882 -0.00671186 0.0143704 0.0116055 0.00766603 0.0081705 0.0100648 0.0121507 -0.00266933 -0.00546351 -0.00681641 0.0105754 -0.00582831 -0.00648562 -0.00561814
internal_weight=100048 16083.5 1885.62 83964.8 79190.3 14197.8 58261.3 39462.1 13298.2 7266.2 3643.83 6032.01 4646.61 4774.51 20929 3622.36 2981.43 1165.38 3595.79 2236.22 2699.53 700.677 899.637 618.585 1178.72 3317.41 1034.31 2487.39 18799.2 17253.7 745.207 4341.18 2238.13 1500.5 737.629 496.309 15359.4 554.908 1385.4 640.491 14090.6 464.706 662.409 439.119 2283.1 24102.7 15993.6 14927.5 11560.7 739.803 439.141 566.236 2103.05 1076.11 854.517 922.836 469.902 11391.9 2056.23 13194.1 9676.38 4671.77
internal_count=282081 39261 3363 242820 231126 35898 168376 112865 33995 18460 8993 15535 12191 11694 62750 9467 7484 2471 8894 5664 6981 1415 1903 1300 2800 8199 2616 6457 55511 51529 1820 11447 5829 3906 1923 1297 43108 1547 3344 1602 41884 1056 1509 1005 5583 69757 46096 43063 34737 1753 1059 1414 5618 2867 2278 2486 1266 34227 5074 39237 29033 13833
cat_boundaries=0 1 2 3 4 5 6 7 8 9 10 11
cat_threshold=2 2 2 2 2 2 2 2 2 2 2
is_linear=0
shrinkage=0.05


Tree=10
num_leaves=63
num_cat=7
split_feature=12 12 11 11 7 3 11 11 0 7 6 7 7 6 0 7 6 3 7 7 7 7 6 11 0 10 6 7 0 0 6 3 7 0 7 7 7 6 6 7 7 0 9 9 7 9 7 7 0 0 0 7 6 9 7 6 7 0 7 7 0 0
split_gain=1580.31 613.056 434.735 387.348 95.9699 66.6687 63.657 48.5745 67.233 48.7854 43.2429 30.0966 27.7147 23.2608 22.5171 21.706 21.0344 19.5133 16.5736 23.315 19.1856 15.0107 14.8786 17.2979 13.3961 12.0754 9.9012 9.82061 9.60557 9.16666 8.96451 8.87325 8.43087 8.14886 7.66367 7.2732 7.07853 7.07118 6.96979 6.71465 6.70736 6.66412 6.55591 6.3096 6.11017 6.01049 10.2961 5.98951 5.89079 5.80141 5.59945 5.47225 6.10281 5.4184 5.2781 5.17246 5.09071 4.96057 4.68707 10.8596 4.57321 7.62401
threshold=1.0000000180025095e-35 1.5000000000000002 1.5000000000000002 2.5000000000000004 643.50000000000011 0 2.5000000000000004 1.5000000000000002 6.5000000000000009 85.500000000000014 1.5000000000000002 659.50000000000011 306.50000000000006 1.5000000000000002 2.5000000000000004 540.50000000000011 1.5000000000000002 1 695.50000000000011 671.50000000000011 573.50000000000011 453.50000000000006 1.5000000000000002 2.5000000000000004 6.5000000000000009 1.0000000180025095e-35 2.5000000000000004 312.50000000000006 2.5000000000000004 26.500000000000004 1.5000000000000002 2 671.50000000000011 28.500000000000004 130.50000000000003 423.50000000000006 610.50000000000011 3.5000000000000004 3.5000000000000004 267.50000000000006 543.50000000000011 10.500000000000002 3 4 348.50000000000006 5 477.50000000000006 336.50000000000006 14.500000000000002 11.500000000000002 9.5000000000000018 510.50000000000006 1.5000000000000002 6 115.50000000000001 2.5000000000000004 46.750000000000007 5.5000000000000009 206.50000000000003 444.50000000000006 24.500000000000004 15.500000000000002
decision_type=2 2 2 2 2 9 2 2 2 2 2 2 2 2 2 2 2 9 2 2 2 2 2 2 2 2 2 2 2 2 2 9 2 2 2 2 2 2 2 2 2 2 1 1 2 1 2 2 2 2 2 2 2 1 2 2 2 2 2 2 2 2
left_child=2 6 4 -3 5 16 7 8 26 -10 15 12 30 -6 53 28 21 27 19 20 22 -1 44 -24 47 36 58 41 56 32 -11 -5 -15 40 -32 -33 51 45 43 -30 -16 -9 -22 -36 50 60 -47 54 -29 -23 -4 -19 -53 -12 -18 -54 -7 -38 -2 -60 61 -14
right_child=1 3 18 31 13 10 -8 17 9 11 14 -13 37 29 33 -17 24 25 -20 -21 42 49 23 -25 -26 -27 -28 48 39 -31 34 35 -34 -35 38 -37 57 -39 -40 -41 -42 -43 -44 -45 -46 46 -48 -49 -50 -51 -52 52 55 -55 -56 -57 -58 -59 59 -61 -62 -63
leaf_value=-0.0015890394720224168 0.024190843065504092 0.067410277455269049 0.016810847507678407 0.016824917104961992 -0.014002075857758379 -0.0009109741791251038 0.023419170214034096 0.011006575593367547 0.023450712350951947 0.0057691011456115675 -0.0065422231596314433 0.02732773831859775 0.0015221531019298405 -0.0060645861462577111 -0.0021194956794950356 -0.011007144806926744 -0.005740167154292904 0.0050184404046200439 0.0035806513057372981 0.028739567581076261 -0.0029452834154031255 -0.010919262683527282 0.013600897745276118 0.026909484991329155 0.00098739426865769803 0.014504670961237243 0.026393828156114775 0.0055303090094869197 -0.0034268819877818673 -0.00071181526230252505 0.0058178128418423323 0.029740775432367403 -0.010457835223872296 -0.0070655761337720252 0.018125792556461913 0.019263346167690345 -0.0040110460293805083 0.0079574878504588709 0.022403298013488775 -0.0062108379413525943 -0.0041912237735192938 0.021051177973865843 0.0083739926508581194 0.0082796544659627432 0.0010727098510202558 -0.0063799821012078158 0.0049496493083438396 -0.0063143192853705194 0.014385868927785685 -0.0048178562630092061 0.0062171176971288593 0.0021391169299068559 0.018255146119277602 -0.004169499000317726 0.0017457406980737776 0.0086996703997154218 -0.0088874320310927454 0.0040116231557143249 0.0081818012852270233 0.023615940604780949 0.00074632751487500946 0.014548934955453072
leaf_weight=3534.8193314373493 213.17782405018806 790.33349102735519 202.9293260872364 472.94170644879341 1976.5055612921715 217.40683567523956 902.61994388699532 298.58375757932663 596.52057582139969 395.4459468126297 4943.3910238742828 194.60473760962486 216.30714157223701 2190.2852636277676 24203.239445209503 2275.3383193016052 358.84355914592743 3849.5421208441257 561.4236818253994 215.61044773459435 251.32537910342216 682.96177199482918 2499.3388695716858 270.59022390842438 11808.266664266586 362.28258311748505 759.42309448122978 568.18978774547577 4254.1991480588913 443.66215717792511 210.46052020788193 428.80671638250351 2177.9321911931038 990.78517240285873 337.56210967898369 269.88648679852486 326.63696885108948 680.15274053812027 318.63610753417015 4412.2954598367214 4658.8722994029522 369.43845480680466 260.5166047513485 314.11475014686584 272.18001464009285 436.33131247758865 371.06792479753494 950.58339127898216 280.50394776463509 906.98261362314224 323.70920720696449 213.21263945102692 213.53430807590485 4687.8555945158005 684.85402730107307 420.53228735923767 2502.8488470613956 469.81909266114235 249.91619071364403 209.5150560438633 363.62794238328934 233.63180646300316
leaf_count=10290 513 909 498 1048 6272 652 1862 709 1423 1058 14758 489 580 6496 70114 7102 1030 9836 1444 486 628 2064 5967 585 32863 883 1736 1372 12633 1330 528 842 6608 2900 860 538 861 1786 801 13271 13598 868 652 800 706 1193 995 2746 669 2725 796 571 541 13962 1969 1055 7663 1223 635 505 983 622
internal_value=-8.18497e-05 0.0141428 -0.0028577 0.0403604 -0.00375192 -0.00321662 0.0105646 0.00970335 0.0130037 0.0100966 -0.00412413 0.00814025 0.00717723 -0.00943532 -0.00328517 -0.00654875 -0.000668412 0.00697231 0.0116598 0.0127155 0.0118689 -0.00340389 0.0131673 0.014901 0.000347246 0.00566312 0.0224811 0.0120267 -0.00565786 -0.00755951 0.0122849 0.0221137 -0.008255 -0.00260697 0.014467 0.0256936 0.00508002 0.00367861 0.016343 -0.00484425 -0.00245391 0.0165616 0.00281599 0.0133799 0.00715547 0.0018832 -0.00117306 -0.00344311 0.00845718 -0.00743872 0.0102992 0.00581912 0.00945695 -0.00538734 -0.00082806 0.0119177 -0.00824994 0.000721422 0.0180634 0.0152203 0.00491629 0.00828634
internal_weight=100057 16337.4 83719.6 1961.97 78861.9 72073.5 14375.4 13472.8 6100.5 4668.46 53146.2 4071.94 3877.34 6788.39 39484.1 13662.1 18927.3 7372.28 4857.62 4296.2 4080.59 5124.76 3568.75 2769.93 13802.5 5855.56 1432.03 1516.72 11386.8 4811.88 1576.22 1171.63 4368.22 29852.9 1180.77 698.693 5493.28 2301.12 970.313 8666.49 28862.1 668.022 511.842 651.677 798.819 1620.97 807.399 1994.28 848.694 1589.94 526.639 4696.82 847.279 9631.25 1043.7 634.067 2720.26 796.456 672.609 459.431 813.567 449.939
internal_count=282102 39294 242808 3337 231046 210340 35957 34095 15507 12118 156653 10695 10206 20706 115332 41321 53687 18588 11762 10318 9832 15079 8552 6552 38608 14970 3389 3618 34219 14434 4047 2428 13104 86612 2989 1380 14087 6159 2461 25904 83712 1577 1280 1660 2000 4373 2188 5745 2041 4789 1294 12003 2167 28720 2999 1596 8315 2084 1653 1140 2185 1202
cat_boundaries=0 1 2 3 4 5 6 7
cat_threshold=2 2 8 2 2 2 2
is_linear=0
shrinkage=0.05


Tree=11
num_leaves=63
num_cat=5
split_feature=11 5 11 7 6 8 0 7 6 7 6 0 6 7 7 3 3 11 0 7 7 8 7 8 7 8 6 0 7 7 8 7 7 7 8 8 7 7 7 0 6 6 7 7 0 7 9 6 7 0 6 9 7 6 0 6 8 6 6 6 8 3
split_gain=1279.39 108.637 94.2417 50.2868 50.0627 66.5131 41.2112 39.8492 30.3457 29.423 28.3431 27.1209 25.0868 24.2365 20.6207 20.4166 19.6728 18.1185 18.9301 16.7007 14.5656 13.001 12.4356 11.8859 13.2527 10.6651 10.624 10.5632 10.1523 9.99037 9.65921 9.61168 9.49404 9.45434 8.65493 8.47182 8.38185 7.97546 11.1858 7.89069 7.36895 7.28895 8.4578 6.89272 6.71723 6.25035 6.22912 6.14401 10.0616 7.79531 6.9339 6.14205 6.03454 5.70387 5.6528 5.60871 5.33495 10.6359 5.29455 5.1906 4.91671 4.7534
threshold=1.5000000000000002 1.0000000180025095e-35 2.5000000000000004 594.50000000000011 1.5000000000000002 1.5000000000000002 5.5000000000000009 594.50000000000011 1.5000000000000002 659.50000000000011 1.5000000000000002 21.500000000000004 2.5000000000000004 655.50000000000011 26.650000000000002 0 1 3.5000000000000004 2.5000000000000004 602.50000000000011 26.650000000000002 17.500000000000004 303.50000000000006 -3.4999999999999996 489.50000000000006 -6.4999999999999991 3.5000000000000004 25.500000000000004 699.50000000000011 697.50000000000011 -2.4999999999999996 677.50000000000011 188.50000000000003 423.50000000000006 2.5000000000000004 -12.499999999999998 154.50000000000003 663.50000000000011 685.50000000000011 11.500000000000002 1.5000000000000002 2.5000000000000004 124.50000000000001 109.50000000000001 3.5000000000000004 579.50000000000011 2 3.5000000000000004 615.50000000000011 9.5000000000000018 2.5000000000000004 3 602.50000000000011 2.5000000000000004 4.5000000000000009 2.5000000000000004 1.5000000000000002 3.5000000000000004 1.5000000000000002 3.5000000000000004 -2.4999999999999996 4
decision_type=2 2 2 2 2 2 2 2 2 2 2 2 2 2 2 9 9 2 2 2 2 2 2 2 2 2 2 2 2 2 2 2 2 2 2 2 2 2 2 2 2 2 2 2 2 2 1 2 2 2 2 1 2 2 2 2 2 2 2 2 2 9
left_child=1 3 8 12 5 23 35 32 22 11 29 55 14 15 58 25 -16 18 -4 27 -17 26 54 24 -3 -10 34 61 37 -5 -24 52 -7 -18 36 -6 -22 47 -39 44 -35 -27 -43 56 -14 53 -36 48 -12 50 -50 59 -32 -37 -2 -8 60 -58 -1 -44 -13 -20
right_child=2 4 17 10 6 7 9 -9 13 -11 28 43 39 -15 16 20 33 -19 19 -21 21 -23 30 -25 -26 41 -28 -29 -30 -31 31 -33 -34 40 46 45 -38 38 -40 -41 -42 42 51 -45 -46 -47 -48 -49 49 -51 -52 -53 -54 -55 -56 -57 57 -59 -60 -61 -62 -63
leaf_value=0.011023016614634774 0.0058131699546953592 -0.001587857049666512 0.010602977491751167 -0.011553703977471064 -0.0021404224022119121 -0.0053438039619662439 -0.00087039614623071596 -0.019119946430150879 0.026962001104672801 -0.0095090662663997686 -0.0088954315326594032 -0.00056685572019509584 0.00080409290864291109 0.0053175929159124573 0.0011940235888165474 0.022545806675876051 -0.001694165264074634 0.03099192057296898 0.026547827558445827 0.012468347796535937 0.017037063767233986 0.0017898888048438672 0.013714418670486925 -0.0048676144488267736 0.010566286867102394 0.021044049236446278 0.015251353089735209 0.032366118934361601 0.0079950892826323155 0.00044129597240599955 0.0027854613015805118 0.011613354559374943 -0.010118775280325377 -0.0070851953206737643 0.0022162955076405451 -0.0068099266029627379 0.01066213836711305 -0.0095581982598018315 0.00072835511365629063 0.00080936075639194752 -0.0025199255154778884 0.0058543553846455952 0.007046742829830927 -0.0035047649429665799 0.0044474293602402588 -0.0082004770364367038 0.010993688009718616 0.0017189823640559002 0.011303114713737628 -0.0034365866177309442 -0.0016112127809818644 0.020861446570881095 -0.0058972624584679549 -0.0043171139627851884 0.013028864697836921 0.0018808751361064199 -0.00071799665573706517 0.011576118279974699 0.00264359891879063 0.017649997296115959 -0.0087629256180897022 0.0195883775540142
leaf_weight=384.9127424955368 389.98206058144569 1901.7780655026436 428.98780590295792 1525.35920804739 1888.593457698822 1490.8551271259785 2836.1104646325111 1120.9742595255375 290.58953663706779 1139.0191437900066 564.83580848574638 690.36836740374565 1979.8420813977718 960.29907807707787 4674.6589702367783 332.45332065224648 7901.413936316967 454.12865501642227 399.01051142811775 343.18550196290016 653.2696006000042 308.04885596036911 237.39298167824745 3524.2576767206192 254.26923623681068 601.65698277950287 2038.3917103409767 345.30758354067802 214.77954736351967 195.8801009953022 988.60294455289841 259.31176489591599 3449.9191052317619 1769.6053043305874 443.69573801755905 3587.8120817840099 2447.0714377760887 880.75051537156105 377.57819274067879 10967.826581686735 1766.076493948698 237.9119493663311 224.30663067102432 8649.6751655638218 3504.4939719438553 2128.8382216691971 371.27034005522728 902.13109189271927 204.80245211720467 967.62074655294418 211.04268020391464 419.1223818063736 250.89791324734688 6366.9577746987343 892.80690917372704 5340.668320953846 636.63178539276123 243.09591662883759 369.45547205209732 237.76307237148285 248.9677227139473 637.13421884179115
leaf_count=1069 983 5637 935 4786 5641 4536 7973 3689 642 3489 1622 2004 5561 2375 13139 751 22743 889 799 722 1514 755 596 10723 758 1325 4729 678 602 595 2508 658 10691 5299 1095 10767 5872 2645 1107 30646 5058 515 507 25247 9508 6459 911 2565 576 2801 600 926 642 19089 2154 14921 1848 700 1019 537 721 1308
internal_value=-9.77333e-05 -0.00249002 0.0132649 -0.000566673 -0.00415399 -0.00696612 -0.00317581 -0.0106089 0.0114723 -0.00170767 -0.00476237 -0.0012311 0.000194532 0.0128516 -0.00116052 0.0136924 -0.00153882 0.0219159 0.0200021 0.0223401 0.0123473 0.0118059 0.0071019 -0.00307867 -0.000154482 0.0181021 0.0123241 0.0247924 -0.00260211 -0.0101887 0.00434355 0.00285932 -0.00867795 -0.0026558 0.0108001 -0.00525468 0.0120054 -0.00315607 -0.00647158 0.00158368 -0.00480484 0.0166059 0.0142198 -0.00291641 0.00313219 -0.00574142 0.00621497 -0.00169243 -0.00327203 -0.000976129 0.00474905 0.0164784 0.00102792 -0.00521555 0.0108352 0.000926598 -0.000118752 0.00267925 0.00691916 0.0125028 -0.0027392 0.0222684
internal_weight=100054 84861.9 15192.6 39363.1 45498.8 11742.1 33756.7 6061.75 12584.8 19784.5 6044.78 18645.5 33318.3 9565.85 16866.1 8605.55 16111.8 2607.75 2153.63 1724.64 6594.2 6261.75 3018.99 5680.3 2156.05 2011.35 5953.7 1381.45 4323.54 1721.24 1736.21 1498.81 4940.77 11437.1 3915.31 13972.2 3100.34 4108.76 1258.33 16452.2 3535.68 1720.76 1119.1 10468.7 5484.34 12083.6 814.966 2850.43 1948.3 1383.47 415.845 881.192 1239.5 9954.77 1282.79 8176.78 1819.06 879.728 754.368 462.07 939.336 1036.14
internal_count=282160 246834 35326 111941 134893 36034 98859 18916 29995 56903 17899 53414 94042 22454 48327 20079 46239 5331 4442 3507 15627 14876 7541 17118 6395 4452 14121 2785 12518 5381 4404 3808 15227 33100 9392 41956 7386 11916 3752 45715 10357 3810 2485 30520 15069 36315 2006 8164 5599 3977 1176 1970 3150 29856 3137 22894 5273 2548 2088 1044 2725 2107
cat_boundaries=0 1 2 3 4 5
cat_threshold=2 2 2 2 2
is_linear=0
shrinkage=0.05


Tree=12
num_leaves=63
num_cat=6
split_feature=11 6 5 7 11 0 7 7 3 6 7 7 11 0 5 0 0 7 0 7 6 5 7 0 3 6 9 3 7 5 0 0 0 0 6 6 9 7 7 7 7 10 0 7 0 7 0 6 6 0 7 0 7 0 0 7 7 7 7 0 9 0
split_gain=1195.21 106.07 83.4974 79.5551 77.0666 55.1428 39.2141 29.6594 26.9503 26.1709 27.2197 24.9561 23.6807 22.2756 18.8171 18.1109 16.5721 14.7319 12.9681 10.1875 9.49702 7.49548 7.28205 7.08637 6.75103 6.60494 6.41813 6.29042 6.03468 6.01001 6.5965 5.84977 5.72027 8.7225 7.83818 6.32481 5.6845 5.66393 6.58794 8.51503 5.46588 5.37301 5.22731 5.20705 5.205 5.14479 12.1632 5.04304 4.91986 4.90115 4.45993 4.39367 5.13759 6.33521 4.38994 4.32323 4.259 4.20655 5.75938 6.84921 4.20089 6.04529
threshold=1.5000000000000002 1.5000000000000002 1.0000000180025095e-35 555.50000000000011 2.5000000000000004 5.5000000000000009 659.50000000000011 594.50000000000011 0 2.5000000000000004 124.50000000000001 73.500000000000014 3.5000000000000004 21.500000000000004 1.0000000180025095e-35 4.5000000000000009 24.500000000000004 602.50000000000011 23.500000000000004 579.50000000000011 2.5000000000000004 1.0000000180025095e-35 384.50000000000006 3.5000000000000004 1 1.5000000000000002 2 3 683.50000000000011 1.0000000180025095e-35 18.500000000000004 3.5000000000000004 17.500000000000004 14.500000000000002 2.5000000000000004 3.5000000000000004 4 697.50000000000011 663.50000000000011 610.50000000000011 91.500000000000014 1.0000000180025095e-35 13.500000000000002 591.50000000000011 24.500000000000004 699.50000000000011 16.500000000000004 2.5000000000000004 3.5000000000000004 9.5000000000000018 38.050000000000004 22.500000000000004 151.50000000000003 23.500000000000004 28.500000000000004 685.50000000000011 170.50000000000003 26.650000000000002 43.850000000000001 15.500000000000002 5 2.5000000000000004
decision_type=2 2 2 2 2 2 2 2 9 2 2 2 2 2 2 2 2 2 2 2 2 2 2 2 9 2 1 9 2 2 2 2 2 2 2 2 1 2 2 2 2 2 2 2 2 2 2 2 2 2 2 2 2 2 2 2 2 2 2 2 1 2
left_child=1 3 7 11 8 28 13 16 19 23 44 14 17 47 57 -13 31 18 24 25 -18 -12 29 -10 -6 -2 -20 -16 60 -17 -31 36 33 34 -27 -36 -3 38 39 -9 -38 -33 -21 -5 -11 -45 -47 49 -43 -7 -49 -15 53 -53 -54 -40 -42 -1 -59 -60 61 -4
right_child=4 2 5 43 12 6 -8 37 9 10 21 15 -14 51 27 22 20 -19 26 42 -22 -23 -24 -25 -26 32 -28 -29 -30 30 -32 41 -34 -35 35 -37 40 -39 55 -41 56 48 -44 45 -46 46 -48 50 -50 -51 -52 52 54 -55 -56 -57 -58 58 59 -61 -62 -63
leaf_value=0.0099784061689365683 0.012324899980767306 -0.0017110076863364116 -0.0071845738198678191 -0.0080052431564524677 0.022589574053112862 -0.0031416799902116831 -0.010258627283008168 -0.0073790937051819135 0.0045566561911149763 0.01707735265869539 0.013008274504002612 -0.0072792973355988643 0.030703061361393915 -0.0075839715867892406 0.0028637776293529782 -0.00099519300548575585 -0.0025870398613781851 0.010005311681463605 0.021249901329430776 0.0063416322088939107 0.00082866355250215361 0.0085999961186747857 -0.0050820092727748819 0.0086475606593619993 0.01469317755722286 0.023351600973345425 0.031716646525518082 -0.0053390419051530412 -0.012016017099408959 -0.0014295319023978235 -0.0060544592998634794 0.0025686637599092923 0.012170129537296261 0.027239757840747381 0.010341828077255132 0.019303969376040717 0.0096932251188687028 0.0038945797649416396 -0.0085390075828068995 -0.00080970327017192145 -0.0058132410372259613 0.0037783239367842462 0.015040421021549398 -0.012512762777279952 0.024555831800438372 -0.014541825430027567 0.0038462463831859563 -0.0042423120593230324 0.011338838221610218 0.0011660879445356406 0.0025039777973534941 0.006309340306895477 -0.002407325927425191 -0.0010490403599483838 -0.0085394413311046091 -0.0018324995808340833 0.0025500006770900942 -0.0017317872078667241 0.014775926281837052 0.00196346241663225 -0.004299364272965317 -0.0041037673939379096
leaf_weight=389.28199765086174 615.00507184863091 1542.0712026953697 4358.2513801157475 1126.3656153976917 411.22896015644073 1051.2927094399929 1135.8459504544735 633.23158913850784 1613.017313182354 637.13087058067322 1746.9423386454582 4091.175602555275 472.69764575362206 368.21639999747276 315.96383064985275 3646.040865033865 3021.2805776298046 424.86521297693253 294.05913546681404 412.24350741505623 6233.9405639767647 2152.3060089349747 3919.531959682703 3079.742407143116 791.9550995528698 404.7249790430069 291.79828336834908 897.88605454564095 331.68794476985931 1395.3150269687176 1723.0537811517715 11562.917933225632 312.16726955771446 299.60231786966324 396.63253924250603 390.86190158128738 231.73299303650856 271.55139023065567 865.54800108075142 2231.5144565999508 178.79657390713692 594.24791458249092 297.21828991174698 3304.5095688402653 366.50732904672623 199.27212500572205 163.90291824936867 257.44460269808769 337.31378927826881 1775.317280381918 5061.6021408438683 342.01917061209679 7385.6233440637589 2020.5864470899105 303.87070459127426 332.65548023581505 1024.4978794753551 303.06339511275291 178.00696754455566 251.93403834104538 6702.4190597832203 2508.986770004034
leaf_count=1067 1433 4357 13223 3500 804 2994 3512 1824 4036 1438 3999 12534 897 1072 915 10533 8705 888 562 971 17541 5190 11769 7512 1661 873 562 2728 1040 4152 5251 31842 677 628 875 852 642 760 2624 6404 508 1620 695 10614 789 648 520 720 903 4959 14114 992 21629 5871 905 976 2884 852 500 707 20180 7519
internal_value=4.25913e-05 -0.00229107 -0.00124413 -0.00528605 0.0128491 -0.00294145 -0.00124007 0.000718456 0.0112244 0.00991045 0.0124651 -0.00369113 0.020544 -0.000688327 0.001111 -0.00445041 0.00138723 0.0183749 0.0203625 0.0152544 -0.000286361 0.010575 -0.00336715 0.00724142 0.017392 0.0167996 0.0264631 -0.00320386 -0.00535273 -0.0023735 -0.00398503 0.00238838 0.0183251 0.019613 0.0176965 0.0147901 0.000396637 -0.00309666 -0.00356393 -0.00226182 0.0026615 0.00286296 0.00998586 -0.0109788 0.0198083 -0.0118919 -0.00624319 0.00127053 0.00651595 -0.000436087 0.00217745 -0.00221959 -0.00202308 1.61849e-05 -0.00264965 -0.00667709 0.00130731 0.0057779 0.0035471 0.00726816 -0.00518986 -0.00605898
internal_weight=99980.5 84569.8 62664.5 21905.3 15410.7 33603.2 19701.8 29061.3 12724.1 9595.65 4902.89 17111.3 2686.6 18566 2336.14 14775.1 24726.8 2213.91 1789.04 3128.46 9255.22 3899.25 10683.9 4692.76 1203.18 2418.99 585.857 1213.85 13901.3 6764.41 3118.37 15471.6 1803.99 1491.82 1192.22 787.494 2977.1 4334.5 4062.95 2864.75 1435.03 12494.5 709.462 4794.05 1003.64 3667.68 363.175 8145.66 931.562 2826.61 5319.05 10420.3 10052.1 2362.61 7689.49 1198.2 1203.29 1122.29 733.004 429.941 13569.7 6867.24
internal_count=281952 246610 180320 66290 35342 98730 56768 81590 29968 22964 11416 51008 5374 53256 6769 44239 69002 4477 3589 7004 26246 9189 31705 11548 2465 5338 1124 3643 41962 19936 9403 42756 3905 3228 2600 1727 8391 12588 11828 8228 4034 34365 1666 15282 2227 11782 1168 22787 2523 7953 14834 30469 29397 6863 22534 3600 3392 3126 2059 1207 40922 20742
cat_boundaries=0 1 2 3 4 5 6
cat_threshold=2 2 2 2 2 2
is_linear=0
shrinkage=0.05


Tree=13
num_leaves=63
num_cat=11
split_feature=12 12 11 11 7 0 3 7 7 5 11 0 11 5 7 11 3 11 7 3 7 7 5 5 0 7 7 7 0 0 7 9 0 0 0 9 7 7 5 7 7 9 7 7 0 9 0 7 0 7 9 7 7 3 7 3 7 7 7 0 5 9
split_gain=1311.39 490.397 361.518 344.957 102.163 82.6419 44.2017 42.7697 33.3663 29.0664 36.3949 63.0313 24.8435 31.4895 22.6778 21.9463 18.6885 21.9515 17.1988 15.681 14.5759 13.5908 18.1632 12.8158 10.59 10.5226 9.41756 9.2993 9.23171 8.76967 8.59762 9.43055 9.42296 7.86889 7.34937 6.30671 6.16518 6.06357 5.64439 5.51422 5.51334 6.98902 5.24768 5.16289 5.09786 4.88882 4.93272 5.26399 4.71088 4.65549 4.62089 6.5982 4.88682 6.84022 4.39307 4.35426 4.31275 4.16409 4.14159 4.1109 10.903 8.12194
threshold=1.0000000180025095e-35 1.5000000000000002 1.5000000000000002 2.5000000000000004 645.50000000000011 3.5000000000000004 0 85.500000000000014 699.50000000000011 1.0000000180025095e-35 1.5000000000000002 6.5000000000000009 1.5000000000000002 1.0000000180025095e-35 294.50000000000006 2.5000000000000004 1 2.5000000000000004 543.50000000000011 2 639.50000000000011 381.50000000000006 1.0000000180025095e-35 1.0000000180025095e-35 11.500000000000002 617.50000000000011 414.50000000000006 534.50000000000011 2.5000000000000004 16.500000000000004 360.50000000000006 3 3.5000000000000004 6.5000000000000009 27.500000000000004 4 573.50000000000011 671.50000000000011 1.0000000180025095e-35 423.50000000000006 396.50000000000006 5 38.050000000000004 35.350000000000001 25.500000000000004 6 17.500000000000004 194.50000000000003 26.500000000000004 258.50000000000006 7 522.50000000000011 525.50000000000011 8 282.50000000000006 9 191.50000000000003 30.950000000000003 26.650000000000002 9.5000000000000018 1.0000000180025095e-35 10
decision_type=2 2 2 2 2 2 9 2 2 2 2 2 2 2 2 2 9 2 2 9 2 2 2 2 2 2 2 2 2 2 2 1 2 2 2 1 2 2 2 2 2 1 2 2 2 1 2 2 2 2 1 2 2 9 2 9 2 2 2 2 2 1
left_child=2 7 4 -3 5 35 33 12 9 10 11 27 43 29 45 55 26 20 38 -15 30 22 24 -5 -4 50 -11 39 36 -14 54 32 -32 40 37 -1 -23 -6 48 -9 41 -7 58 -2 59 46 -13 -48 57 -50 51 -16 53 -52 56 -12 -18 -8 -37 60 61 -20
right_child=1 3 21 23 34 6 18 8 -10 16 15 14 13 19 25 -17 17 -19 44 -21 -22 28 -24 -25 -26 -27 -28 -29 -30 -31 31 -33 -34 -35 -36 42 -38 -39 -40 -41 -42 -43 -44 -45 -46 -47 47 -49 49 -51 52 -53 -54 -55 -56 -57 -58 -59 -60 -61 -62 -63
leaf_value=-0.0068885083991374069 0.027140223126762814 0.060114662311360173 0.028324728762930296 0.02335376022742491 -0.0082220986108049732 -0.0043125406637958674 -0.0049197716837262604 0.018903012429781603 0.027074083615360608 0.024522166247610999 0.0045410150757361385 0.0078632155744209672 -0.0035622386830367336 0.011654688881095686 0.0020068421832527381 0.013340346115032514 0.0053624327795134159 0.0234195301168535 -0.005082257694872536 0.028012015316074387 -0.0034179012996973985 0.019918784140190382 0.010116900120495563 0.013228104304296563 0.015471437464629654 0.01152866278914794 0.012831628773403393 0.027464176142771281 0.0062710016120975324 0.0088437895659620337 0.0020309433481763318 0.017121508077633442 0.014358608413392055 0.00036084714804643462 -0.0017159664718597329 -0.0035138419438585367 0.0083206638611461464 -0.011384488817036688 -0.0032438674621646478 0.010359144103776958 -0.0059489714946000458 0.0028289747794862695 -0.005295911001362767 0.019120032904685783 -0.0037755932981356206 0.0078890655112693591 0.021198517030073995 0.01144983670514178 -0.0017259988939707189 -0.0055458933424729767 -0.0040356506030982866 -0.0066970357390662835 0.009961870957048518 0.0055894831011543081 0.0019041207666615279 0.00010647984106506745 0.012556390978057361 -0.0011795160618498686 0.0058510705387638468 -0.007965851385822717 -0.0086358377798324958 0.0079841092632466776
leaf_weight=8868.0762955248356 394.46222314238548 838.78862661123276 229.52179285883904 683.85078597068787 2818.0604963898659 704.30345284938812 796.10263723134995 745.44482281804085 234.08894145488739 376.8887645304203 718.4133021235466 258.46921923756599 256.26525855064392 294.65008106827736 830.96999418735504 416.56174358725548 453.76712760329247 277.72714197635651 238.01074612140656 291.43881085515022 228.85043942928314 229.06026512384415 1777.0190082490444 575.44702610373497 531.0081108212471 331.42702779173851 317.30526688694954 253.37785443663597 2059.4678601622581 320.73122197389603 301.56132182478905 610.23904648423195 318.97622540593147 16367.533241152763 285.5498960018158 319.01782634854317 229.26142624020576 3280.0843330621719 14586.249567896128 252.92419129610062 858.03749698400497 667.07064181566238 8029.8548856675625 408.42517876625061 2469.8779605329037 710.6108241379261 271.57510867714882 282.53180059790611 1642.6248989403248 1550.558699041605 278.93178707361221 295.05472508072853 281.68094155192375 545.71607276797295 336.65769031643867 2412.1998240947723 385.1744629740715 11401.812466561794 187.41646245121956 2291.9440012276173 614.44681945443153 237.70794945955276
leaf_count=27050 895 878 494 1272 8699 2033 2270 1739 549 782 1733 651 624 689 2209 814 1087 532 705 626 588 546 4107 1171 1184 854 682 586 4900 768 756 1480 761 46238 880 951 563 10393 43293 583 2524 1923 24394 950 7449 1802 683 719 4781 4570 753 779 747 1471 821 6209 936 33004 560 6902 1866 702
internal_value=-8.63247e-05 0.0126606 -0.00265673 0.0352731 -0.0034943 -0.00295559 -0.00199655 0.00943172 0.00837148 0.00802103 0.00648443 0.00909276 0.0162954 0.0116255 0.00608608 0.00255873 0.0118063 0.0100494 -0.00302311 0.0197885 0.00864035 0.0103019 0.0128843 0.0187268 0.0193505 0.00321526 0.0191786 0.0189096 0.00769927 0.00333382 0.00978711 0.012708 0.00836776 -1.87382e-05 -0.00955598 -0.00595469 0.0141172 -0.00992309 -0.0025391 0.0167385 -0.00280552 -0.000838729 -0.00498458 0.0230604 -0.0055025 0.0109182 0.0135671 0.0162278 -0.00187119 -0.00358088 0.001981 -0.000273854 0.00427601 0.00233384 0.00672911 0.00112412 0.00866532 -0.00142363 -4.81628e-05 -0.00676362 -0.00423606 0.00144677
internal_weight=100061 16791.2 83269.7 2098.09 78214.3 71830.6 54426.3 14693.1 12727.1 12493 8885.89 5338.71 1965.97 1163.09 4086.97 3547.17 3607.15 2912.95 35829.3 586.089 2635.23 5055.34 2537.55 1259.3 760.53 2563.78 694.194 1251.75 2517.79 576.996 2406.38 1230.78 620.538 18596.9 6383.69 17404.4 458.322 6098.14 29977.3 998.369 2229.41 1371.37 8536.29 802.887 5851.99 1523.19 812.576 554.107 15391.1 3193.18 2232.35 1126.02 1106.33 824.648 1175.6 3130.61 838.942 12197.9 506.434 3382.11 1090.17 475.719
internal_count=282160 39179 242981 3321 231187 211215 158260 35858 31306 30757 22332 13576 4552 2707 10668 8756 8425 6961 105542 1315 6429 11794 5785 2443 1678 6813 1464 2908 6009 1392 5841 2997 1517 52718 19972 52955 1109 19092 87918 2322 6480 3956 25905 1845 17624 3855 2053 1402 44625 9351 5959 2988 2971 2224 2844 7942 2023 35274 1511 10175 3273 1407
cat_boundaries=0 1 2 3 4 5 6 7 8 9 10 11
cat_threshold=2 2 8 2 2 2 2 2 2 2 2
is_linear=0
shrinkage=0.05


Tree=14
num_leaves=63
num_cat=14
split_feature=12 12 11 11 6 3 11 11 5 0 3 0 10 5 3 0 3 0 0 6 5 6 6 0 0 0 6 9 0 10 0 0 9 0 0 3 6 6 0 0 0 6 0 6 9 5 0 0 0 9 9 6 0 9 6 9 10 10 9 9 5 0
split_gain=1317.35 436.008 328.553 253.338 77.9848 56.7768 55.7421 40.5634 66.4843 57.6121 34.138 25.1119 22.7013 14.2758 14.0965 11.3511 10.8262 10.2167 9.82686 9.77612 9.17326 8.41039 7.13754 7.06577 7.05151 6.85499 6.85159 5.82354 5.78198 5.70999 5.26641 5.06149 5.04037 5.01827 4.94992 4.89784 4.46627 4.70185 4.05726 3.89865 6.76633 3.45077 3.44113 3.40669 3.38599 3.37802 3.33803 3.08764 7.07124 3.08693 3.07274 5.33665 3.01399 4.11281 2.85325 2.84276 2.70611 2.68342 2.67811 2.64181 2.62847 4.63437
threshold=1.0000000180025095e-35 1.5000000000000002 1.5000000000000002 2.5000000000000004 1.5000000000000002 0 2.5000000000000004 1.5000000000000002 1.0000000180025095e-35 6.5000000000000009 1 3.5000000000000004 1.0000000180025095e-35 1.0000000180025095e-35 2 7.5000000000000009 3 6.5000000000000009 7.5000000000000009 3.5000000000000004 1.0000000180025095e-35 3.5000000000000004 2.5000000000000004 24.500000000000004 23.500000000000004 2.5000000000000004 2.5000000000000004 4 4.5000000000000009 1.0000000180025095e-35 11.500000000000002 24.500000000000004 5 11.500000000000002 3.5000000000000004 6 3.5000000000000004 2.5000000000000004 28.500000000000004 21.500000000000004 13.500000000000002 1.5000000000000002 29.500000000000004 2.5000000000000004 7 1.0000000180025095e-35 1.5000000000000002 5.5000000000000009 16.500000000000004 8 9 1.5000000000000002 22.500000000000004 10 2.5000000000000004 11 1.0000000180025095e-35 1.0000000180025095e-35 12 13 1.0000000180025095e-35 6.5000000000000009
decision_type=2 2 2 2 2 9 2 2 2 2 9 2 2 2 9 2 9 2 2 2 2 2 2 2 2 2 2 1 2 2 2 2 1 2 2 9 2 2 2 2 2 2 2 2 1 2 2 2 2 1 1 2 2 1 2 1 2 2 1 1 2 2
left_child=2 6 4 -3 14 15 7 9 29 22 30 27 16 18 -1 60 24 49 -4 23 -8 39 -2 50 32 -16 31 45 -21 35 -10 -13 -11 55 -24 44 37 58 47 40 46 -41 -27 -19 -9 -7 -15 -28 -49 -5 -12 -52 53 -50 -48 -18 -47 -17 -35 -23 -6 -62
