tree
version=v4
num_class=1
num_tree_per_iteration=1
label_index=0
max_feature_idx=8
objective=poisson
feature_names=shot_distance shot_zone_basic action_type shot_type period seconds_remaining_in_period score_margin in_bonus home_or_away
feature_infos=[0:85.099999999999994] -1:1:0:3:2 -1:0:1:3:2 -1:0:1 [1:6] [0:720] [-59:62] [0:1] none
tree_sizes=6643 6711 6805 6800 6787 6906 6964 6888 6843 6979 6843 6858 6975 6940 6908 6905 6843 7004 6897 6854 6963 6968 6973 6958 6880 6871 6984 6945 6930 6983 6939 6958 6936 6892 6952 6946 6994 6977 6998 6956 6935 6990 6974 6997 6987 7096 6940 6991 7030 7069 6929 6943 7050 7047 6950 6991 6993 6994 6987 7028 6948 7047 7068 7033 6955 6992 7075 7069 7015 6984 6979 7017 7016 7054 7012 7037 7018 7077 6964 7058 6991 6996 6995 7111 7022 6951 6961 7100 7036 7010 6947 7090 7054 6999 6945 7047 7017 7043 6998 6950 7011 7006 7021 6975 7081 6996 7052 7015 6986 7091 7014 6980 6932 6992 6925 6964 6975 7000 7117 7062 7001 7033 7012 6997 7024 6973 7076 6956 6942 6984 6948 6995 7032 7009 7007 6920 6965 6960 7025 6963 6974 6996 6953 6990 7015 7037 6987 6956 6972 7073 6957 6972 6967 6971 6976 7012 6997 6961 6937 7002 7022 7057 7040 7100 7023 7095 6967 6850 6967 6937 6977 6995 6973 6982 7006 6957 6939 7079 6945 7069 7011 6915 6902 6975 6963 6907 7026 7010 6949 7006 6933 7050 6939 7002 6936 6948 6917 7040 7025 6901 7114 6935 6985 6936 7001 6958 6984 6959 7043 6982 6997 6930 6965 6936 6917 7079 6951 6937 7063 6986 6965 6921 6980 6962 7016 6990 6894 7005 6936 6983 6989 6948 6984 6961 6991 6894 6992 6896 6966 6922 7035 6917 7014 7024 6884 7004 6958 6934 6910 6952 6907 6948 7051 7058 6974 7024 7003 6948 6890 6875 6884 7004 6962 6974 6927 6993 6950 6897 6933 6952 6910 7031 7017 6972 6935 6950 7031 7085 6954 6970 6941 6911 6926 6988 6912

Tree=0
num_leaves=63
num_cat=4
split_feature=2 5 5 4 0 5 5 5 5 4 5 4 2 5 4 5 5 5 4 4 5 0 2 0 5 5 5 0 0 5 4 5 5 4 5 0 0 5 5 5 4 4 5 5 0 4 5 5 5 5 5 5 0 4 5 5 0 2 4 5 5 4
split_gain=195402 11193.8 2770.62 2429.55 833.496 477.959 361.843 357.547 215.967 146.226 143.803 142.294 120.736 63.0273 52.5399 48.2302 48.2273 44.8925 44.4721 38.1477 34.2965 34.1796 27.1497 45.8256 27.1201 20.6476 20.0798 18.7377 18.403 17.7785 15.9868 14.9495 14.0771 13.8988 23.7226 11.7027 10.7138 9.88293 9.63787 9.61201 8.93562 8.3457 7.51219 6.92267 6.90146 6.30492 6.05734 6.05573 5.74513 6.58161 9.74511 5.73133 5.51155 5.27253 8.49639 4.84932 4.71849 5.74065 4.45011 4.30577 3.93118 3.82475
threshold=0 55.350000000000001 287.50000000000006 3.5000000000000004 11.350000000000003 30.250000000000004 5.0500000000000007 141.50000000000003 398.50000000000006 1.5000000000000002 698.50000000000011 1.5000000000000002 1 1.7500000000000002 1.5000000000000002 21.350000000000005 238.50000000000003 7.5500000000000007 1.5000000000000002 1.5000000000000002 44.550000000000004 20.950000000000003 2 1.3500000000000003 500.50000000000006 174.50000000000003 341.50000000000006 4.9500000000000011 8.1500000000000004 223.50000000000003 1.5000000000000002 90.500000000000014 21.350000000000005 3.5000000000000004 84.500000000000014 47.550000000000004 1.0000000180025095e-35 196.50000000000003 488.50000000000006 34.050000000000004 3.5000000000000004 1.5000000000000002 1.7500000000000002 108.50000000000001 0.75000000000000011 2.5000000000000004 162.50000000000003 7.5500000000000007 63.500000000000007 87.500000000000014 96.500000000000014 449.50000000000006 8.3500000000000032 3.5000000000000004 440.50000000000006 96.500000000000014 1.2500000000000002 3 2.5000000000000004 262.50000000000006 482.50000000000006 2.5000000000000004
decision_type=1 2 2 2 8 2 2 2 2 2 2 2 1 2 2 2 2 2 2 2 2 8 1 10 2 2 2 10 10 2 2 2 2 2 2 10 10 2 2 2 2 2 2 2 10 2 2 2 2 2 2 2 10 2 2 2 10 1 2 2 2 2
left_child=1 3 7 6 18 17 13 11 14 29 24 31 35 -1 -4 -8 25 -5 38 -17 -7 -14 23 36 30 -11 -16 44 61 37 -10 -3 -19 48 -35 41 -20 46 52 -21 59 42 -6 -33 -24 -26 -9 -23 -13 -50 -51 -44 56 54 -32 -36 -2 -58 -28 -18 -56 -25
right_child=4 2 8 5 12 20 15 9 10 16 -12 33 21 -15 26 19 40 32 22 39 -22 47 27 28 45 -27 58 -29 -30 -31 53 43 -34 34 55 -37 -38 -39 -40 -41 -42 -43 51 -45 -46 -47 -48 -49 49 50 -52 -53 -54 -55 60 -57 57 -59 -60 -61 -62 -63
leaf_value=-1.654312186623496 -1.7433308205064055 -1.538524370508757 -1.481624622927415 -1.7339846676125414 -1.7368197708812265 -1.6474627046509209 -1.5891585623491251 -1.5143060481284605 -1.4706048946236634 -1.5457884577076757 -1.529327165132949 -1.5475281714614755 -1.7465731946349021 -1.6082130567207593 -1.5108848312907472 -1.5395390508523981 -1.5106694699340917 -1.7127401313333963 -1.7450165125920052 -1.5584158209823449 -1.6059658627533067 -1.74581515878217 -1.7351679498455823 -1.7372209192815149 -1.4695202538557899 -1.5327449091782817 -1.4917568743134972 -1.7431784424006953 -1.7408151999252914 -1.4907338020684842 -1.4880561843189919 -1.5051915267253029 -1.6918927508931341 -1.5833549617591895 -1.5502543121120309 -1.7311573148343138 -1.7404247171263683 -1.5235177416609285 -1.7444936035854384 -1.574532275777075 -1.528998600885644 -1.7455308313957962 -1.7465064183995838 -1.5248502286912538 -1.7399093986765284 -1.4746941193499543 -1.4966299493393365 -1.7507109692486675 -1.5671820361450148 -1.542071735575403 -1.5603659083884955 -1.7491520229052526 -1.7448859942124006 -1.4887038457149322 -1.473583767001829 -1.5646102066124363 -1.7390628834644348 -1.7426218105408369 -1.5008640079024653 -1.520956134225528 -1.4840497101394885 -1.735555103994215
leaf_weight=158.99175417423248 1829.8375311493874 150.03951576352119 324.78720954060555 258.18255576491356 166.86972397565842 130.34459125995636 193.36834967136383 80.212056159973145 283.96500238776207 466.2325764298439 128.5541435778141 96.684174835681915 6091.8191937208176 138.9387401342392 589.41537696123123 159.70793324708939 194.08452874422073 343.04977589845657 1628.5912116765976 147.89097854495049 80.570145696401596 643.12880742549896 868.72521537542343 5205.5475910604 1092.1730861067772 868.72521537542343 195.15879735350609 5630.2417812645435 2412.0911173820496 211.63091602921486 283.60691285133362 71.975996822118759 105.99450278282166 190.86172291636467 79.13778755068779 133.20930755138397 5774.909953981638 90.238563179969788 4105.1384456157684 247.08178013563156 198.38160318136215 24391.268773823977 5287.9081844389439 118.52763655781746 6584.1923063099384 1277.6634659767151 122.46662145853043 35303.33121740818 246.72369059920311 87.731936424970627 427.55890649557114 3340.2591958045959 1098.9767872989178 377.42637139558792 287.90398728847504 229.17730331420898 3797.1814442873001 2250.2346469163895 428.99126464128494 213.77945324778557 130.34459125995636 10193.018654435873
leaf_count=444 5110 419 907 721 466 364 540 224 793 1302 359 270 17012 388 1646 446 542 958 4548 413 225 1796 2426 14537 3050 2426 545 15723 6736 591 792 201 296 533 221 372 16127 252 11464 690 554 68115 14767 331 18387 3568 342 98588 689 245 1194 9328 3069 1054 804 640 10604 6284 1198 597 364 28465
internal_value=-1.72696 -1.52979 -1.50724 -1.63832 -1.74488 -1.69767 -1.58622 -1.538 -1.48364 -1.52576 -1.47733 -1.55562 -1.74823 -1.63281 -1.49949 -1.56766 -1.53199 -1.71737 -1.73997 -1.56016 -1.63161 -1.75003 -1.73911 -1.73812 -1.47554 -1.5373 -1.50427 -1.74099 -1.73675 -1.50178 -1.48116 -1.52672 -1.70782 -1.56287 -1.5695 -1.74594 -1.74143 -1.50975 -1.74249 -1.5685 -1.52029 -1.74601 -1.74733 -1.51742 -1.73936 -1.47231 -1.50363 -1.75062 -1.55901 -1.56047 -1.55725 -1.74753 -1.74157 -1.48394 -1.48138 -1.56093 -1.74111 -1.74043 -1.49802 -1.51606 -1.47685 -1.73612
internal_weight=138245 11508.3 9544.16 1964.12 126736 918.142 1045.98 4144.17 5399.99 2445.75 3861.64 1698.42 75357.8 297.93 1538.35 748.049 1941.2 707.227 51378.7 554.681 210.915 42038.3 38297.3 25214.2 3733.08 1334.96 1213.57 13083.2 17810.7 504.548 1363.25 340.543 449.044 1357.88 499.177 33319.5 7403.5 292.917 13081.4 394.973 606.246 33186.3 8795.04 190.504 7452.92 2369.84 202.679 35946.5 858.699 762.015 515.291 8628.17 8976.23 1079.28 701.855 308.315 7877.25 6047.42 624.15 407.864 418.249 15398.6
internal_count=386062 32138 26653 5485 353924 2564 2921 11573 15080 6830 10784 4743 210444 832 4296 2089 5421 1975 143480 1549 589 117396 106949 70413 10425 3728 3389 36536 49738 1409 3807 951 1254 3792 1394 93048 20675 818 36531 1103 1693 92676 24561 532 20813 6618 566 100384 2398 2128 1439 24095 25067 3014 1960 861 21998 16888 1743 1139 1168 43002
cat_boundaries=0 1 2 3 4
cat_threshold=4 2 1 1
is_linear=0
shrinkage=1


Tree=1
num_leaves=63
num_cat=2
split_feature=2 5 5 4 6 3 5 5 5 4 4 5 5 5 5 5 4 4 4 5 6 5 6 5 6 5 4 5 6 4 6 6 4 4 5 6 6 6 6 5 6 5 6 6 6 6 6 6 6 4 5 5 4 6 6 5 6 5 4 5 6 5
split_gain=153048 6385.85 1918.9 1083.47 341.692 316.46 219.581 217.51 201.704 176.08 100.273 87.7098 59.5112 54.4726 48.2868 43.3518 41.2927 40.6455 32.4868 31.2919 18.522 18.3627 17.5024 15.0276 14.7369 12.908 12.8113 10.8142 10.1937 10.6652 10.0556 9.19991 11.01 9.12209 8.56198 8.46659 7.86597 7.8488 7.52904 6.97383 6.43527 6.36075 7.77424 9.6517 6.2123 6.15899 6.02754 9.04129 5.92357 4.86861 4.42742 4.16637 3.8842 3.82337 3.80905 3.73292 5.19155 3.69541 3.60614 3.30457 3.21818 3.18865
threshold=0 30.250000000000004 238.50000000000003 3.5000000000000004 -34.499999999999993 1 87.500000000000014 3.1500000000000008 398.50000000000006 3.5000000000000004 1.5000000000000002 50.050000000000004 703.50000000000011 153.50000000000003 7.5500000000000007 5.0500000000000007 1.5000000000000002 1.5000000000000002 1.5000000000000002 308.50000000000006 2.5000000000000004 21.350000000000005 15.500000000000002 401.50000000000006 12.500000000000002 66.500000000000014 3.5000000000000004 1.7500000000000002 7.5000000000000009 2.5000000000000004 32.500000000000007 17.500000000000004 2.5000000000000004 2.5000000000000004 515.50000000000011 10.500000000000002 1.0000000180025095e-35 2.5000000000000004 -9.4999999999999982 123.50000000000001 -1.0000000180025095e-35 174.50000000000003 7.5000000000000009 1.0000000180025095e-35 -7.4999999999999991 1.5000000000000002 -23.499999999999996 -10.499999999999998 8.5000000000000018 3.5000000000000004 649.50000000000011 629.50000000000011 3.5000000000000004 15.500000000000002 -3.4999999999999996 3.1500000000000008 -4.4999999999999991 3.1500000000000008 2.5000000000000004 199.50000000000003 -13.499999999999998 702.50000000000011
decision_type=1 2 2 2 10 1 2 2 2 2 2 2 2 2 2 2 2 2 2 2 10 2 8 2 8 2 2 2 8 2 8 8 2 2 2 8 10 10 8 2 8 2 8 10 10 10 10 10 8 2 2 2 2 10 10 2 10 2 2 2 10 2
left_child=1 3 6 4 7 16 9 -1 17 18 35 24 22 26 57 -6 23 -4 48 46 25 -16 51 27 -11 -13 31 -2 36 -30 55 32 37 -17 52 39 -20 -12 59 -8 60 44 43 54 -40 -28 49 -48 -3 -19 -25 -10 -24 -44 -43 56 -18 -5 -57 -15 -21 -32
right_child=5 2 8 14 15 -7 10 -9 12 11 13 20 -14 38 21 33 30 19 28 40 -22 -23 34 50 -26 -27 45 -29 29 -31 61 -33 -34 -35 -36 -37 -38 -39 41 -41 -42 42 53 -45 -46 -47 47 -49 -50 -51 -52 -53 -54 -55 -56 58 -58 -59 -60 -61 -62 -63
leaf_value=0.026366142613760732 -0.0083195987517660462 0.15750311578992812 0.18431923119604107 -0.011646846364398821 0.15983510966300135 -0.024184120243844184 0.16083758872554377 0.10853671492194471 0.19164396189044022 0.06011298664174896 0.13068946225041905 0.11434597040981914 0.15208819158064393 0.13782064160830923 0.016006011495181841 0.12968465027709103 -0.00087249094875723474 0.16232821278106047 0.13443611774805161 0.17296563892048211 0.10069022756968582 0.039412229449094928 0.18470650608640227 -0.019281108225988774 0.088689996107914892 0.1401612437162027 0.1259238451954498 -0.017592233870938494 0.1362063662394408 0.11988023101230377 -0.016844185471909624 0.13414713805709488 0.15341045114327537 0.10929067694449723 0.18928157670290355 0.16030094079142362 0.15061750574275912 0.14966962239195838 0.15656340516039072 0.17549873474880154 0.17265156865990602 0.16165271546647775 0.15067964822918967 0.17243865880368783 0.14190150818553446 0.13920609342725537 0.17928150743843263 0.16360101251700865 0.14357996346920665 0.14985117420957736 -0.021709261916290939 0.19625437983094854 0.17695405664185948 0.16187816862256918 0.147642411150752 -0.016359269091753809 -0.014527244320361175 0.00041882979446467402 -0.015380055586171096 0.15069746504092144 0.18303475745587799 -0.01244072652002833
leaf_weight=178.72696834802628 321.02406162023544 193.6024729013443 610.09282791614532 125.16670989990234 113.99058389663696 16662.89709097147 108.79701897501945 146.5891076028347 2416.0031872093678 88.883916705846786 140.81905576586723 92.329645037651062 104.2859234213829 111.58936560153961 346.51410359144211 152.08986192941666 100.1804324388504 223.60848534107208 262.76896592974663 108.69845336675644 92.415925800800323 110.52046608924866 512.80027475953102 10066.40678691864 91.614409267902374 101.82404047250748 260.02780547738075 15317.053006440401 188.46760687232018 213.18573290109634 37188.110808551311 264.50466731190681 235.91824272274971 85.744146704673767 1036.1455834507942 258.19665539264679 105.1601000726223 88.82578256726265 120.18126368522644 318.72728607058525 856.032446205616 103.49525219202042 460.94524085521698 136.10930225253105 181.13033312559128 131.37411615252495 109.0094350874424 586.6891533434391 126.18073320388794 120.21952700614929 2307.6905566751957 614.69948208332062 235.89660269021988 91.319340169429779 91.319340169429779 14244.398358792067 228.1105891764164 128.72258234024048 27658.397022664547 90.014778167009354 293.94216349720955 415.70684573054314
leaf_count=458 907 448 1337 352 288 47646 246 355 5248 227 331 225 239 258 954 364 284 505 625 243 224 298 1117 28665 234 245 614 43549 448 507 105624 622 555 206 2246 581 250 209 280 716 1910 238 1060 313 422 310 247 1329 292 274 6576 1335 518 210 210 40436 647 362 78467 207 656 1181
internal_value=-0.000160711 0.156729 0.168073 0.0550662 0.100329 -0.0177698 0.143001 0.0633926 0.183286 0.127603 0.150507 0.101919 0.189457 0.145874 0.0119539 0.134483 -0.0167804 0.172847 0.138614 0.169801 0.119115 0.0216661 0.190266 -0.018432 0.0746176 0.127885 0.137681 -0.0174019 0.133049 0.127541 -0.0162008 0.141594 0.145824 0.122332 0.186338 0.16745 0.139061 0.138031 0.152502 0.171768 0.175104 0.154023 0.156163 0.162223 0.14775 0.130382 0.163381 0.166058 0.152009 0.157966 -0.0197339 0.192579 0.182264 0.152531 0.155085 -0.0156713 -0.0103604 -0.00552951 -0.0157129 0.14357 0.180316 -0.0167955
internal_weight=138476 13965.9 12577.9 1388.06 677.141 124510 4749.73 325.316 7828.12 1556.43 3193.29 467.068 4919.83 2507.57 710.924 351.825 107847 2908.29 1089.37 2298.2 286.57 457.035 4815.55 28012.2 180.498 194.154 1121.47 15638.1 769.582 401.653 79834.9 730.068 465.563 237.834 1784.84 685.721 367.929 229.645 1386.1 427.524 1258.67 1184.5 883.188 330.924 301.312 391.402 1039.53 695.699 319.783 343.828 12374.1 3030.7 748.697 552.265 194.815 42231.1 328.291 253.889 41902.8 201.604 402.641 37603.8
internal_count=385930 31948 28311 3637 1671 353982 11107 813 17204 3725 7382 1155 10703 5839 1966 858 306336 6501 2570 5164 694 1252 10464 79697 461 470 2641 44456 1830 955 226639 1717 1095 570 3881 1543 875 540 3198 962 2809 2733 2031 761 702 924 2355 1576 740 779 35241 6583 1635 1270 448 119834 931 714 118903 465 899 106805
cat_boundaries=0 1 2
cat_threshold=4 1
is_linear=0
shrinkage=0.05


Tree=2
num_leaves=63
num_cat=2
split_feature=2 5 5 7 0 6 5 5 2 5 7 5 0 6 0 5 7 5 0 5 0 6 5 5 6 6 6 0 5 7 6 5 0 5 6 5 5 6 6 5 5 7 5 5 6 6 6 5 6 5 5 6 6 0 5 5 6 5 6 5 6 0
split_gain=126786 4236.71 1036.57 873.06 840.067 252.242 157.226 147.098 127.893 104.366 94.2618 70.8157 42.8571 33.5843 61.0267 31.5124 28.5718 27.2121 27.1161 21.7115 18.4556 14.0242 15.8017 11.3071 11.1027 10.0941 9.90061 9.14162 9.08418 8.80297 8.55849 8.4173 7.96778 6.79134 6.5306 7.74363 6.18211 5.78598 5.42884 5.41118 5.20005 4.61964 4.60145 4.58754 4.40687 4.73563 5.99405 5.78615 4.35562 7.00791 4.34791 4.27191 4.12021 3.99497 3.89648 3.89605 3.86582 4.58947 3.87526 4.93319 4.90145 3.83236
threshold=0 30.250000000000004 238.50000000000003 1.0000000180025095e-35 11.350000000000003 -34.499999999999993 3.1500000000000008 90.500000000000014 1 356.50000000000006 1.0000000180025095e-35 55.350000000000001 20.150000000000002 50.500000000000007 1.2500000000000002 7.5500000000000007 1.0000000180025095e-35 5.0500000000000007 8.1500000000000004 703.50000000000011 5.9500000000000011 13.500000000000002 117.50000000000001 165.50000000000003 2.5000000000000004 15.500000000000002 20.500000000000004 1.0000000180025095e-35 1.7500000000000002 1.0000000180025095e-35 -9.4999999999999982 311.50000000000006 0.55000000000000016 491.50000000000006 9.5000000000000018 17.550000000000004 7.5500000000000007 12.500000000000002 -5.4999999999999991 72.500000000000014 678.50000000000011 1.0000000180025095e-35 41.650000000000013 470.50000000000006 15.500000000000002 -2.4999999999999996 1.0000000180025095e-35 99.500000000000014 -6.4999999999999991 211.50000000000003 678.50000000000011 -22.499999999999996 2.5000000000000004 47.550000000000004 455.50000000000006 38.750000000000007 13.500000000000002 205.50000000000003 2.5000000000000004 190.50000000000003 -2.4999999999999996 1.7500000000000002
decision_type=1 2 2 2 8 10 2 2 1 2 2 2 8 8 10 2 2 2 10 2 10 10 2 2 10 8 8 10 2 2 8 2 10 2 8 2 2 8 10 2 2 2 2 2 10 10 10 2 8 2 2 10 8 10 2 2 8 2 10 2 10 10
left_child=1 3 7 5 13 6 -1 10 28 31 37 26 -10 14 27 -5 23 -7 29 25 32 22 -18 44 39 43 -12 40 41 61 -25 -4 -15 -27 -17 -36 -14 38 -3 -13 -2 53 -39 -11 45 47 -47 -9 -24 52 -35 -38 -50 -6 -29 -31 58 -58 59 -32 -61 -16
right_child=4 2 9 15 8 17 -8 16 12 19 11 24 36 20 18 34 21 -19 -20 -21 -22 -23 48 30 -26 33 -28 54 -30 55 56 -33 -34 50 35 -37 51 42 -40 -41 -42 -43 -44 -45 -46 46 -48 -49 49 -51 -52 -53 -54 -55 -56 -57 57 -59 -60 60 -62 -63
leaf_value=0.023217432772421991 -0.018662984619125127 0.11404099883525601 0.13783557403719954 -0.0046021932421118905 -0.013259515675398438 0.13212233302950036 0.090329155053237561 0.13616065298992328 -0.018870687733413494 0.15139360717133263 0.063951972196957738 0.10746341120719105 -0.018644988082517685 -0.0087722797245477126 -0.011860307171168748 0.0084827552494257351 0.1039803624209021 0.10449136201890781 -0.014626550425874 0.12996132652901993 -0.016609835548532941 0.13514533676158852 0.1135711817507189 0.12178981579277562 0.094595054504086354 0.14661998586659333 0.083879675443430113 -0.013408847007369971 -0.018728643905417484 -0.01353434196547456 0.12474592170411321 0.14371146076032612 -0.013566024186478454 0.15276572589614934 0.015171995488403698 0.031605143844595722 -0.024219264700148742 0.1047379563578538 0.12287120668992652 0.12349986278458601 -0.0057556867599678884 -0.023219057650003837 0.11573093707246052 0.15485079886156311 0.11675467252784136 0.14193840441774902 0.12846660724300782 0.12354143327343381 0.12879589366989649 0.13359053099542631 0.14268480830888616 -0.023097893560961001 0.11719873935263936 -0.0028114045868282631 -0.015936128920043528 -0.0075462821467733397 0.13565398010727145 0.12594399588299651 0.14159518889158632 0.14478922378714876 0.1302598365041209 -0.0098834985379674823
leaf_weight=181.07383543252945 1962.2849245965481 261.39505165815353 1622.9690406322479 259.55312785506248 471.056022554636 132.84350001811981 168.46358373761177 104.3543609380722 5697.6681590974331 1464.906321823597 137.4164205789566 108.84956297278404 630.63141891360283 946.62857267260551 3034.1682668328285 142.59117621183395 170.7946862578392 270.6451475918293 3190.3274328112602 111.76389813423157 5931.0688196122646 131.27083820104599 155.34631925821304 144.25134813785553 94.6205914914608 1062.4135132431984 114.06605371832848 4216.1327034235001 31496.791231930256 287.7399120926857 105.63249370455742 976.0252274274826 10281.231772303581 1280.7230652570724 187.49409699440002 116.06394535303116 16475.409458488226 124.25982263684273 520.98682263493538 101.80063825845718 81.264247745275497 93.155671805143356 406.94306570291519 2781.6107768416405 102.76589402556419 106.13568031787872 371.829972833395 701.28401920199394 100.89493241906166 122.45944291353226 116.70661246776581 17529.447728514671 317.89505153894424 113.54418385028839 2389.4831528961658 4854.4862365424633 279.46842542290688 215.5554615855217 288.41915261745453 120.26990658044815 112.19357013702393 12772.847899764776
leaf_count=452 5669 536 3087 734 1355 286 366 208 16496 2665 324 233 1829 2717 8716 381 355 574 9192 220 17130 264 313 285 205 1949 264 12137 91213 823 205 1822 29624 2299 508 307 48255 258 1059 212 235 269 841 4974 209 211 739 1407 204 241 212 50960 640 323 6885 13889 548 422 558 232 217 36667
internal_value=-6.30341e-05 0.130461 0.138483 0.0492078 -0.0175497 0.0866543 0.0555627 0.121281 -0.0209883 0.148568 0.109879 0.0926375 -0.0228835 -0.0125614 -0.0116235 0.00925026 0.127123 0.113589 -0.0103323 0.151818 -0.0143537 0.119915 0.117609 0.129837 0.108823 0.152182 0.0729907 -0.0152272 -0.0185996 -0.00967836 0.133254 0.140042 -0.0131619 0.149633 0.0173091 0.0214551 -0.0235502 0.117187 0.119921 0.115213 -0.0181497 -0.0128781 0.113159 0.153658 0.126718 0.127515 0.131458 0.125176 0.120951 0.123069 0.151924 -0.0236412 0.119993 -0.0112302 -0.0143231 -0.00788135 0.134728 0.131426 0.137338 0.133706 0.137777 -0.0102629
internal_weight=138852 16397 14938.3 1458.73 122455 753.026 349.537 5521.16 72507.7 9417.12 1870.34 556.753 40333.2 49947.7 32788.7 705.702 3650.82 403.489 24139.6 6818.12 17158.9 998.661 867.39 2652.16 305.271 6706.36 251.482 8649.17 32174.5 20949.2 1265.79 2598.99 11227.9 2459.84 446.149 303.558 34635.5 1313.58 782.382 210.65 2043.55 677.756 531.203 4246.52 1386.37 1283.6 477.966 805.638 696.596 541.249 1397.43 34004.9 418.79 584.6 6605.62 5142.23 1121.54 495.024 626.515 338.096 232.463 15807
internal_count=386410 32026 28418 3608 354384 1678 818 11190 210700 17228 3932 1238 117540 143684 94213 1930 7258 860 69287 12319 49471 2017 1753 5241 650 12099 588 24926 93160 60095 2467 4909 32341 4460 1196 815 101044 2694 1595 445 5904 1947 1099 7639 2774 2565 950 1615 1398 1085 2511 99215 844 1678 19022 14712 2182 970 1212 654 449 45383
cat_boundaries=0 1 2
cat_threshold=4 2
is_linear=0
shrinkage=0.05


Tree=3
num_leaves=63
num_cat=4
split_feature=2 5 7 1 5 6 2 5 5 7 5 5 6 5 1 5 5 6 6 6 6 5 7 5 5 6 7 5 5 6 7 5 5 6 5 5 6 5 6 6 7 5 5 6 5 5 7 7 5 5 5 6 5 5 6 6 6 5 5 6 6 5
split_gain=107402 2816.14 832.616 799.058 651.962 157.487 136.826 127.778 108.483 79.0838 62.9355 62.1766 35.7092 28.4475 18.7397 18.1429 15.9656 13.803 13.2575 16.466 10.2455 9.97888 9.92939 9.96828 9.50787 9.14827 8.35392 7.82719 7.4323 6.67869 8.16899 6.4838 5.55992 5.77465 5.29059 4.95949 4.35568 4.33923 4.30989 5.33007 4.05279 4.01313 4.00533 3.97099 3.69619 3.60684 3.99856 3.49263 3.93007 3.64232 3.35098 3.32338 3.99398 3.29287 3.06043 2.98492 2.99666 2.92286 2.87311 2.83362 3.10482 2.8237
threshold=0 30.250000000000004 1.0000000180025095e-35 1 247.50000000000003 37.500000000000007 2 3.1500000000000008 123.50000000000001 1.0000000180025095e-35 50.050000000000004 338.50000000000006 52.500000000000007 7.5500000000000007 3 3.1500000000000008 700.50000000000011 -7.4999999999999991 2.5000000000000004 16.500000000000004 12.500000000000002 488.50000000000006 1.0000000180025095e-35 302.50000000000006 21.350000000000005 28.500000000000004 1.0000000180025095e-35 1.7500000000000002 0.75000000000000011 8.5000000000000018 1.0000000180025095e-35 165.50000000000003 90.500000000000014 7.5000000000000009 111.50000000000001 293.50000000000006 1.0000000180025095e-35 271.50000000000006 3.5000000000000004 7.5000000000000009 1.0000000180025095e-35 28.050000000000004 38.750000000000007 -5.4999999999999991 159.50000000000003 17.550000000000004 1.0000000180025095e-35 1.0000000180025095e-35 299.50000000000006 684.50000000000011 238.50000000000003 8.5000000000000018 311.50000000000006 187.50000000000003 9.5000000000000018 20.500000000000004 6.5000000000000009 700.50000000000011 661.50000000000011 7.5000000000000009 -14.499999999999998 28.050000000000004
decision_type=1 2 2 1 2 8 1 2 2 2 2 2 8 2 1 2 2 8 8 8 8 2 2 2 2 8 2 2 2 8 2 2 2 8 2 2 8 2 8 8 2 2 2 10 2 2 2 2 2 2 2 8 2 2 8 8 10 2 2 10 10 2
left_child=1 2 5 12 8 15 28 -7 9 32 20 26 22 -4 40 -1 21 -12 -19 -20 -11 29 23 -2 54 27 51 -8 -5 -13 -31 36 33 -3 -34 37 43 -28 -33 -40 41 -14 -24 -10 55 46 -27 48 -30 -49 53 -6 -53 -41 -15 56 -38 -43 -16 60 -25 -42
right_child=3 4 13 6 11 7 25 -9 31 10 17 16 14 24 58 -17 -18 18 19 -21 -22 -23 42 59 -26 45 35 -29 47 30 -32 38 34 -35 -36 -37 44 -39 39 50 61 57 -44 -45 -46 -47 -48 49 -50 -51 -52 52 -54 -55 -56 -57 -58 -59 -60 -61 -62 -63
leaf_value=0.11969866020137915 -0.011295310208877632 0.10423041565026379 -0.0048597994642187769 -0.012247930227636065 0.12119483418159903 0.028577404288995557 -0.01054735100247575 0.087392021822144839 0.10782016102987738 0.050491244569829445 0.078307681137671448 0.12706734131485906 -0.0071627807117187695 0.0041333534904830684 -0.015792989333744799 0.095967425456237196 0.11175028462779844 0.1118926934665518 0.078609074176931554 0.099388832982728992 0.072118049236052459 0.12853272192460238 -0.014993253459014422 -0.010707896163669321 0.028007860717037598 -0.023108133507159102 0.11354062273234543 -0.022558283523450129 -0.018173212793251632 0.12511409514435978 0.11774023001786722 0.1095934749978582 0.10974766129406691 0.097981233908322182 0.1006489376302602 0.11700515663510927 0.10913904923912657 0.10173377893755127 0.12133524081039071 0.11607462607737913 -0.020177233766275612 -0.013741586373027729 -0.010207468249598183 0.1180525269349082 0.097441155805493368 -0.024196168630134404 -0.013906568736661276 -0.017896862362997763 -0.019536783948798389 -0.011546213718237342 0.12017474859689355 0.11440070671060393 0.1224248804140624 0.10985846988406552 0.014451600839480751 0.11023682703781966 0.099342402860194606 -0.0034790136559203172 -0.018875668795625852 -0.011941536527010911 -0.013842741276780547 -0.010293623667853077
leaf_weight=105.51594060659409 10983.485723912716 751.9776896238327 265.40520030260086 461.00037631392479 907.04206192493439 188.17874592542648 136.53631526231766 181.33814099431038 231.4371092915535 102.8936220407486 131.37871927022934 1918.4102011322975 251.88938307762146 100.1290665268898 10474.447903811932 340.24111479520798 175.72176992893219 109.71171000599861 143.56378972530365 283.7750726044178 117.07389825582504 4594.0327854156494 462.58582073450089 849.77597516775131 116.39543294906616 348.60807535052299 162.9689849615097 20695.889850318432 9119.5205003321171 1191.4498916864395 548.50444042682648 891.59021854400635 456.24463105201721 727.13652092218399 245.85943514108658 287.65936666727066 136.22624158859253 148.93763142824173 212.77395486831665 305.17255032062531 75.235941350460052 5560.2257462143898 7964.1373224556446 160.62228560447693 118.99852657318115 15795.42567679286 178.52737018465996 6931.2194320857525 12564.997104227543 233.38012129068375 133.0997651219368 539.39535266160965 217.65092039108276 705.70642185211182 254.57687121629715 344.64608824253082 182.81142890453339 70.256783604621887 814.63365185260773 3169.6819208562374 11200.085088282824 1829.9845168590546
leaf_count=201 31964 1359 754 1340 1480 459 400 360 414 232 249 3003 734 269 30745 647 299 207 277 538 252 7050 1345 2470 295 1039 277 61485 26893 1881 878 1527 802 1340 438 474 240 252 357 526 219 16226 23092 281 209 47398 533 20433 37105 687 222 892 353 1215 677 618 324 205 2393 9220 32671 5330
internal_value=-9.84694e-05 0.111214 0.0467659 -0.0174613 0.117098 0.0815767 -0.0211302 0.0574403 0.104601 0.0977757 0.0852004 0.124688 -0.0129177 0.00823222 -0.0146572 0.101585 0.126664 0.0928346 0.0963884 0.0924079 0.0620017 0.126981 -0.0119632 -0.0124433 0.0156079 -0.0231678 0.11733 -0.0224796 -0.0185401 0.125033 0.12279 0.110721 0.102898 0.101158 0.106562 0.11227 0.107711 0.107903 0.112294 0.114069 -0.0126719 -0.0133373 -0.0104702 0.112012 0.105556 -0.0240604 -0.0199918 -0.0186471 -0.0189633 -0.01769 0.112717 0.119153 0.116708 0.111735 0.0115389 0.107011 0.103525 -0.0136135 -0.0160013 -0.0132718 -0.0136217 -0.0106839
internal_weight=138908 18736.3 1551.78 120172 17184.5 815.274 66465.1 369.517 6492.7 3069.62 888.397 10691.8 53706.4 736.507 19076.7 445.757 8428.12 668.429 537.051 427.339 219.968 8252.4 34629.8 26203 471.101 37155 2263.65 20832.4 29310.1 3658.36 1739.95 3423.08 2181.22 1479.11 702.104 599.566 1174.74 311.907 2248.34 1356.75 7787.59 5882.37 8426.72 392.059 782.682 16322.6 527.135 28849.1 21684.5 7164.6 1143.98 1664.09 757.046 1010.88 354.706 663.684 319.038 5630.48 11289.1 15219.5 12049.9 1905.22
internal_count=386055 32128 3662 353927 28466 1667 197313 819 11627 5694 1755 16839 156614 1995 55852 848 13111 1271 1022 815 484 12812 100762 76325 1241 110855 3728 61885 86458 5762 2759 5933 3939 2699 1240 1003 2086 529 3847 2320 22714 17165 24437 695 1391 48970 1572 85118 63998 21120 1963 2725 1245 1741 946 1182 564 16431 33138 44361 35141 5549
cat_boundaries=0 1 2 3 4
cat_threshold=4 5 2 1
is_linear=0
shrinkage=0.05


Tree=4
num_leaves=63
num_cat=7
split_feature=2 5 1 4 5 2 5 4 5 5 4 4 2 5 5 1 5 4 5 5 5 3 4 4 5 5 4 5 5 5 2 4 4 5 5 5 4 5 5 5 5 4 4 5 5 4 5 5 5 5 5 5 5 4 5 5 5 5 4 5 4 5
split_gain=93367.4 2039.32 773.235 693.342 380.834 132.973 51.864 51.087 50.0668 48.2681 46.419 42.7529 28.7612 22.7819 21.3009 21.2983 15.8563 14.3255 14.0257 10.0706 9.56185 9.27595 9.26745 7.5879 7.44649 7.25299 9.31465 6.79365 5.05737 4.96465 4.79079 4.54787 4.44963 4.09625 4.25278 3.70972 3.29996 3.23985 3.15779 3.04424 2.86441 2.79497 2.59394 2.67977 2.56612 2.56233 2.50481 2.40099 2.23489 2.10503 2.09426 2.8626 2.00937 1.96064 1.96004 2.54378 2.2708 1.85465 1.81858 1.79151 1.77306 1.69707
threshold=0 30.250000000000004 1 3.5000000000000004 220.50000000000003 2 356.50000000000006 1.5000000000000002 52.650000000000013 1.7500000000000002 1.5000000000000002 3.5000000000000004 3 153.50000000000003 7.5500000000000007 4 703.50000000000011 1.5000000000000002 24.950000000000003 464.50000000000006 7.5500000000000007 5 1.5000000000000002 2.5000000000000004 41.650000000000013 1.7500000000000002 1.5000000000000002 21.350000000000005 404.50000000000006 470.50000000000006 6 2.5000000000000004 1.5000000000000002 700.50000000000011 187.50000000000003 3.1500000000000008 2.5000000000000004 0.75000000000000011 168.50000000000003 634.50000000000011 132.50000000000003 3.5000000000000004 3.5000000000000004 671.50000000000011 181.50000000000003 2.5000000000000004 44.550000000000004 244.50000000000003 174.50000000000003 159.50000000000003 362.50000000000006 645.50000000000011 425.50000000000006 1.5000000000000002 518.50000000000011 404.50000000000006 431.50000000000006 694.50000000000011 3.5000000000000004 703.50000000000011 2.5000000000000004 244.50000000000003
decision_type=1 2 1 2 2 1 2 2 2 2 2 2 1 2 2 1 2 2 2 2 2 1 2 2 2 2 2 2 2 2 1 2 2 2 2 2 2 2 2 2 2 2 2 2 2 2 2 2 2 2 2 2 2 2 2 2 2 2 2 2 2 2
left_child=1 3 10 9 7 25 17 40 11 -1 19 23 36 -10 35 33 29 61 22 30 37 -22 -11 -9 -13 32 28 -16 -27 45 46 -24 -4 34 38 -5 -12 -7 -14 -21 -3 -36 43 -17 -42 52 -2 -19 49 -15 -43 54 -8 -31 55 -52 -57 -23 -39 60 -28 -6
right_child=2 4 5 14 6 20 16 8 13 18 12 24 15 48 27 42 -18 47 -20 39 21 57 31 -25 -26 26 59 -29 -30 53 -32 -33 -34 -35 41 -37 -38 58 -40 -41 44 50 -44 -45 -46 -47 -48 -49 -50 -51 51 -53 -54 -55 -56 56 -58 -59 -60 -61 -62 -63
leaf_value=0.051522401383134069 -0.010010995371644255 0.098463246829320783 -0.0066124174431094465 -0.010878367456506177 0.11271656105919091 -0.010006111100526462 0.1105874634189136 0.092939571789038222 0.088691448203118223 0.085430067304752833 -0.011834157721786642 0.053168466507745905 -0.010181948169774427 0.098437313833121085 0.009921044047073219 -0.015984650783977726 0.092769792698842959 0.097393591328723092 0.093931928896821421 -0.016508302341932356 -0.022529352280103204 -0.024241547319688944 0.06555549883215743 0.080011475666291118 0.070458800686806503 -0.018983970295487502 -0.018781328612510664 0.023802566069650456 -0.021633842666782959 0.11188072408147931 -0.016231190423143662 0.076676749534283856 -0.015856796428158623 0.0005961894639264372 -0.013399338331396572 0.0012090266105202008 -0.01063217940115061 -0.020551305206378802 -0.0025037639999731746 -0.019310661930266277 0.10604922141474787 -0.013466295068705839 -0.014335204546451095 -0.020779756098468691 0.099352461676635639 0.10620888936106783 -0.013755583953766493 0.10102928665024631 0.097411747941223245 0.091351606845875399 -0.0041180007260675049 -0.015813150192592686 0.10672777063264122 0.10956618408152255 -0.0052212092766337715 -0.020625752702291958 -0.010324964290318806 -0.020349531208601179 -0.013757469712757264 -0.013386841302934256 -0.017799943268911385 0.10675950848676306
leaf_weight=199.7336882352829 489.26087433099747 797.69645321369171 181.15099465847015 121.85595780611038 145.40608376264572 128.17784586548805 873.59960162639618 223.74339938163757 2648.4153576493263 173.68144369125366 8614.7806985676289 142.31182983517647 1423.4688481390476 148.05310636758804 355.39253267645836 5195.2519962787628 150.0862340927124 556.76984030008316 134.72414171695709 3322.9328210651875 20370.33861848712 14888.096895009279 174.25503247976303 230.34938299655914 110.71690657734871 4054.5437914133072 6936.2506291568279 117.20718297362328 3239.0080896317959 1138.1757718920708 3147.4851969480515 194.56974881887436 462.52601113915443 68.828660160303116 2830.2892960608006 132.49716877937317 16936.574572354555 397.38564050197601 147.81302756071091 1368.0997294187546 322.81852447986603 431.2252309024334 2591.942355632782 308.67940035462379 256.88159286975861 1667.0717108249664 5120.2482508718967 2462.6852440834045 1138.7340205311775 358.92311233282089 115.87896308302879 138.64062416553497 549.19145393371582 4665.7085816860199 344.24624201655388 71.368861556053162 213.72968873381615 312.51856651902199 130.96339735388756 201.00638008117676 13678.418480247259 672.54977947473526
leaf_count=431 1443 1249 528 350 211 383 1209 375 4397 314 25376 297 4197 236 937 15482 232 853 231 9898 61907 45778 314 390 221 12197 20839 289 9797 1531 9370 356 1371 201 8358 376 49714 1200 436 4086 482 1269 7725 922 382 2330 15131 3626 1764 571 341 408 748 6316 1013 210 629 961 394 600 41069 945
internal_value=-0.000153817 0.0973142 -0.0174144 0.0431917 0.101872 -0.0210718 0.10682 0.0918805 0.0895322 0.0731223 -0.012917 0.0772041 -0.0120543 0.0915623 0.00708477 -0.0139161 0.108886 0.101949 0.0794927 -0.0154561 -0.0231101 -0.0232268 0.0759069 0.0863815 0.0607341 -0.0184965 -0.0186231 0.0133637 -0.0201608 0.109158 -0.0144547 0.0714224 -0.0132551 -0.0115089 -0.0116747 -0.00458182 -0.0110331 -0.0171373 -0.00945965 -0.0173256 0.100407 -0.0125143 -0.0156201 -0.0162536 0.103082 0.107539 -0.0134051 0.100359 0.0961823 0.0934209 -0.0106097 -0.00921601 0.109098 0.11002 -0.00798869 -0.0103646 -0.0129036 -0.0241615 -0.0188673 -0.0180843 -0.0181302 0.107818
internal_weight=138725 20863.8 117861 1603.92 19259.9 64980.4 12881.2 6378.64 5001.25 876.964 52880.7 707.122 39432.7 4294.13 726.953 13881.4 9043.83 3837.41 677.23 13448 36227.5 35571 542.506 454.093 253.029 28752.9 28109.2 472.6 7293.55 8893.75 8756.99 368.825 643.677 5785.49 5716.66 254.353 25551.4 656.527 1571.28 4691.03 1377.4 4145.38 8095.87 5503.93 579.7 3089.86 5609.51 3019.46 1645.71 506.976 1315.09 883.864 1422.79 5803.88 745.224 400.978 285.099 15200.6 528.349 20815.7 20614.7 817.956
internal_count=385196 31963 353233 3598 28365 197024 18001 10364 8251 1646 156209 1283 116281 6968 1952 41191 12366 5635 1215 39928 110623 108646 984 765 518 86401 84502 1226 21994 12134 25944 670 1899 17062 16861 726 75090 1977 4633 13984 2113 12228 24129 16404 864 4287 16574 4479 2571 807 3870 2601 1957 7847 2193 1180 839 46739 1594 62508 61908 1156
cat_boundaries=0 1 2 3 4 5 6 7
cat_threshold=4 5 2 1 1 1 1
is_linear=0
shrinkage=0.05


Tree=5
num_leaves=63
num_cat=2
split_feature=2 5 0 4 5 2 6 5 5 4 4 0 5 4 5 0 0 6 5 5 6 5 5 4 6 0 5 0 6 6 5 5 0 6 5 5 4 5 6 4 5 5 0 6 6 5 6 5 4 5 0 5 4 0 4 0 0 4 5 5 5 0
split_gain=81462.3 1514.51 841.852 428.64 319.744 131.617 127.847 83.3811 59.9204 71.4712 42.8742 39.4041 35.112 29.5231 28.8135 24.9244 28.4786 36.6251 24.6632 20.6055 11.2151 10.8559 10.2433 10.0226 9.62329 11.8991 9.30036 8.88075 8.54502 7.76659 33.726 11.1447 7.747 7.69144 7.13517 7.10698 7.37933 7.55895 5.7095 5.60843 5.35984 5.2657 4.86681 4.52966 4.38797 4.38721 4.29762 4.01778 3.8932 3.79344 3.62441 3.52656 3.34062 3.24413 3.05298 2.94224 4.4106 2.93977 4.86901 3.2296 2.89784 2.88806
threshold=0 24.950000000000003 11.15 3.5000000000000004 238.50000000000003 1 37.500000000000007 5.0500000000000007 78.500000000000014 3.5000000000000004 1.5000000000000002 20.150000000000002 36.150000000000013 1.5000000000000002 341.50000000000006 6.7500000000000009 1.2500000000000002 -39.499999999999993 5.0500000000000007 7.5500000000000007 45.500000000000007 1.7500000000000002 464.50000000000006 1.5000000000000002 11.500000000000002 0.8500000000000002 153.50000000000003 1.0000000180025095e-35 -7.4999999999999991 -29.499999999999996 684.50000000000011 698.50000000000011 1.8500000000000003 -34.499999999999993 7.5500000000000007 0.75000000000000011 1.5000000000000002 437.50000000000006 9.5000000000000018 1.5000000000000002 14.050000000000002 673.50000000000011 4.9500000000000011 -23.499999999999996 -1.0000000180025095e-35 132.50000000000003 -4.4999999999999991 21.350000000000005 1.5000000000000002 539.50000000000011 0.95000000000000007 437.50000000000006 3.5000000000000004 15.050000000000002 2.5000000000000004 2.6500000000000008 7.2500000000000009 3.5000000000000004 688.50000000000011 28.050000000000004 17.550000000000004 0.55000000000000016
decision_type=1 2 8 2 2 1 8 2 2 2 2 8 2 2 2 10 10 10 2 2 8 2 2 2 8 10 2 10 10 10 2 2 10 10 2 2 2 2 8 2 2 2 10 10 8 2 8 2 2 2 10 2 2 10 2 10 10 2 2 2 2 10
left_child=1 3 10 6 8 35 18 21 9 39 22 40 -11 44 23 16 20 42 -1 -5 27 -8 24 -6 25 -2 -15 41 -14 30 49 51 -19 -17 46 48 37 47 -21 -3 -7 -12 -18 -36 45 -10 -13 -37 -4 -16 -22 -31 -48 -42 -29 -27 -57 -34 59 -59 -40 -26
right_child=2 4 5 19 14 11 7 -9 13 12 15 34 28 26 29 33 17 32 -20 38 50 -23 -24 -25 61 55 -28 54 -30 31 -32 -33 57 -35 43 36 -38 -39 60 -41 53 -43 -44 -45 -46 -47 52 -49 -50 -51 -52 -53 -54 -55 -56 56 -58 58 -60 -61 -62 -63
leaf_value=0.093956747392555412 -0.017800911908937823 0.084095622711871695 -0.0049324170929559014 -0.0040066119772562544 0.094795042097187587 -0.0074403961691819473 0.014123775478276909 0.072328535972668695 0.088331037502336229 0.037184250637765148 -0.018119664878432969 -0.0067886654543248357 0.059927997769154723 0.079421451861448694 0.092620213797055609 -0.015741133622193097 -0.011757201888897856 -0.010212374016074196 0.069719781530136651 0.0051345554037237045 -0.0074918921851668818 0.035169923064734425 -0.01669218625907273 0.088050731967987114 -0.0097325078967889882 -0.012654391661815492 0.084029756462149829 -0.014848940422944499 0.073187459576372654 0.093739820331261048 0.070707157350736738 0.10871865934026131 -0.0080680342155003675 -0.012330498479852861 -0.024146626236914281 -0.01220726759319511 -0.017913880831585752 -0.021597508709857868 0.014630834518444073 0.077678812010493314 -0.017979368279788348 -0.0040579571542123409 -0.014708242265405661 -0.022950052169577222 0.088632282434465373 0.099392922997441221 -0.021968708039470899 -0.018774832849545255 -0.015049956166024595 0.096271702214243512 -0.013729255501609037 0.09619958497799673 -0.012766366147956794 -0.02042488392903298 -0.012159010571190223 -0.0085361994472503474 -0.01342054560486618 -0.014156096153576153 0.0048059801356661247 -0.0062858341670146327 0.025523000328058532 -0.016226502987192259
leaf_weight=180.57681721448898 803.88680845499039 490.70511823892593 133.18692201375961 254.53048554062843 703.87031829357147 100.63909307122231 142.4792543053627 131.74444109201431 145.81085026264191 135.45434305071831 1438.2375982999802 74.831214129924774 267.82365810871124 2086.3165857791901 1825.8914523124695 3245.9919317960739 5729.7763410508633 3454.9071297645569 250.66355484724045 125.15093299746513 971.88887616991997 107.50145369768143 4159.9694353342056 2534.1070811152458 182.15832608938217 1790.5730285048485 2303.8972398638725 1588.1247306764126 222.41102290153503 2028.353331387043 163.28850877285004 163.23727971315384 7049.005012512207 3368.3324021399021 15308.230558395386 245.60294929146767 22175.196809858084 3140.7075188457966 202.73643922805786 1112.595250248909 3000.0451047122478 69.807833820581436 1847.639384418726 16363.233585566282 828.03383332490921 232.64764857292175 384.54050606489182 4492.5759026110172 332.33432492613792 1165.1434519886971 306.30602732300758 5174.38610714674 132.63810658454895 2474.8081644773483 3141.2154225409031 1608.0460501909256 648.62673708796501 135.85468846559525 96.169277667999268 3216.7727953791618 87.384350389242172 2847.9225123226643
leaf_count=285 2420 713 390 730 891 306 325 222 202 295 4329 227 464 3137 2280 9832 17142 10232 407 327 2882 210 12605 3391 547 5352 3261 4748 389 2541 215 222 20875 10020 48206 746 67776 9704 528 1711 9108 208 5586 50928 1126 310 1183 13773 999 1412 915 6259 404 7639 9363 4794 1948 404 283 9468 218 8601
internal_value=-0.000143102 0.0856564 -0.0172015 0.0368122 0.0890515 -0.0207603 0.0612137 0.0401389 0.0809824 0.0740496 -0.0121053 -0.02275 0.0597175 0.0837435 0.0936412 -0.0112342 -0.0106034 -0.0096784 0.0798687 0.00719511 -0.0132533 0.0231744 -0.0146849 0.0895168 -0.0136254 -0.0122446 0.0818398 -0.0141277 0.0659436 0.0949107 0.0928346 0.0957997 -0.00815867 -0.0140043 -0.0234268 -0.0182799 -0.0183809 -0.0196953 0.0140609 0.0796427 -0.0188746 -0.0174687 -0.0124768 -0.0235284 0.0906708 0.095131 -0.0179882 -0.0184344 -0.0121553 0.0940426 -0.00898661 0.0955069 -0.0196086 -0.0190848 -0.0130623 -0.0111409 -0.00994009 -0.00748278 -0.00628656 -0.00660475 0.0179116 -0.0158361
internal_weight=139127 23066.7 116060 1482.77 21584 68358.6 812.966 381.725 7825.7 2228.99 47701.2 37839 625.689 5596.71 13758.3 35660 29045.7 21530.1 431.24 669.802 7515.58 249.981 12041.2 3237.98 7881.21 4851.13 4390.21 6237.39 490.235 10520.3 3154.32 7365.98 13952.7 6614.32 32263.5 30519.6 30054.1 7878.89 415.272 1603.3 5575.49 1508.05 7577.42 31671.5 1206.49 378.458 592.01 4738.18 465.521 2991.03 1278.19 7202.74 517.179 5474.85 4729.34 4047.25 2256.67 10497.8 3448.8 3352.63 290.121 3030.08
internal_count=386014 32071 353943 3252 28819 211389 1449 757 11608 3572 142554 118001 1148 8036 17211 106287 86435 63990 692 1803 22445 535 36267 4282 23662 14514 6398 18648 853 12929 3907 9022 41262 19852 100948 93388 91999 24223 1073 2424 17053 4537 22728 99134 1638 512 1814 14519 1389 3692 3797 8800 1587 16747 14111 12094 6742 31030 10155 9872 746 9148
cat_boundaries=0 1 2
cat_threshold=4 2
is_linear=0
shrinkage=0.05


Tree=6
num_leaves=63
num_cat=6
split_feature=2 0 4 2 4 0 0 0 2 4 2 0 0 0 2 0 2 4 0 4 0 0 0 4 0 0 0 0 4 0 0 0 0 0 0 0 0 0 0 0 0 0 0 0 0 0 0 0 0 4 0 0 0 0 4 0 0 4 4 0 0 0
split_gain=72333.5 826.2 190.05 138.279 43.3872 38.4248 26.4732 26.8472 34.3236 25.8889 7.55954 7.51289 7.32465 8.83369 8.00373 7.09842 10.3297 5.81926 4.65447 3.58126 3.41376 2.99373 2.8221 2.48752 2.30027 1.73433 1.61353 2.24187 1.58099 1.54568 2.62316 2.05579 1.49695 1.44786 1.28077 1.16235 1.13542 1.12829 1.11847 1.31809 1.36904 1.11246 1.00698 2.47508 2.10788 0.974167 1.79207 1.43131 0.99324 0.954511 1.05342 1.14764 0.924389 0.915881 2.06532 1.319 0.89795 1.72762 1.60058 1.20976 2.03017 2.36639
threshold=0 11.350000000000003 3.5000000000000004 1 1.5000000000000002 20.150000000000002 6.7500000000000009 1.5500000000000003 2 1.5000000000000002 3 43.250000000000007 8.7500000000000018 1.2500000000000002 4 1.0000000180025095e-35 5 1.5000000000000002 34.650000000000013 2.5000000000000004 15.050000000000002 2.0500000000000003 2.6500000000000008 2.5000000000000004 9.2500000000000018 6.4500000000000011 5.9500000000000011 4.6500000000000012 3.5000000000000004 4.6500000000000012 3.6500000000000008 3.3500000000000001 1.8500000000000003 4.8500000000000005 13.050000000000002 5.6500000000000012 1.5500000000000003 4.7500000000000009 2.0500000000000003 3.6500000000000008 4.6500000000000012 6.8500000000000005 27.650000000000002 27.350000000000005 27.450000000000003 23.350000000000005 26.150000000000002 25.750000000000004 23.150000000000002 2.5000000000000004 3.1500000000000008 2.7500000000000004 11.550000000000002 9.5500000000000025 2.5000000000000004 10.250000000000002 1.8500000000000003 3.5000000000000004 3.5000000000000004 4.9500000000000011 3.5500000000000003 4.1500000000000012
decision_type=1 8 2 1 2 8 10 10 1 2 1 10 10 10 1 10 1 2 8 2 10 10 10 2 10 10 10 10 2 10 10 10 10 10 10 10 10 10 10 10 10 10 10 10 10 10 10 10 10 2 10 10 10 10 2 10 10 2 2 10 10 10
left_child=2 4 9 11 12 20 7 15 23 -1 24 17 13 -2 22 16 -6 -3 -7 -17 52 -10 -15 25 41 32 27 36 34 30 31 49 -9 -29 -19 -24 -16 -31 -34 -40 -41 -8 43 45 -45 48 47 -47 -30 -23 51 -51 -5 54 -12 -55 58 -58 -25 60 -59 -62
right_child=1 3 -4 5 6 18 10 8 21 -11 53 -13 -14 14 26 19 -18 28 -20 -21 -22 29 35 56 -26 -27 -28 33 42 37 -32 -33 38 -35 -36 -37 -38 -39 39 40 -42 -43 -44 44 -46 46 -48 -49 -50 50 -52 -53 -54 55 -56 -57 57 59 -60 -61 61 -63
leaf_value=0.082168169475421562 -0.016861256658820066 -0.019342414339817093 0.069567446761992099 -0.014282549964057607 -0.0089794236301576312 -0.022835481402010638 -0.016676584806708104 -0.010981962119315744 -0.0094344503963317023 0.078001943979071453 -0.017386604277570578 -0.0071491281883230024 -0.018193605793821153 -0.013466759580033009 -0.011259248856771778 -0.013535830403277035 -0.017537427927896393 -0.020160043011919489 -0.024051954431261388 -0.011189317012510802 -0.020160631819626653 -0.013727130606855679 -0.010372307254992892 -0.006723386745718595 -0.013723086438586536 -0.015448539585975852 -0.017508654879610772 -0.006035082425463998 -0.017630755868331793 -0.018111994125810289 -0.010169014538219431 -0.015903636762399601 -0.0052191918408117828 -0.013196759010921381 -0.017945697974222252 -0.012463173693482925 -0.016133824993151743 -0.013377764562249192 -0.009393188284454233 -0.005517009881945715 -0.0087610878267431747 -0.01086114488979655 -0.01895428728596165 -0.0045178381083124742 -0.015501139959096836 -0.016575939584031692 -0.018265306598322591 -0.013894017334002079 -0.021324171458071989 -0.01100035909800403 -0.0083105590213086531 -0.014096088815235781 -0.017856056843387428 -0.019134643864952155 -0.014123728485775098 -0.015651871969367012 -0.0078586493089191634 -0.0066330796952837161 -0.010400827978072121 -0.0082310891940409036 -0.00080551014443953992 -0.006486328578290089
leaf_weight=5250.5931723713875 2428.4613147974014 7764.016333758831 7118.8920231163502 194.37331521511078 567.18511354923248 16701.912459731102 85.861332774162292 584.95145666599274 847.68803343176842 12865.257630735636 745.70096504688263 155.5417802631855 1296.0280473828316 2182.6171995103359 128.9607809484005 2426.1884035468102 1477.7309258580208 685.33920788764954 14858.928519457579 4930.370697170496 2452.5377850532532 756.61128330230713 1926.4079981148243 590.96825397014618 1431.6355643570423 95.94138965010643 833.26389873027802 85.132730036973953 2055.9811300933361 133.98297709226608 1299.4320776760578 470.55511808395386 280.46807691454887 412.6368225812912 13844.567757844925 1014.8719761073589 1621.5394318699837 2073.9638837873936 1804.2147163450718 587.70966428518295 728.14722898602486 1947.291390389204 697.87494915723801 71.388385057449341 112.56280934810638 2289.9859513640404 1234.0114245414734 635.55943012237549 199.70935100317001 853.28515174984932 214.90787622332573 461.18687817454338 2624.3299844861031 447.79091915488243 1387.1326277256012 691.91757610440254 3485.4362847208977 2058.1236379444599 592.57976123690605 644.64913564920425 376.7104657292366 357.08567643165588
leaf_count=6285 7446 24331 9977 598 1691 53166 257 1756 2562 15952 2296 465 3991 6634 396 7343 4524 2124 47923 14842 7723 2290 5833 1767 4330 287 2573 262 6385 408 3947 1422 839 1270 43107 3081 4980 6358 5397 1758 2178 5852 2170 222 350 7120 3837 1976 621 2577 649 1393 8120 1378 4267 2130 10385 6099 1763 1910 1116 1058
internal_value=-0.000118581 -0.0170829 0.0764591 -0.0206755 -0.0120367 -0.022742 -0.0111587 -0.0104965 -0.00942918 0.0792095 -0.0139793 -0.0181031 -0.0146448 -0.0142123 -0.0134283 -0.0126876 -0.0152934 -0.0181668 -0.0234082 -0.0119632 -0.0187965 -0.012206 -0.012081 -0.00779241 -0.0121527 -0.00880548 -0.0155787 -0.0149328 -0.0177486 -0.0126005 -0.012021 -0.012894 -0.00864556 -0.0119719 -0.0180501 -0.0110937 -0.0157747 -0.013665 -0.00824366 -0.00851554 -0.00731216 -0.0111067 -0.0171481 -0.0169571 -0.0112387 -0.0171211 -0.0166673 -0.0159933 -0.0179578 -0.0122745 -0.0115559 -0.0120865 -0.0176096 -0.0158276 -0.0152645 -0.0170203 -0.00729191 -0.00707429 -0.00856461 -0.00627879 -0.005828 -0.00356995
internal_weight=139181 113946 25234.7 66578.6 47367.3 36832.1 35437.4 28700.1 19298.6 18115.9 6737.33 29746.5 11929.9 10633.9 8205.43 9401.48 2044.92 29591 31560.8 7356.56 5271.24 7111.61 5123.9 12187 3464.79 4081.43 3081.53 2248.27 21827 6263.93 4055.98 2756.55 3985.49 497.77 14529.9 2941.28 1750.5 2207.95 3400.54 3120.07 1315.86 2033.15 7297.07 6599.2 183.951 6415.25 4159.56 2925.55 2255.69 2285.99 1529.38 1314.47 2818.7 3272.54 2132.83 1139.71 8105.55 6922.01 1183.55 3436.57 2791.92 733.796
internal_count=385747 353533 32214 210238 143295 117530 106829 86319 57919 22237 20510 92708 36466 32475 25029 28400 6215 92243 101089 22185 16441 21606 15548 36313 10439 12215 9481 6908 67912 19044 12278 8331 11928 1532 45231 8914 5376 6766 10172 9333 3936 6109 22681 20511 572 19939 12933 9096 7006 6909 4619 3970 8718 10071 6563 3508 24098 20568 3530 10183 8273 2174
cat_boundaries=0 1 2 3 4 5 6
cat_threshold=4 2 1 1 1 2
is_linear=0
shrinkage=0.05


Tree=7
num_leaves=63
num_cat=0
split_feature=0 6 0 5 4 5 6 0 5 4 5 4 5 5 6 0 4 4 6 6 6 4 0 5 0 0 5 4 5 0 4 5 5 5 6 0 5 6 0 5 0 5 5 0 5 0 4 5 5 0 5 0 5 5 4 5 4 5 5 5 5 5
split_gain=32171.2 15825.7 584.832 305.198 108.131 206.892 53.7079 57.114 45.8095 41.2704 41.2801 37.0733 27.035 21.2004 20.1947 51.0403 17.7363 15.7799 15.058 19.6008 18.2914 14.1592 11.9052 10.6287 9.99459 9.78846 9.62321 9.54734 9.36342 9.0724 8.79377 8.48318 7.65053 7.3326 6.90112 13.3584 6.87685 6.39064 6.01548 5.87841 5.78011 4.87565 15.485 4.81228 4.23133 4.07915 4.05253 3.97319 5.49217 3.80373 5.16589 3.80253 3.79378 3.71726 3.58272 3.43276 5.04642 3.3939 3.35534 3.13154 7.20461 3.47992
threshold=inf -52.499999999999993 9.4500000000000011 132.50000000000003 3.5000000000000004 34.050000000000004 50.500000000000007 17.350000000000005 347.50000000000006 1.5000000000000002 21.350000000000005 1.5000000000000002 10.65 434.50000000000006 -39.499999999999993 1.2500000000000002 3.5000000000000004 1.5000000000000002 14.500000000000002 7.5000000000000009 -7.4999999999999991 3.5000000000000004 47.550000000000004 698.50000000000011 5.9500000000000011 8.1500000000000004 678.50000000000011 1.5000000000000002 464.50000000000006 1.0000000180025095e-35 2.5000000000000004 1.7500000000000002 673.50000000000011 663.50000000000011 16.500000000000004 1.1500000000000001 244.50000000000003 4.5000000000000009 11.550000000000002 676.50000000000011 1.8500000000000003 24.950000000000003 5.0500000000000007 0.65000000000000002 0.75000000000000011 0.55000000000000016 4.5000000000000009 60.500000000000007 72.500000000000014 2.0500000000000003 649.50000000000011 6.4500000000000011 281.50000000000006 467.50000000000006 1.5000000000000002 455.50000000000006 1.5000000000000002 659.50000000000011 5.0500000000000007 181.50000000000003 217.50000000000003 500.50000000000006
decision_type=8 10 10 2 2 2 8 10 2 2 2 2 2 2 10 10 2 2 10 10 10 2 10 2 10 10 2 2 2 10 2 2 2 2 8 10 2 10 10 2 10 2 2 10 2 10 2 2 2 10 2 10 2 2 2 2 2 2 2 2 2 2
left_child=2 9 11 4 17 12 7 38 27 13 21 28 -6 52 24 29 26 -3 19 20 -7 -11 30 -10 43 40 -12 -5 34 39 44 -9 46 -15 35 -1 -29 -14 -4 -16 -17 42 -19 53 54 -36 47 -18 -49 -30 -51 -42 -2 -13 -8 -46 -57 -53 -23 -50 -61 -62
right_child=1 3 6 8 5 18 22 31 23 10 16 14 37 33 15 25 32 41 -20 -21 -22 58 -24 -25 -26 -27 -28 36 49 -31 -32 -33 -34 -35 45 -37 -38 -39 -40 -41 51 -43 -44 -45 55 -47 -48 48 59 50 -52 57 -54 -55 -56 56 -58 -59 -60 60 61 -63
leaf_value=-0.01654655630529903 0.0086230694251015292 0.069459307464423886 -0.0146322723094722 0.074907063814456346 -0.013862917099759679 0.04973717732704809 -0.0053073018713262164 -0.0093465818473547953 0.076631788862972103 0.0073578787947585341 0.0099112718662540348 -0.010212342930526355 0.027701862195758903 0.0020755072587930849 -0.017912146930177751 -0.0098974037552432351 0.0086371649272533862 0.06831595345551443 0.072658318661251484 0.039208738480586897 0.06839947277611598 -0.0088992926107074703 -0.0024833142335927883 0.088367973031954802 -0.015087985017661633 -0.013359769605223878 0.0021809407680954207 0.068208956237921045 -0.018103651858675161 -0.012690814757396654 -0.017202241944094924 -0.022715131473650119 0.0049057059276424939 -0.0068471030972234535 -0.0071346762669048883 -0.010376099950682607 0.072165140389065213 0.0099054781779684617 -0.018039412740449946 -0.0028990935854276909 -0.0071979416088102646 0.06275381242841728 0.047077280041171482 -0.012009422466948499 -0.018418189322832547 -0.015729117626595859 0.024222418237934491 0.024494475504088953 0.010751032717907859 -0.013581425652095134 -0.019334909442528109 -0.009196694927929825 0.0050415230154190124 -0.00258982924291357 -0.018461696239168539 -0.021390786498751289 -0.018423283106746152 -0.018035018819249286 -0.0013027075988809814 0.021468989728745527 0.012167005741616048 0.015389574523946521
leaf_weight=1171.1144523918629 2249.46936455369 944.44105970859528 1931.9421224296093 1292.9090253710747 86.628661453723907 242.06599456071854 105.00993341207504 119.48832961916924 8411.6019316315651 500.19971108436584 10680.606601953506 496.00044760107994 109.45891416072845 1574.0702618360519 1395.0896474123001 3388.7268294095993 416.8356246650219 151.37653070688248 154.89152014255524 146.78783524036407 286.9286904335022 216.57287901639938 123.0647968351841 197.4429811835289 2807.6395197212696 932.90936258435249 418.36038154363632 2395.7895604372025 1486.8532609939575 4601.0814610421658 15071.411569148302 17264.751327753067 272.40651482343674 269.71172922849655 146.93758597970009 3494.0443290770054 2028.4674969911575 93.566260755062103 3932.3386223912239 68.398919343948364 10067.310080468655 1715.5140464305878 198.17388862371445 7195.8761260807514 9818.9442893564701 2285.677276968956 86.643306612968445 115.56301009654999 868.45817720890045 1769.2286832332611 500.513611972332 1400.9212689101696 1101.4105501174927 236.06714317202568 102.0797980427742 2966.4274799227715 2770.8474924564362 117.74668914079666 442.0536268055439 303.46716529130936 2123.1869942545891 1383.6799191236496
leaf_count=3642 5753 1155 5960 1407 227 353 316 373 8644 1232 26995 1494 253 4255 4351 10247 1042 202 217 216 403 615 369 223 8765 2852 1102 2910 4654 14076 47674 56194 700 788 453 10676 2292 211 12471 208 30205 2215 280 22083 31178 7129 220 271 2150 5514 1570 4236 2914 711 318 9541 8787 356 1176 684 5255 3344
internal_value=-0.00024708 0.0366504 -0.015901 0.0711447 0.0591693 0.045909 -0.0193677 -0.0211839 0.0745969 0.00899823 0.0101409 -0.0115873 0.00952208 0.00507644 -0.010747 -0.00987854 0.0107753 0.0641056 0.058597 0.0553741 0.0598597 0.00101585 -0.0180038 0.076901 -0.0125244 -0.0083906 0.00961989 0.0711274 -0.0141193 -0.0137815 -0.0180658 -0.0226232 0.0130775 0.000770292 -0.0130509 -0.0119251 0.0700228 0.0195002 -0.016917 -0.0172105 -0.00808102 0.0616571 0.0562749 -0.0116165 -0.0188914 -0.01521 0.0134977 0.0133194 0.0137265 -0.0161379 -0.0148502 -0.00754976 0.00744584 -0.00775434 -0.0117914 -0.0189859 -0.0199576 -0.00988196 -0.00380065 0.0134605 0.0140781 0.0134385
internal_weight=139247 41478.7 97768.4 18456 4129.83 1120.33 54206.3 23248.5 14326.2 23022.7 17828 43562.1 289.654 5194.66 32707.8 21972.2 16669.2 3009.51 830.674 675.783 528.995 1158.83 30957.8 8609.04 10735.6 15907.6 11099 5717.17 10854.4 6064.57 30834.7 17384.2 5570.24 1843.78 7097.77 4665.16 4424.26 203.025 5864.28 1463.49 14974.7 2065.06 349.55 7927.94 15763.3 2432.61 5297.83 5211.19 4794.36 3756.6 2269.74 11586 3350.88 732.068 207.09 15556.2 5737.27 1518.67 658.627 4678.79 3810.33 3506.87
internal_count=386107 79704 306403 21208 5732 1880 173181 74998 15476 58496 44786 133222 691 13710 99584 66531 41763 3852 1189 972 756 3023 98183 8867 33053 47896 28097 6609 33638 18635 97814 56567 13666 5043 21900 14318 5202 464 18431 4559 45044 2697 482 24288 50140 7582 12966 12746 11704 11738 7084 34797 8667 2205 634 49506 18328 4592 1791 11433 9283 8599
is_linear=0
shrinkage=0.05


Tree=8
num_leaves=63
num_cat=2
split_feature=2 5 3 4 5 6 5 4 6 5 4 5 5 5 5 5 5 5 6 6 5 5 6 5 5 4 4 5 4 4 5 5 4 4 5 5 5 5 6 6 4 6 5 6 6 5 6 5 5 4 4 4 6 6 5 6 6 5 5 5 5 4
split_gain=60029.3 839.776 356.62 272.859 164.176 49.258 56.987 43.9249 32.2888 29.3389 38.753 26.6299 21.6868 19.9752 16.9607 16.8293 13.7382 12.1275 11.931 10.4713 7.65978 7.31826 6.94372 6.6922 6.67018 5.82761 4.94375 4.66409 4.4203 3.94177 5.61816 3.88314 3.36405 3.34189 4.40034 3.30862 2.90495 2.78665 4.88307 4.22585 2.71947 2.61994 3.72249 2.82288 2.61034 2.50129 2.46936 2.38509 2.32629 2.13506 2.09506 1.9893 3.07359 1.93412 1.93342 1.89541 1.82012 1.51716 2.27977 2.10389 1.47947 4.30466
threshold=0 28.050000000000004 1 3.5000000000000004 220.50000000000003 10.500000000000002 5.0500000000000007 1.5000000000000002 36.500000000000007 81.500000000000014 3.5000000000000004 684.50000000000011 7.5500000000000007 464.50000000000006 5.0500000000000007 437.50000000000006 41.650000000000013 1.7500000000000002 37.500000000000007 32.500000000000007 1.7500000000000002 311.50000000000006 16.500000000000004 698.50000000000011 21.350000000000005 1.5000000000000002 1.5000000000000002 649.50000000000011 1.5000000000000002 2.5000000000000004 123.50000000000001 21.350000000000005 3.5000000000000004 3.5000000000000004 14.050000000000002 287.50000000000006 3.1500000000000008 5.0500000000000007 -4.4999999999999991 11.500000000000002 2.5000000000000004 1.0000000180025095e-35 41.650000000000013 3.5000000000000004 17.500000000000004 14.050000000000002 10.500000000000002 138.50000000000003 199.50000000000003 2.5000000000000004 1.5000000000000002 3.5000000000000004 1.5000000000000002 3.5000000000000004 41.650000000000013 -1.4999999999999998 18.500000000000004 596.50000000000011 605.50000000000011 557.50000000000011 177.50000000000003 2.5000000000000004
decision_type=1 2 1 2 2 8 2 2 8 2 2 2 2 2 2 2 2 2 8 8 2 2 8 2 2 2 2 2 2 2 2 2 2 2 2 2 2 2 10 10 2 8 2 10 8 2 8 2 2 2 2 2 10 10 2 10 10 2 2 2 2 2
left_child=1 3 7 5 9 14 20 13 15 10 28 21 36 17 -1 26 -12 -2 25 37 -7 50 55 -17 45 -11 -6 -15 44 -20 -31 32 -4 60 -35 51 -5 38 -9 -40 -39 49 -43 -44 -3 -14 54 -48 -27 -30 -10 -28 -53 -50 -19 -18 -37 59 -59 -36 61 -21
right_child=2 4 31 12 8 6 -8 19 11 18 16 -13 24 27 -16 23 22 46 29 33 -22 -23 -24 -25 -26 48 35 -29 41 30 -32 -33 -34 34 57 56 -38 40 39 -41 -42 42 43 -45 -46 -47 47 -49 53 -51 -52 52 -54 -55 -56 -57 -58 58 -60 -61 -62 -63
leaf_value=0.072161274936913239 -0.0063873213950417498 0.061990876664848017 -0.022867407971727434 -0.0088161738474660505 0.068876214431616054 0.017573007283648672 0.056181988410926122 -0.0022640439852131835 0.074527365313587585 0.065134788065413743 0.036407119802890735 0.055026103852805708 0.015557117086375831 -0.018863583400394068 0.052543936095304777 0.069568133742955937 0.050356302721409563 -0.013285320657946754 0.069192953895383699 -0.016797153588205722 0.0326967968561932 0.074596735528180982 0.057692918312308841 0.078356853657963993 0.025622918026823052 0.060121608749724637 0.064790697893262805 -0.021620180987041784 0.052471583641638744 0.05880247382609502 0.066992746718216686 -0.024285851776805006 -0.014654380103955606 -0.020942200525271903 -0.01494399340015758 0.06671848744086134 0.0018363731813962139 -0.015185867494336175 -0.017643386148332003 -0.0032190426495776088 -0.014286311063721583 0.055456428074408065 0.065872988466146837 0.059265553329919597 0.069151183473496622 0.0074991041678850821 -0.016021632999252144 -0.01790298479892171 0.066513779392628911 0.05920930062169158 0.068830163027627567 0.056884967020605505 0.064781196228557034 0.060040650954957933 -0.016295181249981222 0.04241594552444064 0.062462832398890514 -0.0074502274310651595 -0.01407748146431635 -0.017963347985063355 -0.01635807910270606 -0.014081287943970677
leaf_weight=178.36791151762009 290.09957492351532 452.08403438329697 356.80474391579628 124.8977997303009 1349.9744253158569 175.69813197851181 253.66845804452896 126.30055823922157 198.77888244390488 945.93337249755859 210.65906977653503 200.98836541175842 191.89636379480362 6654.7297030389309 288.21348267793655 6671.7940101623535 148.96475857496262 576.05961522459984 792.89768767356873 2900.8562909066677 159.92751216888428 3881.7814013957977 244.78266668319702 223.86732250452042 107.03203782439232 2777.487615942955 942.31236362457275 1994.3383038640022 229.62231487035751 303.71244925260544 674.13029944896698 14077.678260475397 191.64836874604225 308.71624207496643 8492.4321447312832 2853.1557946205139 131.25505977869034 12702.99190980196 208.74272599816322 67.097873777151108 24812.779704272747 259.07479900121689 321.38120979070663 325.22812074422836 177.16450870037079 193.32864907383919 2429.7111053168774 5493.5693379938602 285.1886550784111 240.9607999920845 857.36162501573563 244.1435170173645 248.8548726439476 193.82604169845581 7229.8326377570629 151.68366438150406 275.51176816225052 140.97443434596062 1632.2873043119907 618.99960073828697 16408.565196275711 2935.4361929297447
leaf_count=221 888 514 1157 343 1312 347 354 390 213 1002 375 229 462 21565 376 6288 206 1834 943 9252 258 4020 346 232 231 3275 1008 6502 281 393 821 46112 621 985 27020 2866 351 40268 656 210 78272 332 414 400 219 460 7808 17689 320 297 987 269 273 214 23098 214 281 448 5186 1967 52384 9337
internal_value=-0.000185429 0.0645273 -0.0168504 0.0315365 0.0667823 0.0479066 0.0382971 -0.0157441 0.0695183 0.0611603 0.0568985 0.0728665 0.00844127 -0.0175629 0.0600434 0.0681751 0.0472521 -0.0165174 0.0631306 -0.0151153 0.0247796 0.0735927 0.0514407 0.0698535 0.014581 0.0616801 0.0662181 -0.0194992 0.0605353 0.0665732 0.0644489 -0.024125 -0.0199975 -0.0157603 -0.0150557 0.0654319 -0.00335771 -0.0145465 -0.0104065 -0.0141347 -0.0145909 0.0589481 0.0605206 0.0625496 0.0640069 0.0115131 -0.0167042 -0.0173261 0.0606766 0.0559216 0.0699024 0.0634443 0.0608708 0.0638945 -0.0160731 0.0463502 0.0663437 -0.0148887 -0.0135506 -0.0151491 -0.0161149 -0.0154312
internal_weight=139138 28487.6 110651 1804.29 26683.3 1055.88 589.294 96024.5 17948.5 8734.78 2761.61 5138.91 748.41 24668.3 466.581 12809.6 756.09 16019.3 5973.18 71356.2 335.626 4937.92 545.431 6895.66 492.257 4202.44 5913.95 8649.07 2005.52 1770.74 977.843 14626.1 548.453 33438.3 11193.4 4563.98 256.153 37917.9 402.141 275.841 37515.8 1376.27 905.684 646.609 629.249 385.225 15729.2 7923.28 3256.5 470.583 1056.14 1435.31 492.998 479.015 7805.89 300.648 3128.67 10884.7 1773.26 9111.43 22244.9 5836.29
internal_count=385596 31947 353649 3403 28544 1556 959 305759 17978 10566 3598 5449 1847 79384 597 12529 1141 51317 6968 226375 605 5220 766 6520 1153 4811 6009 28067 2457 2157 1214 47890 1778 106579 35606 4697 694 119796 1256 866 118540 1724 1146 814 733 922 50429 25497 3809 578 1200 1550 542 534 24932 420 3147 34621 5634 28987 70973 18589
cat_boundaries=0 1 2
cat_threshold=4 1
is_linear=0
shrinkage=0.05


Tree=9
num_leaves=63
num_cat=2
split_feature=2 0 2 4 4 0 0 0 6 6 6 4 6 6 6 6 0 0 4 6 0 0 6 0 6 6 6 6 4 6 6 0 6 0 6 4 0 0 6 0 6 6 0 4 4 6 4 0 6 6 6 6 0 0 0 6 6 4 6 6 6 6
split_gain=54498.7 859.34 149.748 77.3443 50.5878 43.0387 26.3831 28.6966 30.3776 22.1485 26.4307 13.1366 11.3334 10.3505 23.2437 9.94133 9.32006 7.1842 8.01369 6.84369 6.0404 7.33025 8.2979 5.76799 5.767 5.62394 6.42946 4.34769 3.8471 3.65595 3.65572 3.60983 3.28416 3.25403 3.05311 2.9397 2.89815 2.79002 3.3773 2.6555 2.61937 4.48729 2.27645 2.09737 1.99221 1.98321 1.9413 3.22519 3.57495 2.66127 1.93722 1.79196 2.68063 1.77577 1.76619 1.75602 1.64708 1.62643 1.5365 1.54758 1.79304 1.51443
threshold=0 11.450000000000001 1 3.5000000000000004 1.5000000000000002 20.150000000000002 6.5500000000000007 1.2500000000000002 37.500000000000007 11.500000000000002 4.5000000000000009 1.5000000000000002 -28.499999999999996 -12.499999999999998 -4.4999999999999991 45.500000000000007 1.0000000180025095e-35 43.250000000000007 1.5000000000000002 5.5000000000000009 7.9500000000000011 1.1500000000000001 -25.499999999999996 3.5500000000000003 -25.499999999999996 36.500000000000007 25.500000000000004 -13.499999999999998 2.5000000000000004 -20.499999999999996 -22.499999999999996 15.050000000000002 7.5000000000000009 8.3500000000000032 22.500000000000004 2.5000000000000004 0.75000000000000011 2.1500000000000008 2.5000000000000004 1.4500000000000002 2.5000000000000004 -2.4999999999999996 5.5500000000000007 2.5000000000000004 2.5000000000000004 -10.499999999999998 3.5000000000000004 4.2500000000000009 -5.4999999999999991 -13.499999999999998 -8.4999999999999982 18.500000000000004 4.3500000000000005 0.55000000000000016 12.15 21.500000000000004 30.500000000000004 2.5000000000000004 -10.499999999999998 -1.0000000180025095e-35 3.5000000000000004 18.500000000000004
decision_type=1 8 1 2 2 8 10 10 8 10 8 2 10 10 10 8 10 10 2 10 10 10 10 10 10 8 10 10 2 10 10 10 8 10 10 2 10 10 10 10 10 10 10 2 2 10 2 10 10 10 10 10 10 10 10 10 10 2 10 10 10 10
left_child=3 4 17 11 20 31 7 12 23 10 13 29 36 -5 45 33 -14 18 54 -12 21 27 -23 28 -7 26 30 53 -9 -1 -13 -4 -22 -8 -11 -27 -6 38 -24 -30 41 -16 43 -10 61 -15 51 48 -48 -49 -31 -25 -53 -2 -3 -41 -57 -20 -46 -60 -61 -18
right_child=1 2 5 9 6 24 15 8 42 34 19 25 16 14 40 -17 44 -19 57 -21 32 22 37 46 -26 35 -28 -29 39 50 -32 -33 -34 -35 -36 -37 -38 -39 -40 55 -42 -43 -44 -45 58 -47 47 49 -50 -51 -52 52 -54 -55 -56 56 -58 -59 59 60 -62 -63
leaf_value=0.064368928125115132 -0.0087548378757932796 -0.014023151579980953 -0.017041913607642574 0.061734777318483175 -0.0065463829968135301 -0.024088623480769299 -0.0096173396669583938 -0.0095507451769542562 -0.012417176880342495 0.059090619170720948 0.052144733999276938 0.053704256309082543 -0.017040429394597597 0.053856594385348282 0.05571658230797543 -0.015183066494987497 -0.014172201286761072 -0.0067828745156661169 -0.017887837079658724 0.047109116684880235 -0.014666130614736782 -0.015310852386506618 -0.015191946786372241 -0.0069049291842441865 -0.022699580578108846 0.062434593897658743 0.050831989938054226 -0.017516469858215616 -0.010089797375855646 0.058080316899040786 0.059423224344157081 -0.019753589637552409 -0.019121367279609617 -0.012675955081315891 0.064147996201884785 0.059926242253846365 -0.01144994941544486 -0.011044108542691663 -0.010371282662123546 -0.0072364924936919863 0.055736125184001652 0.06313529555486444 -0.013714456808871353 -0.010450710979477206 -0.0091063652690517652 0.048426113678201828 -0.007174668353524526 0.00035406692916890484 0.0027442244881516731 -0.0071548375386774861 0.061964309268830675 -0.0096392717339667706 0.0031375246892522859 -0.015731384297695921 -0.019303210661881252 -0.002241448238622388 -0.0099603357672915626 -0.016951883646229914 -0.014122533792168337 -0.0079274373154123098 -0.012085018692123986 -0.0067324274435449152
leaf_weight=1725.9318150877953 223.9582057595253 161.94537109136581 2587.5292420685291 892.40286752581596 836.848364174366 14514.438903361559 1495.5371519625187 3017.3079172968864 2030.2788221240044 940.18242505192757 3116.636806666851 287.13853245973587 1386.599999576807 214.77810624241829 285.55165258049965 3364.019485861063 1430.9757019281387 149.61440569162369 6994.2388496994972 861.1536451280117 757.64026448130608 2773.5717059671879 1084.3265371024609 2532.8693287372589 15401.340464532375 2306.2239301204681 230.63323521614075 1729.8446656763554 783.61038482189178 346.76329809427261 10412.7487180233 2334.6646565496922 911.01834735274315 2077.6232831180096 437.19035369157791 2366.8078465163708 470.87612152099609 3264.3807617127895 546.4109520316124 4948.0546899437904 307.82448714971542 712.21863907575607 967.17819955945015 4082.4689175784588 518.35222348570824 774.00459426641464 135.94193685054779 140.96625798940659 273.81373333930969 724.21018540859222 4328.0853688716888 65.832813411951065 109.0579246878624 153.88197895884514 7193.1976155936718 329.82381984591484 87.430641531944275 13799.000671237707 681.81408125162125 319.49207934737206 1377.0920409560204 71.835754334926605
leaf_count=1837 713 534 8423 925 2586 48693 4641 9345 6420 961 4150 290 4459 233 318 10857 4526 458 22967 986 2435 8960 3453 7791 52093 2489 235 5588 2429 340 10251 7772 2967 6552 445 2595 1480 10302 1734 15165 340 732 3099 12854 1624 902 412 430 830 2209 4066 202 335 497 23857 1010 268 45123 2138 1002 4316 227
internal_value=-9.67201e-05 -0.0166603 -0.0204419 0.058908 -0.0114401 -0.0226542 -0.0104787 -0.00977953 -0.00881995 0.0548891 0.0537728 0.0604948 -0.0125158 0.0571657 0.0553886 -0.0132323 -0.0134659 -0.0177041 -0.0177685 0.0510546 -0.0143182 -0.0138436 -0.0131258 -0.00739818 -0.0233735 0.0597124 0.0590917 -0.0164551 -0.00808846 0.0624023 0.0592698 -0.0183281 -0.0170985 -0.0113958 0.0606959 0.0611642 -0.00831202 -0.0118878 -0.0135767 -0.00737091 0.0597682 0.0610121 -0.0114605 -0.0111039 -0.0123394 0.0496057 -0.00580947 -0.00420072 -0.000546501 -0.00593139 0.0616762 -0.00656694 -0.00167195 -0.0115962 -0.019187 -0.00697382 -0.00385885 -0.0172667 -0.011573 -0.0121106 -0.0113021 -0.0138166
internal_weight=139387 108841 63136 30546.3 45704.9 34838 34259.9 27322.7 20228.8 8541.94 7164.57 22004.3 7093.89 3186.78 2294.38 6937.18 5786.16 28298 28148.4 3977.79 11445 9776.37 7668.69 13148.9 29915.8 15603.6 10930.5 2107.68 9166.23 6400.78 10699.9 4922.19 1668.66 3573.16 1377.37 4673.03 1307.72 4895.12 1630.74 6148.92 1305.59 997.77 7079.93 6112.75 4399.56 988.783 3982.69 1274.93 409.756 865.176 4674.85 2707.76 174.891 377.84 7355.14 5365.31 417.254 20793.2 2896.75 2378.4 1696.58 1502.81
internal_count=385871 353776 209920 32095 143856 116981 107207 85157 62799 9992 8586 22103 22358 3450 2525 22050 18292 92939 92481 5136 36649 31247 24449 40426 100786 15860 10776 6798 28217 6243 10541 16195 5402 11193 1406 5084 4066 15489 5187 18872 1390 1050 22373 19274 13833 1135 12209 3881 1242 2639 4406 8328 537 1210 24391 16443 1278 68090 9080 7456 5318 4753
cat_boundaries=0 1 2
cat_threshold=4 2
is_linear=0
shrinkage=0.05


Tree=10
num_leaves=63
num_cat=7
split_feature=2 1 5 4 2 5 4 5 2 5 1 5 5 3 4 5 5 5 5 4 5 4 5 4 2 5 5 5 4 5 4 4 5 4 5 5 5 5 5 5 5 5 5 4 5 5 4 5 5 5 5 4 5 5 5 5 5 5 5 5 4 5
split_gain=49384.2 817.258 651.728 257.322 151.083 123.106 41.8322 28.0336 24.4086 23.3532 20.6785 15.6639 12.537 12.1961 12.1685 32.6354 8.94907 8.94265 8.74193 9.79209 6.48195 5.28985 4.68834 4.53957 4.29324 4.24743 4.1725 4.14293 4.52267 3.80475 3.62016 3.41151 3.12841 3.11493 2.9925 2.81844 2.62308 2.53084 2.47282 2.17993 2.1242 2.1154 2.04807 2.02478 2.20902 1.97684 1.96851 2.99055 1.9294 1.86298 1.86057 1.75579 2.08693 1.86995 2.02895 4.32278 2.88417 3.19391 1.67959 2.01698 2.30754 1.63834
threshold=0 1 28.050000000000004 3.5000000000000004 2 247.50000000000003 1.5000000000000002 1.7500000000000002 3 7.5500000000000007 4 165.50000000000003 464.50000000000006 5 3.5000000000000004 50.050000000000004 1.7500000000000002 341.50000000000006 1.0000000180025095e-35 2.5000000000000004 703.50000000000011 2.5000000000000004 84.500000000000014 1.5000000000000002 6 694.50000000000011 700.50000000000011 14.050000000000002 3.5000000000000004 21.350000000000005 1.5000000000000002 2.5000000000000004 132.50000000000003 3.5000000000000004 299.50000000000006 649.50000000000011 28.050000000000004 63.500000000000007 3.1500000000000008 700.50000000000011 706.50000000000011 673.50000000000011 41.650000000000013 2.5000000000000004 698.50000000000011 36.150000000000013 1.5000000000000002 17.550000000000004 253.50000000000003 44.550000000000004 431.50000000000006 3.5000000000000004 244.50000000000003 47.350000000000001 184.50000000000003 365.50000000000006 404.50000000000006 440.50000000000006 359.50000000000006 38.750000000000007 3.5000000000000004 640.50000000000011
decision_type=1 1 2 2 1 2 2 2 1 2 1 2 2 1 2 2 2 2 2 2 2 2 2 2 1 2 2 2 2 2 2 2 2 2 2 2 2 2 2 2 2 2 2 2 2 2 2 2 2 2 2 2 2 2 2 2 2 2 2 2 2 2
left_child=2 6 3 7 18 11 12 -1 43 38 26 14 24 16 23 45 -6 48 21 22 50 -3 -20 32 49 61 51 28 -15 -11 34 -13 42 -27 -24 -14 -26 -17 -5 -32 -18 -12 -4 -8 58 -16 -9 -48 -7 -2 -19 52 -10 -53 -55 -56 -57 -58 59 60 -45 -21
right_child=1 4 5 9 13 17 8 46 10 29 41 31 35 27 15 37 40 20 19 25 -22 -23 30 -25 36 33 -28 -29 -30 -31 39 -33 -34 -35 -36 -37 -38 -39 -40 -41 -42 -43 -44 44 -46 -47 47 -49 -50 -51 -52 53 -54 54 55 56 57 -59 -60 -61 -62 -63
leaf_value=0.027435323244337603 -0.0090913316126990575 0.0010700076830673657 0.056930288718510025 -0.012217577811947124 -0.0083463655381746417 0.060336501210346762 -0.010654975040109019 0.049034501718478861 -0.0094916406639870277 0.0085134795167118599 -0.014330138581516081 0.055846314729645311 -0.015823463652196262 -0.022723524240510481 0.028607261558696834 0.04499485495434874 -0.022178281977095218 0.058102827327048703 -0.016353711547636787 -0.016768669511679251 0.050765584163775884 -0.016182977427298684 -0.018408570701841074 0.05060302870199164 -0.0092295219476604008 -0.015755951580759181 0.0023049401203542128 -0.024170058679972559 -0.011659843653194904 0.018886298778819192 -0.018337086281501439 0.052884559567069382 0.057929691017541335 -0.0051057943449326921 -0.020813684421193718 -0.018888583027115005 -0.015371731901551972 0.050845789900778052 -0.0027340307636371055 -0.010529904697739245 -0.013895559332170513 -0.018070604185758288 0.05169221662898385 -0.0089634123576507151 -0.0053798607290478492 0.036248151287522366 0.041808543463483255 0.049526195016395991 0.055990197617863946 -0.01246483452770108 0.059382000659364526 -0.015009113023592612 -0.012012579336146417 -0.0053771624750820583 -0.013809590862935595 0.00044595231878352329 -0.017526667926774039 -0.0074126989520188662 -0.010288315612096817 -0.0089799359887744578 -0.01424577225255548 -0.018938186837055504
leaf_weight=281.26118624210358 447.96223276853561 98.458360493183136 226.88479989767075 130.83102601766586 118.30442634224892 273.58410608768463 8018.0384333431721 276.18412911891937 1271.3833326101303 418.3818764090538 7024.393816947937 1835.1278049349785 3331.1860164403915 284.93537768721581 138.48205417394638 214.10939544439316 18087.626439720392 3848.329274892807 1763.8966980576515 11401.142751723528 240.09572196006775 80.959610104560852 1954.6174620389938 3649.630500972271 185.90049743652344 143.2773163318634 64.49424210190773 13501.078968018293 136.6802653670311 112.08822751045227 5414.206884354353 2067.8431505560875 354.64439576864243 131.82264044880867 3822.6102839410305 967.90230697393417 2675.1161133050919 1351.1717913746834 144.82761496305466 90.913151979446411 77.741250962018967 399.48741230368614 1051.3387578725815 415.98772412538528 293.06809866428375 217.75642812252045 449.44455146789551 174.16340243816376 3829.5231167674065 4735.3575374484062 10877.998215258121 127.289271235466 2317.2917474210262 354.71744388341904 417.43520537018776 98.911118179559708 89.009429126977921 634.45342427492142 7685.1927530169487 7117.0204389691353 411.01743122935295 942.10253793001175
leaf_count=455 1425 311 235 344 385 258 25367 331 4028 940 22930 1767 10944 966 235 269 62401 3392 5866 37929 238 263 6576 3961 604 476 200 46414 458 224 18112 2088 336 433 13017 3219 8789 1528 367 302 268 1312 1049 1304 915 321 573 207 3573 15207 9223 404 7374 1118 1320 310 283 1996 24102 22297 1297 3134
internal_value=-0.000256894 -0.0165698 0.0540674 0.0263487 -0.0205889 0.0559107 -0.0118131 0.0412135 -0.0109694 0.00457051 -0.0127596 0.0517261 -0.0143338 -0.0228955 0.0503441 0.0469368 -0.0220536 0.0583479 -0.0177066 -0.0177904 0.0589149 -0.00671514 -0.0187509 0.0515834 -0.0131689 -0.0167973 -0.010317 -0.0240176 -0.0191369 0.0107053 -0.0191257 0.0542771 0.0537748 -0.0106526 -0.02 -0.0165135 -0.0149205 0.0500455 -0.00723504 -0.0182082 -0.0221428 -0.0145119 0.052622 -0.0100028 -0.00968069 0.0332779 0.0455203 0.043964 0.05628 -0.0121498 0.0590477 -0.0104897 -0.0111195 -0.00917719 -0.00871163 -0.00966564 -0.00756218 -0.00865705 -0.00976133 -0.00925152 -0.0115887 -0.0169343
internal_weight=139297 107133 32163.7 1987.18 58050.4 30176.5 49082.6 1181.05 36739.2 806.129 12798.9 11107 12343.4 32206.4 7204.02 1921.52 18283.7 19069.5 25844 25664.6 14966.4 179.418 13046.2 5282.5 8044.34 12618.3 5374.99 13922.7 421.616 530.47 11282.3 3902.97 1632.87 275.1 5777.23 4299.09 2861.02 1565.28 275.659 5505.12 18165.4 7423.88 1278.22 23940.3 15922.3 356.238 899.792 623.608 4103.11 5183.32 14726.3 5310.49 3588.68 1721.82 1594.53 1239.81 822.374 723.463 15629.2 7944.03 827.005 12343.2
internal_count=385970 354056 31914 3441 197311 28473 156745 1566 116557 1875 41275 11789 40188 110892 7934 2353 63054 16684 86419 85845 12853 574 43873 5581 26025 41972 17033 47838 1424 1164 38007 3855 1620 909 19593 14163 9393 1797 711 18414 62669 24242 1284 75282 49915 556 1111 780 3831 16632 12615 16833 11402 5431 5027 3909 2589 2279 49000 24898 2601 41063
cat_boundaries=0 1 2 3 4 5 6 7
cat_threshold=4 5 2 1 1 1 1
is_linear=0
shrinkage=0.05


Tree=11
num_leaves=63
num_cat=2
split_feature=2 5 3 4 5 6 5 4 5 5 6 5 5 5 5 5 5 6 6 4 5 6 6 5 5 5 6 4 6 6 5 5 5 6 4 5 5 6 5 6 6 4 6 5 6 4 5 4 5 5 5 5 5 4 5 5 6 5 5 4 5 5
split_gain=45434.3 541.993 352.658 256.863 94.0817 41.5768 47.6019 40.6675 18.3174 18.0815 17.6553 22.938 12.2747 11.6236 10.9651 10.298 9.60082 9.30392 9.08589 8.6672 10.5232 6.59878 5.50491 5.19832 4.57477 4.46656 4.44052 4.31711 4.20385 7.17104 7.89494 4.16362 3.96514 3.85903 3.82441 3.27894 3.04604 2.97168 2.96794 2.87887 2.6883 2.572 3.54201 2.21074 2.18481 2.16486 2.04283 2.00566 1.99431 1.95428 1.94609 1.94209 1.71213 1.70388 3.61442 2.82614 1.57677 1.57287 1.54537 1.87102 2.00768 1.64504
threshold=0 30.250000000000004 1 3.5000000000000004 220.50000000000003 -17.499999999999996 5.0500000000000007 1.5000000000000002 24.950000000000003 7.5500000000000007 36.500000000000007 682.50000000000011 461.50000000000006 1.7500000000000002 5.0500000000000007 123.50000000000001 398.50000000000006 -8.4999999999999982 -40.499999999999993 2.5000000000000004 41.650000000000013 -10.499999999999998 -11.499999999999998 14.050000000000002 698.50000000000011 649.50000000000011 10.500000000000002 3.5000000000000004 2.5000000000000004 16.500000000000004 87.500000000000014 392.50000000000006 1.7500000000000002 30.500000000000004 2.5000000000000004 90.500000000000014 703.50000000000011 33.500000000000007 702.50000000000011 -7.4999999999999991 20.500000000000004 1.5000000000000002 1.0000000180025095e-35 108.50000000000001 -18.499999999999996 1.5000000000000002 17.550000000000004 1.5000000000000002 1.7500000000000002 1.7500000000000002 281.50000000000006 84.500000000000014 60.500000000000007 3.5000000000000004 7.5500000000000007 28.050000000000004 13.500000000000002 694.50000000000011 341.50000000000006 3.5000000000000004 682.50000000000011 38.750000000000007
decision_type=1 2 1 2 2 10 2 2 2 2 8 2 2 2 2 2 2 8 10 2 2 10 10 2 2 2 8 2 8 8 2 2 2 8 2 2 2 8 2 10 8 2 10 2 10 2 2 2 2 2 2 2 2 2 2 2 10 2 2 2 2 2
left_child=1 3 7 5 15 6 13 8 32 -5 16 31 26 -1 -7 17 47 22 38 39 40 46 44 27 -18 -14 -10 48 35 30 -30 45 -2 41 51 -22 49 -31 53 -19 -21 42 -17 -41 -3 -12 -11 -6 -4 -36 -47 52 56 55 -55 -9 -20 -25 61 -60 -61 -51
right_child=2 4 23 9 10 14 -8 18 12 21 11 -13 25 -15 -16 33 24 19 34 20 28 -23 -24 57 -26 -27 -28 -29 29 37 -32 -33 -34 -35 36 -37 -38 -39 -40 43 -42 -43 -44 -45 -46 50 -48 -49 -50 58 -52 -53 -54 54 -56 -57 -58 -59 59 60 -62 -63
leaf_value=0.0082043818275424063 -0.005201962241782836 0.047948863816969695 -0.014448394061735188 -0.0065392409938625513 0.052694499033045739 0.055520939207858382 0.045377137273691526 -0.013206783721459524 -0.015651372539085062 0.010048601702338207 0.0578270416276805 0.040551777792679419 -0.018317871801524967 0.027147894379145356 0.042838028455806441 0.05449356489898366 0.053389228847439178 0.051928010089749704 -0.01507385172213249 0.032148333494809805 0.053812860543031117 0.0015716008043825597 0.035021541473482798 -0.024222749074564464 0.060035370381384789 -0.021081528159591616 -0.017410884741772038 -0.010813072744149041 0.03537193636155405 0.052290163946585137 0.04759582394288156 0.057415231921320288 -0.012379135633259986 0.051440378038606051 -0.0072733133721863824 0.045433369185509803 -0.0082429583521323371 0.045975932227633666 -0.0107654776357482 0.048861123629292159 0.041050057260562968 0.047659100837905026 0.047573961856987153 0.043397951154116397 0.041450991730394994 0.051914794357583165 0.017536170415469666 0.050494959942462794 -0.024347001823895941 -0.015273001528239256 0.05522369289824991 -0.015147747543077834 -0.010550270800297251 -0.021434748559662258 -0.014748196768667898 -0.015804656062095097 -0.0095531550698220394 -0.020353724447965835 -0.01488122663226793 -0.01388084625149978 -0.0098306679496114758 -0.013295333029412923
leaf_weight=178.60577470064163 282.76936122775078 212.28905272483826 67.431722491979599 267.90560579299927 1347.3287837505341 262.60045373439789 262.79654538631439 1105.6158594191074 7158.5061865746975 232.23896899819374 450.66131722927094 238.60127061605453 6404.15914234519 148.14199352264404 485.46348631381989 366.22495484352112 9338.5842573642731 710.03041040897369 917.43930119276047 162.34450441598892 284.83461999893188 189.38772830367088 249.78777772188187 12942.771242916584 266.30645155906677 1894.4765968024731 7184.8562040030956 128.42290127277374 319.76106125116348 248.9644980430603 225.06012952327728 3651.9160753488541 602.40336221456528 1512.3972718119621 111.07344263792038 197.82918977737427 241.16278699040413 740.76482892036438 348.41254287958145 1241.0030845999718 177.59745472669601 2608.0047106146812 373.60213136672974 217.65507793426514 331.16950821876526 715.36480867862701 149.88633766770363 4491.2509801387787 207.35563856363297 1172.0061706602573 1172.9735125303268 10840.242304652929 427.20094335079193 206.21494004130363 10137.814159959555 19707.224412471056 150.56188678741455 268.12397003173828 6624.4214449226856 5690.3194134235382 323.3635795712471 10226.347366422415
leaf_count=328 895 228 232 696 1093 277 313 3665 24011 517 392 228 21920 220 536 317 7319 736 3036 205 307 408 270 45579 227 6555 24374 435 363 265 233 3081 2015 1514 358 201 789 839 1148 1213 234 2521 326 210 352 690 305 3910 721 3863 1067 35958 1411 693 33744 65957 497 949 21863 18715 1058 33628
internal_value=-0.000240318 0.0499812 -0.0164625 0.0258591 0.0516456 0.0394646 0.0295348 -0.0153498 -0.0171424 0.00417891 0.0535079 0.0557548 -0.0174183 0.0167931 0.0472902 0.0476805 0.0526015 0.0461603 -0.0147317 0.0470358 0.044937 0.0092032 0.0411654 -0.0239735 0.0535735 -0.0189488 -0.0165327 -0.018381 0.0463084 0.0450283 0.0404215 0.0563603 -0.0100864 0.0493442 -0.0141973 0.0503784 -0.0138344 0.0475643 -0.0153547 0.0493169 0.0367989 0.0483972 0.0509993 0.0480459 0.0439892 0.0547133 0.0129856 0.0510025 -0.0219179 -0.0138903 0.0539702 -0.0149147 -0.0132255 -0.015406 -0.0148815 -0.0156667 -0.0142956 -0.0241442 -0.0139208 -0.0143016 -0.0136631 -0.0134987
internal_weight=139400 34029.3 105371 2177.03 31852.3 1337.61 589.544 91756.6 23527.2 839.419 21673 6229.52 22642 326.748 748.064 10179.3 15443.5 5319.09 68229.4 4525.84 2357.16 571.513 793.246 13614.1 9604.89 8298.64 14343.4 403.21 2017.21 1534.55 544.821 5990.92 885.173 4860.23 36724.1 482.664 24388.7 989.729 31505.3 2168.69 339.942 3347.83 739.827 1458.66 543.459 2339 382.125 5838.58 274.787 24147.5 1888.34 12335.4 1495.2 31156.9 10344 20812.8 1068 13210.9 24036.5 12638.1 6013.68 11398.4
internal_count=386010 31941 354069 3600 28341 1674 861 306153 79770 1926 18007 5458 76860 548 813 10334 12549 5656 226383 4806 2647 1230 850 47916 7546 28475 48385 1388 2208 1700 596 5230 2910 4678 121176 508 80274 1104 105207 2159 439 3164 643 1423 580 2149 822 5003 953 79485 1757 40902 4944 104059 34437 69622 3533 46528 79127 41636 19773 37491
cat_boundaries=0 1 2
cat_threshold=4 1
is_linear=0
shrinkage=0.05


Tree=12
num_leaves=63
num_cat=5
split_feature=2 1 2 4 4 6 1 6 6 6 4 4 6 6 6 6 6 4 4 6 6 6 6 6 6 6 6 4 6 6 6 6 6 6 6 4 6 1 6 6 6 6 6 6 6 6 6 6 4 6 6 6 6 6 6 6 4 6 6 6 6 4
split_gain=41457.5 858.147 159.892 42.2841 40.4812 29.7946 16.9879 12.6879 19.5665 11.9901 7.91295 6.55448 6.26836 5.04567 4.56587 10.0947 4.65389 4.47192 3.40959 3.38856 2.92795 2.89196 2.68919 2.28081 1.96719 1.88349 2.07301 1.84127 1.83492 1.40824 1.30729 1.21218 2.04456 2.07784 1.61706 1.10684 1.10082 1.09575 1.10299 1.06322 0.997063 0.966003 0.964395 0.963491 0.825136 0.842004 0.820276 0.773508 2.36488 0.925583 0.730264 0.912266 1.29803 0.616852 0.603987 1.08966 1.1426 0.601591 0.727632 0.582068 1.68657 0.933598
threshold=0 1 2 3.5000000000000004 1.5000000000000002 -40.499999999999993 3 13.500000000000002 4.5000000000000009 28.500000000000004 2.5000000000000004 1.5000000000000002 18.500000000000004 11.500000000000002 -15.499999999999998 -3.4999999999999996 -11.499999999999998 2.5000000000000004 2.5000000000000004 2.5000000000000004 -7.4999999999999991 11.500000000000002 25.500000000000004 -13.499999999999998 -6.4999999999999991 18.500000000000004 -1.4999999999999998 1.5000000000000002 -4.4999999999999991 -22.499999999999996 -1.0000000180025095e-35 -3.4999999999999996 4.5000000000000009 7.5000000000000009 6.5000000000000009 3.5000000000000004 -9.4999999999999982 4 25.500000000000004 -32.499999999999993 -3.4999999999999996 -16.499999999999996 1.0000000180025095e-35 16.500000000000004 23.500000000000004 11.500000000000002 -1.0000000180025095e-35 -2.4999999999999996 3.5000000000000004 -1.4999999999999998 -19.499999999999996 -2.4999999999999996 -7.4999999999999991 -5.4999999999999991 10.500000000000002 9.5000000000000018 3.5000000000000004 -10.499999999999998 -1.4999999999999998 -7.4999999999999991 -8.4999999999999982 2.5000000000000004
decision_type=1 1 1 2 2 10 1 10 8 8 2 2 8 8 10 10 10 2 2 10 10 10 10 10 10 10 8 2 10 10 10 10 10 10 10 2 10 1 10 10 10 10 10 10 10 10 8 10 2 10 10 10 10 10 10 10 2 10 10 10 10 2
left_child=3 4 10 11 12 6 17 8 14 -4 27 21 24 -10 -5 16 -16 -6 43 30 -18 29 -9 39 -2 26 28 -3 41 -1 -17 36 42 34 -34 -19 -25 38 44 -20 -30 -13 47 50 45 54 -28 48 -33 -49 -7 52 -52 -38 55 -35 -57 -31 -59 60 -43 -61
right_child=1 2 9 7 5 18 -8 22 13 -11 -12 25 -14 -15 15 19 20 35 23 -21 -22 -23 -24 31 -26 -27 46 -29 40 57 -32 32 33 37 -36 -37 53 -39 -40 -41 -42 59 -44 -45 -46 -47 -48 49 -50 -51 51 -53 -54 -55 -56 56 -58 58 -60 61 -62 -63
leaf_value=0.049833866556826319 -0.010814732734027518 -0.018901904618007923 -0.022000801077550817 0.048944319782779112 -0.012258549159999736 -0.013611371133949774 -0.014046297272954948 0.046662243936437753 0.037743948744614231 -0.023987798642934554 -0.016533105975301516 0.045147887621498455 -0.015359482981964184 0.041534568256018936 0.046287334568851174 0.047360922644139693 0.037539725576508955 -0.010045782951524786 -0.0027407844341881429 0.043620467781911337 0.042567559264940637 0.043195186918890335 0.051826228836896165 -0.0087493888558948726 -0.01326750457282154 0.044598409697411794 0.049385883434705971 -0.017699271839482816 0.04234946160566052 0.046004580956410537 0.050994979147946679 -0.010446235169698975 -0.010060596002439385 -0.0063950082489704812 -0.013957385150071465 -0.0082747174939857872 -0.01129521518468442 -0.010335455118375202 -0.010465475969282236 -0.0077606133621368201 0.045379515225934801 0.046868568018764004 -0.0071574588914220007 -0.0081614103978813364 -0.0044482425441467032 -0.0088470343229772892 0.047187696630089711 -0.011277335943331154 -0.0030256306325044508 -0.0084764252302141595 -0.010632569914135328 -0.010783105187605871 -0.0084620913670974355 -0.0095695890044776837 -0.0047761866802993385 -0.013670082179768126 -0.0068074584042151602 0.049211987151813831 0.047957498123364778 0.047412985338036173 0.050713448270618293 0.044498233396672748
leaf_weight=2024.4261782765388 931.17626091837883 6486.8669073879719 17270.853540301323 748.91304114460945 1769.9866584837437 173.82941427826881 7214.1978944242001 1022.4990437924862 1157.8436726629734 13547.770155489445 12282.791809976101 906.00999617576599 4276.7616295218468 3630.7426379024982 436.60692468285561 473.05597692728043 540.33261719346046 1802.6876273155212 110.91754180192947 363.77059441804886 623.91663414239883 245.49995672702789 334.61397865414619 1091.426286816597 6694.4820590317249 935.50590682029724 440.61085283756256 6248.2530564665794 400.42437750101089 274.58624827861786 518.96329748630524 229.43704488873482 795.6031593978405 504.49551147222519 400.1147852241993 1727.6219572424889 1459.2823068201542 1700.9575048983097 553.47511819005013 2153.0698744058609 843.19937539100647 1820.1386821866035 1759.8653492927551 509.96364256739616 152.1022757589817 1877.0846157371998 11532.00550866127 442.74138763546944 201.80121687054634 883.63855141401291 1479.2174699604511 4346.3835865855217 1289.165735244751 802.76931455731392 226.89782774448395 129.93782496452332 113.7510792016983 1803.7242234349251 3218.3049532771111 591.75897091627121 338.21924984455109 512.78353571891785
leaf_count=1823 3081 22745 61802 656 5784 564 24271 879 1168 48830 42179 779 14564 4132 387 424 532 5870 355 350 632 212 288 3502 22347 813 365 21592 331 232 452 739 2557 1617 1286 5579 4691 5480 1771 6897 698 1531 5649 1650 486 6007 10091 1421 646 2840 4799 14112 4187 2579 728 417 364 1432 2535 489 284 425
internal_value=-0.000208774 -0.0162221 -0.0204351 0.0462213 -0.0112979 -0.0104625 -0.0124316 0.0434463 0.042729 -0.0228669 -0.0174316 0.0472952 -0.0138273 0.040618 0.045457 0.0445737 0.041885 -0.0101882 -0.00940892 0.0477484 0.0402341 0.0485332 0.0479355 -0.00898193 -0.012968 0.0467839 0.0469015 -0.0183119 0.0460895 0.0487122 0.049262 -0.00923121 -0.00895466 -0.00948319 -0.0113646 -0.00917908 -0.0100536 -0.00905541 -0.00839079 -0.00751468 0.0444039 0.0465923 -0.00798484 -0.0102625 -0.0080365 -0.00822785 0.0472686 -0.00881327 -0.00697371 -0.00941136 -0.0104095 -0.0103312 -0.00962183 -0.0106828 -0.00703589 -0.00772118 -0.0104667 0.0482835 0.0484081 0.0469933 0.0474711 0.0460598
internal_weight=139380 103641 55836.5 35738.5 47804.8 35902.4 12514.5 9851.26 8494.15 30818.6 25017.9 25887.2 11902.4 4788.59 3705.56 2956.65 1600.86 5300.3 23387.9 1355.79 1164.25 7566.54 1357.11 15589.4 7625.66 18320.7 17385.2 12735.1 5412.53 7321.04 992.019 13325.4 9971.9 6454.42 1195.72 3530.31 3353.48 5258.7 3557.74 2263.99 1243.62 4168.91 3517.48 7798.56 3004.27 2852.17 11972.6 1757.62 431.238 1326.38 7288.6 7114.77 2768.38 2262.05 975.082 748.184 243.689 5296.62 5022.03 3262.9 2158.36 1104.54
internal_count=385928 353988 197148 31940 156840 116848 41504 9900 8733 110632 86516 22040 39992 5300 3433 2777 1551 17233 75344 1226 1164 6234 1167 50032 25428 15806 14993 44337 4537 6022 876 42780 32008 20713 3843 11449 10772 16870 11390 7252 1029 3508 11295 25312 9619 9133 10456 5646 1385 4261 23662 23098 8986 7270 3126 2398 781 4199 3967 2729 1815 914
cat_boundaries=0 1 2 3 4 5
cat_threshold=4 5 2 1 1
is_linear=0
shrinkage=0.05


Tree=13
num_leaves=63
num_cat=2
split_feature=2 0 5 7 2 5 0 6 5 0 0 6 6 6 5 5 5 5 5 7 5 5 5 0 0 6 6 5 7 6 5 6 0 5 6 0 5 5 5 5 5 6 6 5 6 5 7 0 5 0 7 5 5 0 5 5 0 5 5 7 7 7
split_gain=38438.2 867.888 443.165 181.496 148.252 78.7579 49.4206 48.693 41.3873 29.9869 34.8636 56.1936 19.0923 15.1003 14.1562 13.8471 13.5364 11.0431 10.8756 25.3035 13.505 10.8358 9.37829 8.58322 8.2121 6.28688 6.19832 6.12686 6.07956 5.9433 5.91961 5.88553 5.37322 5.30429 4.89379 4.87276 4.75051 4.51643 4.47399 4.20223 3.53629 3.49892 5.18813 3.44798 3.40824 3.22479 7.20583 3.19704 3.13778 6.88539 2.99052 2.98301 2.97059 2.69667 2.89331 2.59062 2.35067 2.28785 3.6849 2.61469 2.27955 2.2567
threshold=0 11.15 24.950000000000003 1.0000000180025095e-35 1 162.50000000000003 20.150000000000002 24.500000000000004 5.0500000000000007 8.0500000000000025 1.2500000000000002 51.500000000000007 41.500000000000007 -19.499999999999996 5.0500000000000007 682.50000000000011 5.0500000000000007 1.7500000000000002 58.050000000000004 1.0000000180025095e-35 34.050000000000004 305.50000000000006 1.7500000000000002 1.7500000000000002 1.0000000180025095e-35 13.500000000000002 -23.499999999999996 187.50000000000003 1.0000000180025095e-35 36.500000000000007 678.50000000000011 -40.499999999999993 47.550000000000004 368.50000000000006 -6.4999999999999991 4.1500000000000012 688.50000000000011 392.50000000000006 168.50000000000003 34.050000000000004 10.65 1.5000000000000002 12.500000000000002 698.50000000000011 8.5000000000000018 431.50000000000006 1.0000000180025095e-35 15.050000000000002 694.50000000000011 25.350000000000005 1.0000000180025095e-35 7.5500000000000007 28.050000000000004 6.3500000000000005 653.50000000000011 404.50000000000006 26.350000000000005 494.50000000000006 524.50000000000011 1.0000000180025095e-35 1.0000000180025095e-35 1.0000000180025095e-35
decision_type=1 8 2 2 1 2 8 8 2 10 10 8 8 10 2 2 2 2 2 2 2 2 2 10 10 8 10 2 2 8 2 10 10 2 10 10 2 2 2 2 2 8 8 2 10 2 2 10 2 10 2 2 2 10 2 2 8 2 2 2 2 2
left_child=2 9 3 7 32 18 40 14 17 10 13 23 21 57 -1 37 -5 -9 19 39 -21 -7 56 -12 30 -22 -24 35 33 61 -15 -11 45 44 53 38 52 -14 -13 -4 -6 -18 -43 -23 51 -3 -47 -42 -48 -50 -29 -25 -30 54 -35 -26 -8 -2 -59 -60 -57 -20
right_child=1 4 5 16 6 12 22 8 -10 31 11 27 15 24 -16 -17 41 -19 29 20 25 43 26 28 55 -27 -28 50 36 -31 -32 -33 -34 34 -36 -37 -38 -39 -40 -41 47 42 -44 -45 -46 46 48 -49 49 -51 -52 -53 -54 -55 -56 60 -58 58 59 -61 -62 -63
leaf_value=0.049519945151626707 -0.010067700092063489 -0.016907957766079954 0.04418438629166753 -0.0094645245808660464 -0.0067245835582149804 0.042903690553524443 -0.0037626600656741425 0.0028893318420130645 0.038805950184559193 -0.016029107696551512 -0.0099714911735739389 -0.0093564798483118505 0.046855237584103628 -0.017771448310016712 0.034985777961713628 0.03637574910923088 0.014115621040171231 0.020827604875476656 0.040861767823810922 0.015564793078031559 0.026648295688296617 0.04543379113467181 -0.024075593823077134 0.0010006339414652175 -0.012156116117477335 0.038611115027077682 -0.022566208923518846 -0.013633708300425835 -0.012961982065317132 0.043592159309535312 -0.0026709920096867992 -0.012678328473702788 -0.0064959687069269818 -0.0060218801200009053 -0.0096837266020657307 -0.012645590026716178 0.004759681530639874 0.049313480460290576 -0.00041384752617529589 0.038651585260392543 -0.016745524131139857 -0.0067553561871807923 0.006295393476459867 0.050724217700140878 -0.0045347296628614015 -0.018783598485422728 -0.016140785457029721 -0.019351893084815691 -0.017487764517822274 0.0044838292386482964 -0.011337714138030619 -0.0076254415058071559 -0.0055084587749713518 -0.012275166357419896 0.0021321857392942322 -0.015195100753488991 -0.015825005325572308 0.0039948682966511094 -0.01041934441635807 -0.001998321486585066 -0.011487746441781571 0.03825128201717154
leaf_weight=295.90092426538467 1331.1596608161926 16171.573255479336 491.93166154623032 201.76063546538353 71.804632306098938 5317.943021774292 56.962191551923752 194.81505167484283 212.14668601751328 2539.7272461950779 3550.3299340903759 1379.842048227787 3537.7242022752762 1572.7243148088455 386.1904753446579 258.14878439903259 98.857651323080063 153.31756311655045 3112.29692029953 154.72572481632233 215.62793236970901 13803.840163946152 13202.042645007372 102.59428355097771 3077.3724900186062 223.83220076560974 14029.700310856104 5819.2728437483311 139.03772184252739 1806.4517172574997 67.6948062479496 2707.6101644933224 114.54568499326706 792.24199545383453 4354.4175660312176 1259.8826103806496 109.8383132815361 3959.928870677948 155.63936069607735 1134.9879481196404 2647.2891885042191 94.05823689699173 400.00439703464508 315.00863862037659 1323.0162363946438 7832.0563936829567 2336.4271160662174 2117.8039156198502 88.537755161523819 59.700281023979187 1875.2477199137211 4336.2452943623066 3467.7641662061214 143.37946617603302 126.10597413778305 1832.0218203961849 138.82318636775017 76.324930757284164 308.81501957774162 131.40061181783676 535.9209940135479 1127.9230001568794
leaf_count=282 4372 56736 471 511 246 4353 193 339 235 8747 11594 4575 2998 5349 399 226 212 212 2765 257 274 9951 48754 328 10196 278 51521 19702 451 1735 223 9005 367 2559 14285 4278 343 3014 515 1070 9125 205 850 242 4265 27794 8141 7633 302 203 6224 14056 10993 467 405 6167 485 251 1024 423 1755 1101
internal_value=-0.000229737 -0.0161458 0.0430506 0.0203831 -0.0200949 0.0443649 -0.0223909 0.0323195 0.0213977 -0.0107578 -0.0102669 -0.00942397 0.0456642 -0.0129973 0.0412909 0.0477616 0.00172227 0.0107893 0.0400914 0.0370994 0.0282686 0.0448273 -0.0232196 -0.00776228 -0.014047 0.0327414 -0.023298 -0.0123458 -0.00723569 0.0411905 -0.0171483 -0.0143001 -0.0172954 -0.00781817 -0.00894158 -0.010341 -0.00548384 0.0481536 -0.00845004 0.0403245 -0.0177379 0.00552895 0.00381083 0.0455518 -0.00676217 -0.0173486 -0.0180393 -0.0179039 -0.0156932 -0.00863909 -0.0130741 -0.00742607 -0.00579578 -0.00589785 -0.00490218 -0.0131128 -0.0123156 -0.00897171 -0.00614729 -0.00790574 -0.014356 0.0401674
internal_weight=139480 101983 37497.4 2037.05 58867.3 35460.4 32264.4 1242.37 560.279 43115.6 37868.3 28934.9 27192.6 8933.43 682.091 7755.8 794.681 348.133 8267.78 2221.11 594.186 19436.8 27427.5 18445 7085.73 439.46 27231.7 10489.9 14894.6 6046.67 1640.42 5247.34 26602.8 11178 5416.15 2795.36 3716.64 7497.65 1535.48 1626.92 4836.9 592.92 494.063 14118.8 5761.86 26488.3 10316.7 4765.09 2484.67 148.238 7694.52 4438.84 3606.8 1061.73 918.348 5445.32 195.785 1847.7 516.541 440.216 2367.94 4240.22
internal_count=386032 354052 31980 3245 211500 28735 117957 1467 786 142552 124800 95040 20784 29760 681 6238 1778 551 7951 2350 809 14546 100953 59746 23690 552 100275 35294 48152 5601 5572 17752 93543 36365 17716 9368 11787 6012 5090 1541 17004 1267 1055 10193 18649 93176 36440 16758 8646 505 25926 14384 11444 3431 2964 18118 678 6070 1698 1447 7922 3866
cat_boundaries=0 1 2
cat_threshold=4 2
is_linear=0
shrinkage=0.05


Tree=14
num_leaves=63
num_cat=4
split_feature=2 1 5 2 7 5 6 6 5 1 5 6 5 7 5 6 5 5 7 7 5 5 7 5 5 6 5 6 6 6 5 7 5 5 6 5 7 5 5 5 5 5 6 5 6 5 6 5 5 5 6 5 6 5 5 6 5 5 5 5 5 5
split_gain=35879.9 820.038 405.695 158.741 149.185 65.7753 35.959 29.3105 28.9362 16.5501 13.6724 12.2249 11.8018 11.3777 22.2643 10.8737 13.4126 6.39671 6.50566 6.24269 10.0961 5.57861 5.47621 5.32949 5.18591 5.14188 5.09136 4.97779 4.7336 6.88496 4.04365 4.00695 3.87656 3.77318 3.19994 2.92306 2.88772 2.85358 2.81841 2.51769 2.37535 2.30746 2.23838 3.38395 2.72832 2.14025 2.42225 2.13753 2.08232 2.25938 1.98932 2.26152 2.2187 1.96741 3.47393 1.96672 2.48492 2.84957 1.95765 1.87474 1.85054 1.82867
threshold=0 1 24.950000000000003 2 1.0000000180025095e-35 220.50000000000003 24.500000000000004 52.500000000000007 5.0500000000000007 3 3.1500000000000008 28.500000000000004 87.500000000000014 1.0000000180025095e-35 36.150000000000013 36.500000000000007 684.50000000000011 1.7500000000000002 1.0000000180025095e-35 1.0000000180025095e-35 332.50000000000006 684.50000000000011 1.0000000180025095e-35 1.7500000000000002 28.050000000000004 -25.499999999999996 437.50000000000006 9.5000000000000018 2.5000000000000004 -6.4999999999999991 21.350000000000005 1.0000000180025095e-35 455.50000000000006 1.7500000000000002 2.5000000000000004 539.50000000000011 1.0000000180025095e-35 7.5500000000000007 58.050000000000004 17.550000000000004 667.50000000000011 682.50000000000011 10.500000000000002 619.50000000000011 -6.4999999999999991 608.50000000000011 20.500000000000004 694.50000000000011 247.50000000000003 700.50000000000011 14.500000000000002 162.50000000000003 26.500000000000004 14.050000000000002 21.350000000000005 -10.499999999999998 177.50000000000003 132.50000000000003 673.50000000000011 629.50000000000011 703.50000000000011 698.50000000000011
decision_type=1 1 2 1 2 2 8 8 2 1 2 8 2 2 2 8 2 2 2 2 2 2 2 2 2 10 2 8 10 8 2 2 2 2 10 2 2 2 2 2 2 2 10 2 10 2 10 2 2 2 10 2 10 2 2 10 2 2 2 2 2 2
left_child=2 7 4 17 6 12 34 19 23 22 -6 33 13 -4 -15 26 35 31 32 20 37 53 48 -8 -21 -14 -7 -12 29 -16 36 -3 -19 -5 -1 -17 -13 -2 -31 -29 -11 -26 43 -22 -45 -44 59 -32 -9 -50 -39 -52 -53 -20 -55 56 57 -27 -56 -47 -46 -28
