tree
version=v4
num_class=1
num_tree_per_iteration=1
label_index=0
max_feature_idx=8
objective=poisson
feature_names=shot_distance shot_zone_basic action_type shot_type period seconds_remaining_in_period score_margin in_bonus home_or_away
feature_infos=[0:84.599999999999994] -1:1:0:3:2 -1:0:1:3:2 -1:0:1 [1:6] [0:720] [-57:62] [0:1] none
tree_sizes=6613 6707 6810 6799 6767 6887 6945 6892 6837 6983 6800 6829 6987 6940 6905 6926 6865 7019 6963 6857 6963 6939 6979 7004 6866 6874 6995 6957 6932 6954 6927 7015 6869 6888 6943 6954 6980 7041 6980 7007 6970 6963 6943 6983 7029 7104 6977 7008 7054 7070 6927 6949 7077 7068 6973 6998 7027 7008 7037 7045 6980 7069 7067 7030 6956 6988 7076 7066 7017 6998 7026 7003 7009 7080 7013 7066 7022 7092 6982 6995 7036 6983 6978 7055 7011 7016 6965 7055 7012 6998 6974 7043 7016 7022 7030 7078 7009 7012 6979 7001 7035 7017 7018 6896 7100 6996 7069 7006 6981 7059 7000 6994 6943 6978 7007 7010 7033 7000 7093 7050 7020 7032 6985 6985 7008 6997 7031 6999 6997 6977 7041 6990 6990 6979 6949 6980 7021 6986 7002 7010 6940 6991 6941 7010 7031 7054 6970 6962 6953 7072 6985 6993 6959 6976 6994 6987 7020 7005 6992 6976 6964 7087 6991 7053 7067 7051 6904 6971 7018 6955 6994 6993 7033 6999 6990 6963 6941 7008 6977 7073 6959 6950 6979 6960 6987 6974 7077 7066 6943 7007 6970 7090 6983 6983 6990 6933 6962 7036 7029 6879 7040 6971 6959 6947 7036 6973 7042 6962 7005 6966 6990 6931 6972 6980 6950 7065 6962 6929 7061 6957 7025 6931 6965 6958 6969 7026 6964 7044 6926 6935 6952 6973 6915 7006 6951 6924 7047 6959 7006 6903 7055 6957 7033 6987 6896 7027 7027 6955 6928 6963 6956 6926 7014 7008 6934 7032 7042 6892 6884 6922 6940 7002 6929 6941 7002 7028 6935 6919 6966 6918 6956 7035 6980 7053 6953 6941 7032 7063 6964 6930 6917 6905 6892 6938

Tree=0
num_leaves=63
num_cat=6
split_feature=2 5 4 5 5 0 5 4 5 5 5 2 5 5 5 4 5 4 0 4 4 5 0 0 2 5 5 5 5 4 5 5 5 2 5 5 4 2 0 0 5 4 5 0 2 4 4 5 0 0 0 5 4 5 5 5 5 4 5 0 5 5
split_gain=189931 10579.7 2407.33 2213.74 1144.07 968.629 650.845 300.343 208.765 171.521 174.664 114.926 94.2569 94.1377 69.2 54.1164 51.3812 48.9559 40.7442 39.8628 38.5041 38.1983 33.8553 29.8337 35.9539 21.2693 17.9669 17.49 16.7683 14.9734 14.8297 13.6376 11.8104 9.80689 9.41136 8.19976 7.82603 7.62872 18.0317 9.96405 7.28132 11.7489 7.1657 5.90724 7.99359 5.69799 5.5552 5.52869 5.31741 5.287 5.24041 5.2258 5.61953 5.1259 5.02421 4.95413 4.83396 4.68143 4.62651 4.43592 4.27961 4.67605
threshold=0 88.500000000000014 3.5000000000000004 315.50000000000006 29.950000000000003 11.550000000000002 3.0500000000000003 1.5000000000000002 216.50000000000003 701.50000000000011 436.50000000000006 1 43.95000000000001 24.450000000000003 173.50000000000003 1.5000000000000002 7.2500000000000009 1.5000000000000002 19.950000000000003 1.5000000000000002 1.5000000000000002 167.50000000000003 6.7500000000000009 1.7500000000000002 2 499.50000000000006 20.650000000000002 385.50000000000006 64.500000000000014 3.5000000000000004 1.7500000000000002 652.50000000000011 234.50000000000003 3 0.75000000000000011 0.75000000000000011 3.5000000000000004 4 1.2500000000000002 0.65000000000000002 124.50000000000001 3.5000000000000004 701.50000000000011 0.95000000000000007 5 3.5000000000000004 2.5000000000000004 109.50000000000001 1.0000000180025095e-35 2.6500000000000008 8.3500000000000032 282.50000000000006 3.5000000000000004 240.50000000000003 469.50000000000006 207.50000000000003 7.2500000000000009 1.5000000000000002 340.50000000000006 2.4500000000000006 355.50000000000006 367.50000000000006
decision_type=1 2 2 2 2 8 2 2 2 2 2 1 2 2 2 2 2 2 8 2 2 2 10 10 1 2 2 2 2 2 2 2 2 1 2 2 2 1 10 10 2 2 2 10 1 2 2 2 10 10 10 2 2 2 2 2 2 2 2 10 2 2
left_child=1 2 6 7 16 20 30 14 21 10 15 35 -6 17 -3 58 -4 -8 -13 -15 31 40 23 43 49 29 -18 60 -14 57 -1 37 -10 50 -20 -7 55 38 -2 -39 41 -9 -36 44 -22 -37 -27 -43 -46 -25 -24 -34 -53 -16 -40 -23 -19 -12 -5 -26 -17 -62
right_child=5 3 4 9 12 11 13 8 32 -11 25 18 28 19 53 27 26 56 34 -21 22 36 33 24 59 46 -28 -29 -30 -31 -32 -33 51 -35 42 45 -38 39 54 -41 -42 47 -44 -45 48 -47 -48 -49 -50 -51 -52 52 -54 -55 -56 -57 -58 -59 -60 -61 61 -63
leaf_value=-1.6415467229063154 -1.7152610151822691 -1.5025690719673761 -1.7042382245489285 -1.4673649058585667 -1.6207925416345119 -1.7107643441807288 -1.5353585354336874 -1.5331507245511447 -1.5124802137673852 -1.5221195285587272 -1.4504799845688765 -1.7172807308521021 -1.5828019192244636 -1.5205386456857903 -1.4784130788135688 -1.4858580667623174 -1.6826170259505693 -1.5871572648912933 -1.7085367419924191 -1.5412143531775018 -1.7077264375467014 -1.5131980386348709 -1.708440190443314 -1.707391984296603 -1.7079277362399186 -1.449361577729416 -1.6607562439668972 -1.4713645967188369 -1.560090507367885 -1.471779735092241 -1.6152408846297106 -1.7181988691657786 -1.4977195170179818 -1.7145839306103348 -1.7217556757422996 -1.7174973995916796 -1.5269902170814349 -1.7048348443845853 -1.7090632608822396 -1.7147978855550812 -1.5307407942142155 -1.5415409438581189 -1.715366044127667 -1.7097892383237854 -1.7150671663324724 -1.7159792296750356 -1.4540587119846522 -1.5584045284808663 -1.7117048389705085 -1.7052317099691345 -1.7121899082779513 -1.5007590286340888 -1.5130132264584779 -1.4684255133385864 -1.7121894004234368 -1.5263734716159423 -1.572292836262269 -1.4598330142135509 -1.4537289955195734 -1.7110764728901304 -1.4715487876648543 -1.4831682009859115
leaf_weight=148.9259147644043 2170.1159906387329 336.92645072937012 261.3576078414917 78.886499404907227 136.76117420196533 515.3426456451416 93.63163948059082 361.99318885803223 262.46349334716797 116.85523509979248 192.4240779876709 6319.7670364379883 160.72202682495117 333.24016571044922 256.56543731689453 465.94642639160156 340.98136425018311 92.157125473022461 136.76117420196533 775.96299648284912 1118.0502462387085 362.36181735992432 1497.737603187561 4563.9894819259644 1365.3999710083008 1158.5993814468384 129.75723266601562 579.48400497436523 164.40831184387207 234.44772720336914 83.678669929504395 1066.0736274719238 624.4566822052002 3825.9952211380005 35978.879041671753 24878.368964195251 238.50264072418213 267.25566387176514 4431.283221244812 4113.8940811157227 629.24885272979736 123.85917663574219 444.19734477996826 6247.1472215652466 1759.8324680328369 8223.3646202087402 1378.3019685745239 79.992384910583496 3543.6257886886597 7464.3585348129272 2465.756049156189 273.15371990203857 142.29060173034668 257.30269432067871 1810.3345727920532 88.839468955993652 134.54940319061279 439.036545753479 294.1655445098877 6186.6921472549438 142.29060173034668 221.17710113525391
leaf_count=404 5887 914 709 214 371 1398 254 982 712 317 522 17144 436 904 696 1264 925 250 371 2105 3033 983 4063 12381 3704 3143 352 1572 446 636 227 2892 1694 10379 97602 67489 647 725 12021 11160 1707 336 1205 16947 4774 22308 3739 217 9613 20249 6689 741 386 698 4911 241 365 1191 798 16783 386 600
internal_value=-1.69797 -1.50937 -1.59342 -1.48346 -1.64759 -1.71563 -1.55452 -1.51135 -1.5184 -1.46221 -1.46086 -1.71925 -1.58597 -1.5419 -1.48496 -1.47355 -1.68646 -1.56577 -1.72098 -1.535 -1.71049 -1.52903 -1.70971 -1.70899 -1.70777 -1.45422 -1.67659 -1.47803 -1.57132 -1.46099 -1.63208 -1.71277 -1.503 -1.71267 -1.72163 -1.71702 -1.51966 -1.71231 -1.71132 -1.71415 -1.53444 -1.53856 -1.72168 -1.71088 -1.71195 -1.71712 -1.45191 -1.54816 -1.71279 -1.70604 -1.71074 -1.50061 -1.50496 -1.47341 -1.70997 -1.51579 -1.57834 -1.45698 -1.45661 -1.71049 -1.48269 -1.47862
internal_weight=142590 12195.7 2856.13 9339.57 1193.99 130394 1662.15 4037.96 3187.16 5301.62 5184.76 76496.7 461.892 1429.54 850.795 1781.95 732.096 320.338 42879.6 1109.2 53897.5 1884.8 40038.6 32249.1 19580.4 3402.81 470.739 1408.9 325.13 865.908 232.605 13859 1302.36 7789.49 36559.8 33617.1 689.704 12792.9 8411.73 4381.15 1195.09 565.845 36423.1 12668.7 6421.51 33101.7 2536.9 203.852 5303.46 12028.3 3963.49 1039.9 415.444 513.868 6241.62 451.201 226.707 631.461 373.052 7552.09 829.414 363.468
internal_count=386812 33084 7748 25336 3239 353728 4509 10954 8646 14382 14065 207517 1253 3878 2308 4834 1986 869 116322 3009 146211 5113 108615 87484 53117 9231 1277 3822 882 2349 631 37596 3533 21131 99178 91195 1871 34704 22819 11885 3242 1535 98807 34367 17420 89797 6882 553 14387 32630 10752 2821 1127 1394 16932 1224 615 1713 1012 20487 2250 986
cat_boundaries=0 1 2 3 4 5 6
cat_threshold=4 2 1 1 1 2
is_linear=0
shrinkage=1


Tree=1
num_leaves=63
num_cat=2
split_feature=2 5 5 4 6 3 5 5 5 4 4 5 5 4 5 4 4 5 5 6 5 6 5 5 5 6 5 6 6 5 4 6 5 5 5 6 5 5 6 6 5 5 5 6 5 4 6 6 5 6 6 6 4 6 5 5 4 4 6 5 6 4
split_gain=150690 6105.54 1973.1 1112.39 356.623 346.039 223.913 221.013 215.681 190.417 111.695 89.9823 69.8378 51.4846 41.5362 41.0164 29.1024 28.3201 26.5959 24.0754 21.9694 19.6934 18.0387 16.9256 15.8289 15.7595 15.6413 15.0883 15.0055 14.5886 11.5285 10.6581 9.91177 9.49815 8.82946 8.0811 6.9455 7.03168 6.3276 5.79563 5.79195 5.53266 5.30986 5.17594 5.16697 5.10397 6.65935 4.9228 4.79766 4.82355 4.66555 4.50842 4.14581 4.08042 4.66177 3.96342 3.66185 3.32461 3.13895 3.07522 3.78977 3.58366
threshold=0 29.950000000000003 234.50000000000003 3.5000000000000004 28.500000000000004 1 3.0500000000000003 88.500000000000014 391.50000000000006 3.5000000000000004 1.5000000000000002 49.050000000000004 697.50000000000011 1.5000000000000002 4.8500000000000005 1.5000000000000002 1.5000000000000002 315.50000000000006 490.50000000000006 15.500000000000002 155.50000000000003 3.5000000000000004 20.650000000000002 136.50000000000003 635.50000000000011 32.500000000000007 10.15 12.500000000000002 -1.4999999999999998 4.8500000000000005 3.5000000000000004 9.5000000000000018 1.7500000000000002 33.750000000000007 216.50000000000003 3.5000000000000004 701.50000000000011 27.650000000000002 -13.499999999999998 -5.4999999999999991 330.50000000000006 695.50000000000011 20.650000000000002 -1.4999999999999998 192.50000000000003 3.5000000000000004 -8.4999999999999982 10.500000000000002 94.500000000000014 -13.499999999999998 5.5000000000000009 -1.4999999999999998 3.5000000000000004 8.5000000000000018 73.500000000000014 13.250000000000002 2.5000000000000004 3.5000000000000004 -11.499999999999998 294.50000000000006 9.5000000000000018 2.5000000000000004
decision_type=1 2 2 2 8 1 2 2 2 2 2 2 2 2 2 2 2 2 2 8 2 8 2 2 2 8 2 8 10 2 2 8 2 2 2 8 2 2 10 8 2 2 2 10 2 2 10 8 2 8 8 10 2 10 2 2 2 2 10 2 10 2
left_child=1 3 7 4 29 15 -6 9 13 16 23 19 18 40 -5 24 21 45 30 -11 48 -3 43 -9 32 -17 -8 -13 -22 -1 51 -25 58 -18 44 56 37 52 -34 -35 47 57 -31 55 -30 59 -47 -4 -12 -50 -32 -10 -7 54 -41 -16 -19 -27 -2 60 61 -15
right_child=5 2 8 14 6 36 26 10 12 11 20 27 -14 17 22 25 33 35 -20 -21 28 -23 -24 31 -26 41 -28 -29 34 42 50 -33 38 39 -36 -37 -38 -39 -40 53 -42 -43 -44 -45 -46 46 -48 -49 49 -51 -52 -53 -54 -55 -56 -57 -58 -59 -60 -61 -62 -63
leaf_value=0.14949431435434191 -0.0063784519452405172 0.15929290494402917 0.17933362688253446 -0.0085865318732161224 0.022600339346170825 -0.022132092486620722 0.087533161542360724 0.15170815497450174 0.17933252350280957 0.054024476930483692 0.14461551527277292 0.10332873354779107 0.15253244120665913 0.1648324067869687 0.015242560876112036 -0.01525721890927402 0.14420560813663263 0.18080905939016911 0.18716413456383951 0.089179377661969997 0.14028534485247876 0.13579762632599321 0.034504098698887771 0.17414397538094281 -0.021528550206399787 -0.017068360628833577 0.11728951242692687 0.12534570231774916 0.1519805980007205 0.12164489755366226 0.17894101456085793 0.15886283662856981 -0.01865107733016742 0.11767466065009252 0.16269614883424546 0.16568387112273969 -0.015022045889153908 -0.024410069782316243 -0.01707322864004035 0.1284827354108028 0.18522871078612696 -0.012585952318689468 0.13664704949020265 0.025073474862323881 0.14035999533621349 0.14732052483071892 0.15973228753547891 0.1677109452135267 0.1453211046347985 0.13318917799775282 0.16875619315431387 0.18536022450172487 -0.014318255531394895 0.1221135862460252 0.14055499230993518 0.0043007795994762276 0.17112707965319593 -0.016070834134404865 -0.018083564302918416 0.15539461557442658 0.17139188218471435 0.15643757885353257
leaf_weight=110.14000433683395 252.02140924334526 150.98670923709869 276.73980912566185 190.85459053516388 171.83360233902931 500.52424973249435 86.327789843082428 239.32602989673615 697.73095765709877 103.35590791702271 123.0489354133606 162.68980276584625 176.19361165165901 250.70958849787712 200.88927412033081 43564.353772073984 86.668503910303116 147.34607353806496 3331.9433472156525 92.098281890153885 806.71238330006599 217.89627134799957 133.14599597454071 284.46036237478256 3014.4989247322083 25029.299504518509 90.417326003313065 149.15934333205223 249.13768589496613 148.49035120010376 187.22062823176384 190.53622704744339 11929.065455108881 143.15394675731659 125.58297729492188 682.63008636236191 209.02966824173927 16340.853281736374 13595.861615091562 333.30723145604134 243.74223548173904 820.85626980662346 97.847166508436203 77.150072604417801 155.27644044160843 208.53931623697281 224.31540513038635 135.81578540802002 89.332746028900146 988.80861255526543 281.52940821647644 558.54362913966179 256.87353014945984 162.98852974176407 105.20952713489532 140.74815249443054 289.60531732439995 12536.492389798164 74.121286541223526 220.00414460897446 96.319892972707748 257.90706494450569
leaf_count=274 694 343 597 521 437 1389 206 534 1494 257 284 388 395 557 540 120046 201 322 7070 229 1831 495 348 625 8342 69079 212 356 567 352 405 419 32960 332 283 1492 577 45396 37524 773 519 2265 227 207 353 466 501 293 206 2279 609 1195 713 378 244 376 633 34570 204 490 214 573
internal_value=-0.000117831 0.151596 0.16237 0.0542193 0.0992034 -0.0175045 0.0632427 0.137437 0.177328 0.122871 0.145085 0.0971885 0.183477 0.166721 0.0115203 -0.016479 0.133726 0.163298 0.184555 0.0705895 0.140169 0.145414 0.0184731 0.162551 -0.0180998 -0.0159081 0.102756 0.11386 0.144579 0.134367 0.179516 0.168014 -0.0177 0.12854 0.151115 0.169082 -0.024081 -0.0241918 -0.0178106 0.126717 0.179118 -0.0166467 0.127604 0.0133763 0.147519 0.15815 0.153753 0.175507 0.135262 0.134194 0.172824 0.182012 -0.019482 0.128868 0.131379 0.0107348 0.174392 -0.0167355 -0.00903863 0.160457 0.162298 0.160576
internal_weight=142798 14674.4 13226.6 1447.84 705.056 128124 348.579 4959.74 8266.84 1707.51 3252.22 507.303 5233.16 3033.67 742.788 110817 1200.21 2377.38 5056.97 195.454 2537.9 368.883 551.933 714.323 28865.6 81951 176.745 311.849 1336.71 356.478 1725.02 474.997 25851.1 831.328 529.997 1119.58 17307.3 17098.3 25524.9 744.659 656.298 38386.6 246.338 418.787 404.414 1257.8 432.855 412.556 1201.19 1078.14 468.75 1256.27 757.398 601.505 438.517 341.637 436.951 37565.8 326.143 824.941 604.937 508.617
internal_count=386661 32902 29202 3700 1708 353759 855 11377 17825 3996 7381 1230 11168 6657 1992 305684 2766 5248 10773 486 5803 838 1471 1578 79724 225960 418 744 3034 853 3703 1044 71382 1928 1203 2447 48075 47498 70484 1727 1409 105914 579 1123 920 2801 967 890 2769 2485 1014 2689 2102 1395 1017 916 955 103649 898 1834 1344 1130
cat_boundaries=0 1 2
cat_threshold=4 1
is_linear=0
shrinkage=0.05


Tree=2
num_leaves=63
num_cat=2
split_feature=2 5 5 0 7 6 5 5 5 2 7 5 5 0 0 5 0 6 5 5 6 6 6 6 5 5 5 5 7 7 0 6 6 5 5 7 5 6 7 7 0 0 7 6 6 6 5 5 5 6 6 6 5 6 5 5 5 6 6 5 0 5
split_gain=125735 4159.33 1132.41 975.733 893.707 235.632 193.502 138.247 111.856 110.606 92.4507 80.9701 49.3953 44.45 42.2521 35.7802 32.4887 58.3118 29.1465 27.0576 25.1406 21.6112 38.327 20.9442 20.8049 19.2613 18.1709 16.0669 14.0033 12.2967 12.0734 10.7801 10.5419 10.5367 9.4768 11.4188 7.97889 7.95363 7.78084 7.67599 7.36237 7.20765 6.98559 6.43445 5.66277 7.01082 5.25748 8.91758 5.0865 5.0681 4.88325 4.72798 4.70694 4.68534 4.61633 6.32834 4.59865 4.48303 4.852 6.68089 4.25825 4.23707
threshold=0 29.950000000000003 249.50000000000003 11.550000000000002 1.0000000180025095e-35 37.500000000000007 3.0500000000000003 121.50000000000001 337.50000000000006 1 1.0000000180025095e-35 43.95000000000001 4.8500000000000005 21.750000000000004 8.1500000000000004 703.50000000000011 1.2500000000000002 32.500000000000007 4.8500000000000005 433.50000000000006 12.500000000000002 4.5000000000000009 -7.4999999999999991 -28.499999999999996 192.50000000000003 10.15 64.500000000000014 20.650000000000002 1.0000000180025095e-35 1.0000000180025095e-35 2.0500000000000003 21.500000000000004 7.5000000000000009 0.75000000000000011 219.50000000000003 1.0000000180025095e-35 1.7500000000000002 -6.4999999999999991 1.0000000180025095e-35 1.0000000180025095e-35 6.3500000000000005 1.0000000180025095e-35 1.0000000180025095e-35 9.5000000000000018 -11.499999999999998 8.5000000000000018 273.50000000000006 318.50000000000006 300.50000000000006 -9.4999999999999982 -2.4999999999999996 14.500000000000002 701.50000000000011 -8.4999999999999982 677.50000000000011 526.50000000000011 207.50000000000003 11.500000000000002 18.500000000000004 79.500000000000014 2.6500000000000008 213.50000000000003
decision_type=1 2 2 8 2 8 2 2 2 1 2 2 2 8 10 2 10 8 2 2 10 10 10 10 2 2 2 2 2 2 10 8 8 2 2 2 2 10 2 2 10 10 2 8 8 8 2 2 2 10 10 8 2 10 2 2 2 8 8 2 10 2
left_child=1 4 7 14 5 18 -7 10 28 36 44 -12 -6 -11 16 19 23 30 -1 38 21 22 26 -2 29 -8 -13 50 -4 51 -18 -16 37 -15 35 56 -5 -26 49 -19 48 -25 -38 -21 -3 -46 -30 53 60 -10 -14 -9 -35 -48 55 -45 -34 -47 -59 -60 -32 -39
right_child=3 2 8 9 12 6 25 24 15 13 11 20 27 33 31 -17 17 39 -20 43 -22 -23 -24 41 32 -27 -28 -29 46 -31 40 -33 34 52 -36 -37 42 61 -40 -41 -42 -43 -44 54 45 57 47 -49 -50 -51 -52 -53 -54 -55 -56 -57 -58 58 59 -61 -62 -63
leaf_value=0.13261312084872667 -0.0092938865782750384 0.10563334453695572 0.13713851856260539 -0.013543684099971143 -0.01204767413766502 0.020370879045418087 0.076237882459717313 0.12573253498126888 0.14166798382989351 -0.019121768001964141 0.061965599382824123 0.076456183411627937 0.010120812875377597 -0.0096594400897450933 -0.013840358765451505 0.12241239850170423 -0.011168538426113463 -0.014269655777268823 0.10365784854202881 0.15167151145706947 0.12557518331883866 0.077044931664523558 0.12473693682769976 -0.017469984777176352 0.12594902681118011 0.10765200255149635 0.10179140586771813 0.03189738914559493 0.13565562075797871 0.11390933179203262 -0.0090893100587317206 -0.017824831984902225 0.13140882546152366 -0.02371444937463911 0.13019377029600054 0.10580080298825319 -0.019451813978360329 0.14391800467565588 0.13835868897276335 -0.011427036561982039 -0.011139682319483672 -0.014201019112465386 -0.017739963360881319 0.14544233708431084 0.11902904750499838 0.10340698739152523 0.11366538061755625 0.13718266238127225 -0.0089276112672148304 0.14755143874519924 0.023622080221158932 0.11963593447998622 -0.018461338507404359 0.12634519497742103 0.13985107916555026 0.15097379014855766 0.11753309152284507 0.12210882647025539 0.11641486392211707 0.10658969585466412 -0.0060284848036255409 0.13377073001054729
leaf_weight=126.71301913261414 1953.6053153276443 147.16860109567642 1481.1587408781052 677.85608950257301 187.77005958557129 180.3091627061367 95.97579750418663 813.9514781832695 596.40625160932541 6622.8677830696106 150.35451698303223 105.64202535152435 354.79176709055901 135.13668963313103 3330.631443798542 136.17069756984711 6189.2751086652279 9593.1579294800758 276.68144062161446 3042.196293592453 101.06084054708481 97.178679466247559 140.74035087227821 2228.478859513998 230.13923043012619 99.259314864873886 214.41996550559998 144.55285683274269 153.90857714414597 464.90307208895683 1610.5509861707687 3462.0927935838699 131.21000045537949 33951.815762788057 398.97296369075775 112.53151899576187 23942.564870834351 159.70628732442856 551.20490163564682 3156.1914357244968 2337.543886423111 6929.6473465263844 7934.4909425675869 858.92185407876968 891.15461158752441 110.34321242570877 140.07761657238007 106.16502207517624 7631.2815790772438 947.61186319589615 82.557047724723816 521.92500370740891 431.85175704956055 151.81135612726212 155.45267736911774 1299.1810883283615 109.57952845096588 155.50766906142235 419.48645731806755 294.47805231809616 3858.8823102414608 289.09206259250641
leaf_count=272 5449 297 2756 1892 517 448 210 1586 1083 18617 352 229 941 377 9306 266 17255 26868 573 5373 211 206 297 6248 444 207 443 365 293 928 4482 9715 253 96221 760 223 67412 308 1011 8813 6511 19372 22269 1532 1778 222 271 197 21232 1710 216 1024 1211 290 278 2286 213 314 848 587 10723 545
internal_value=-8.69959e-05 0.126562 0.134356 -0.0174159 0.0484622 0.0862193 0.0577176 0.117426 0.14502 -0.0211235 0.109351 0.0950749 0.0102506 -0.0228683 -0.0121928 0.147811 -0.0116435 -0.0108838 0.112753 0.148276 0.102628 0.0984724 0.102991 -0.0139939 0.12449 0.0922091 0.0934291 0.0174459 0.134605 0.120913 -0.00930276 -0.0158712 0.128989 -0.0235937 0.124913 0.118949 -0.0189058 0.133506 0.143458 -0.0135659 -0.00855476 -0.0149965 -0.0190257 0.15016 0.115077 0.11582 0.127808 0.124774 -0.00809354 0.145279 0.0126694 0.123351 -0.0236485 0.12026 0.148173 0.148772 0.125094 0.112901 0.114106 0.112362 -0.00692979 0.137382
internal_weight=143206 17228.4 15679.8 125978 1548.61 778.939 375.544 6059.55 9620.27 73696.6 2827.53 809.396 769.672 41141.7 52281.3 7587.15 45488.6 34376.9 403.394 7450.97 659.042 557.981 460.802 11111.7 3232.01 195.235 320.062 581.902 2033.12 1800.78 21627.5 6792.72 1431.23 34518.8 752.294 353.321 32554.9 678.938 2095.22 12749.3 15438.3 9158.13 31877.1 5355.75 2018.14 1870.97 551.963 398.054 13100.7 1544.02 437.349 1335.88 34383.7 291.889 2313.56 2158.1 240.79 979.815 869.472 713.965 5469.43 448.798
internal_count=387136 33163 29414 353973 3749 1710 865 12068 17346 207999 5784 1738 2039 116426 145974 13539 126953 95884 845 13273 1386 1175 969 31069 6284 417 672 1522 3807 3538 60203 19021 2746 97809 1449 689 91573 1297 3804 35681 42948 25620 89681 9469 4046 3749 1051 758 36437 2793 1157 2610 97432 561 4096 3818 466 1971 1749 1435 15205 853
cat_boundaries=0 1 2
cat_threshold=4 2
is_linear=0
shrinkage=0.05


Tree=3
num_leaves=63
num_cat=4
split_feature=2 5 1 7 5 6 5 2 5 7 5 5 6 5 5 1 7 6 5 5 5 6 6 5 5 7 7 6 6 6 6 6 6 5 7 7 5 5 6 5 5 6 6 6 5 6 6 6 6 5 5 6 5 5 6 6 5 5 7 6 6 5
split_gain=106927 2863.72 949.03 711.096 707.501 165.24 130.038 126.994 103.472 127.83 64.593 58.5384 43.5226 32.6417 30.2992 30.2289 20.9588 16.3796 15.5692 14.1154 12.8218 9.8516 9.80201 9.47779 9.04907 8.81725 7.60259 7.54716 10.6528 7.02663 9.2367 6.81845 6.6502 6.39504 5.909 5.82119 9.14794 5.80419 5.55643 5.46699 5.00566 4.82884 4.74487 5.32202 4.73476 4.64943 3.84967 3.79035 3.75581 3.57245 3.57241 3.41 10.1611 3.35854 3.56316 3.2857 3.82165 3.147 3.11648 3.11445 2.98823 2.86948
threshold=0 27.650000000000002 1 1.0000000180025095e-35 237.50000000000003 24.500000000000004 3.0500000000000003 2 73.500000000000014 1.0000000180025095e-35 370.50000000000006 51.550000000000004 -40.499999999999993 4.8500000000000005 701.50000000000011 3 1.0000000180025095e-35 14.500000000000002 20.650000000000002 121.50000000000001 139.50000000000003 34.500000000000007 8.5000000000000018 0.75000000000000011 439.50000000000006 1.0000000180025095e-35 1.0000000180025095e-35 7.5000000000000009 -1.4999999999999998 -8.4999999999999982 8.5000000000000018 -1.0000000180025095e-35 -6.4999999999999991 309.50000000000006 1.0000000180025095e-35 1.0000000180025095e-35 637.50000000000011 701.50000000000011 5.5000000000000009 27.650000000000002 207.50000000000003 -11.499999999999998 -3.4999999999999996 5.5000000000000009 158.50000000000003 17.500000000000004 7.5000000000000009 28.500000000000004 -8.4999999999999982 300.50000000000006 158.50000000000003 -3.4999999999999996 112.50000000000001 33.750000000000007 -10.499999999999998 -2.4999999999999996 13.250000000000002 24.450000000000003 1.0000000180025095e-35 12.500000000000002 1.0000000180025095e-35 180.50000000000003
decision_type=1 2 1 2 2 8 2 1 2 2 2 2 10 2 2 1 2 8 2 2 2 8 10 2 2 2 2 10 8 8 8 8 10 2 2 2 2 2 10 2 2 8 10 10 2 8 10 8 10 2 2 10 2 2 10 10 2 2 2 8 10 2
left_child=1 3 12 5 8 -1 -7 23 9 22 26 17 15 -5 24 25 20 -11 55 59 41 57 53 -4 38 -2 33 28 -21 -22 61 48 -13 -6 49 36 42 39 60 -23 50 -10 -14 -44 -37 46 51 -26 -28 -25 -30 -43 -53 -3 -55 56 -15 -9 -17 -18 -12 -31
right_child=2 4 7 13 10 6 -8 21 16 11 14 32 35 18 -16 58 19 -19 -20 27 29 37 -24 34 47 -27 31 -29 40 30 -32 -33 -34 -35 -36 44 -38 -39 -40 -41 -42 45 43 -45 -46 -47 -48 -49 -50 -51 -52 52 -54 54 -56 -57 -58 -59 -60 -61 -62 -63
leaf_value=0.098537075142602695 -0.012906862625969249 0.10749478619653169 -0.011771428249042384 -0.0096952848834049518 0.11515506550058259 0.022868335698203856 0.080318909100021332 -0.019135067002099437 0.093355648179673067 0.041256790469770495 0.12187334577952572 0.080100143919433445 -0.010440234673509316 0.012265351836588716 0.10431053112216537 -0.016510437941406515 0.087863325013524535 0.065780853252707064 0.031086744894051763 0.096992710847955493 0.10164464094618307 -0.019951244980194877 0.089648438395052335 -0.018556943412848595 0.12637365344391679 -0.009113411349894518 0.11339621639668609 0.094375454820808724 0.11292273430027706 0.11093236878378498 0.10722703571053611 0.10950129686561923 0.097057132457900652 0.12014829263664553 -0.017665512188504737 -0.012401715665514439 -0.014524575349027798 -0.01570921310794068 0.11637641662354331 -0.02441451156883151 0.11888443536785878 0.10965850813267249 -0.012718685459876556 -0.010940280441667238 -0.009644385594660243 0.10039546101824398 0.11209297821573133 0.12364086752822985 0.12537601758637013 -0.019848470139697798 0.10214930318675618 0.10825259945814658 0.092075482077229112 0.096629781492512834 0.10308364114328564 0.018944314882356261 0.001775488951146628 -0.022601406027212508 -0.014567297599710718 0.096727907734679833 0.12795387835064351 0.11692007240346967
leaf_weight=402.8651584982872 6273.9032166004181 179.48362123966217 474.81063714623451 191.6217634677887 1414.0868399739265 187.64046505093575 207.32647067308426 676.1268048286438 113.38164508342743 133.9162982404232 1058.9450253844261 126.27537226676941 7696.835259526968 212.96890074014664 187.781001329422 8709.1607800722122 231.60351574420929 138.50550127029419 109.98638585209846 237.64185267686844 256.5746642947197 717.50410151481628 219.69343465566635 9262.9179975390434 4210.23622828722 2026.6159683167934 139.98866057395935 197.55929100513458 136.47714960575104 345.09013301134109 987.07898569107056 674.4556035399437 106.65669202804565 1173.2850431799889 7349.4988493621349 2031.7762045562267 2722.0614889860153 202.84972503781319 412.16471743583679 15671.953762590885 119.33448147773743 202.99242967367172 9553.6299684643745 7516.7479278743267 6661.2314137220383 519.86538124084473 220.1979678273201 1816.1902124881744 122.83189791440964 12688.738101035357 176.40772211551666 240.07778894901276 162.95317709445953 412.89637356996536 443.66124218702316 84.525871962308884 146.59034985303879 20737.397621542215 2704.1598383784294 173.16954326629639 249.70031982660294 476.19270378351212
leaf_count=755 17781 321 1341 534 2305 456 405 1945 202 296 1661 246 21720 558 323 24845 431 297 269 419 440 2077 398 26587 6391 5714 234 347 245 589 1694 1118 205 1866 20996 5725 7711 579 646 45680 206 357 26985 21209 18780 927 391 2768 202 36429 312 422 285 746 791 216 386 59826 7680 319 387 791
internal_value=-9.1554e-05 0.108504 -0.0172744 0.0431968 0.114159 0.0760065 0.0530254 -0.0212551 0.101061 0.0906959 0.121654 0.0694611 -0.0124442 0.00809312 0.124156 -0.0143366 0.104867 0.0537254 0.0142451 0.0993657 0.106853 -0.0231945 0.0992415 -0.0187728 0.124637 -0.0119663 0.116022 0.102963 0.105496 0.109388 0.110487 0.112163 0.0878645 0.117419 -0.0188926 -0.0114166 -0.0117733 -0.0241151 0.121439 -0.0242191 0.110172 0.103265 -0.0114709 -0.0119356 -0.0102888 0.1041 0.106431 0.12555 0.118995 -0.0193035 0.106849 0.104374 0.101712 0.101276 0.0999726 0.010074 0.00798869 -0.022492 -0.016036 0.0916558 0.123034 0.114404
internal_weight=143239 19560.9 123678 1543.53 18017.4 797.832 394.967 67781.8 6557.69 1761.09 11459.7 505.354 55896.1 745.693 7935.02 19713.8 4796.6 272.422 554.072 1272.19 3524.4 38005.8 1255.73 29776 7747.24 8300.52 3524.65 867.42 669.861 2064.94 1808.36 937.276 232.932 2587.37 29301.2 36182.3 27489.3 16592.3 1720.81 16389.5 432.219 1459.47 24767.2 17070.4 8693.01 1346.09 826.221 6026.43 262.821 21951.7 312.885 606.023 403.031 1036.04 856.558 444.085 359.559 21413.5 11413.3 404.773 1308.65 821.283
internal_count=386767 33157 353610 3579 29578 1616 861 195460 11677 3300 17901 1044 158150 1963 12176 56020 8377 593 1429 2279 6098 110107 2256 85353 11853 23495 5725 1529 1182 3514 3074 1554 451 4171 84012 102130 77625 48336 2694 47757 763 2584 69914 48194 24505 2382 1455 9159 436 63016 557 1064 707 1858 1537 1160 944 61771 32525 750 2048 1380
cat_boundaries=0 1 2 3 4
cat_threshold=4 5 2 1
is_linear=0
shrinkage=0.05


Tree=4
num_leaves=63
num_cat=7
split_feature=2 5 1 4 5 2 4 5 5 5 4 5 4 5 2 1 4 5 5 5 4 5 5 5 5 4 3 5 2 5 5 5 4 5 5 4 5 4 5 5 5 5 4 5 5 5 5 4 4 5 5 5 4 5 5 5 5 5 5 4 5 4
split_gain=92755.5 2141.47 949.574 533.629 428.442 120.983 91.8151 84.1487 58.4659 42.5259 40.3068 36.1506 35.7215 33.781 28.0134 24.5572 22.0823 21.4452 19.182 19.1249 16.4678 13.2069 11.8509 10.2475 10.207 11.2487 9.88808 7.52737 7.14127 6.98189 6.34292 5.95972 5.65646 8.34508 4.92633 4.2373 3.74969 3.26759 3.71306 4.1796 3.05614 3.94328 2.98145 2.92772 2.80083 2.74177 2.66945 3.82515 2.50042 2.47103 2.46543 2.40442 2.37452 2.51924 2.08183 2.04463 1.93247 1.92853 1.92757 1.90268 1.87282 1.74863
threshold=0 29.950000000000003 1 3.5000000000000004 210.50000000000003 2 1.5000000000000002 3.0500000000000003 340.50000000000006 88.500000000000014 1.5000000000000002 4.8500000000000005 3.5000000000000004 51.550000000000004 3 4 1.5000000000000002 703.50000000000011 20.650000000000002 121.50000000000001 1.5000000000000002 635.50000000000011 1.7500000000000002 0.75000000000000011 499.50000000000006 1.5000000000000002 5 703.50000000000011 6 145.50000000000003 0.75000000000000011 460.50000000000006 1.5000000000000002 288.50000000000006 20.650000000000002 2.5000000000000004 315.50000000000006 3.5000000000000004 183.50000000000003 164.50000000000003 56.850000000000001 85.500000000000014 3.5000000000000004 38.350000000000001 16.850000000000005 64.500000000000014 27.650000000000002 3.5000000000000004 2.5000000000000004 41.150000000000013 54.150000000000013 94.500000000000014 2.5000000000000004 394.50000000000006 692.50000000000011 324.50000000000006 703.50000000000011 76.500000000000014 35.850000000000001 1.5000000000000002 27.650000000000002 3.5000000000000004
decision_type=1 2 1 2 2 1 2 2 2 2 2 2 2 2 1 1 2 2 2 2 2 2 2 2 2 2 1 2 1 2 2 2 2 2 2 2 2 2 2 2 2 2 2 2 2 2 2 2 2 2 2 2 2 2 2 2 2 2 2 2 2 2
left_child=1 3 10 7 6 30 19 22 16 12 21 -5 43 49 48 35 -6 24 -13 40 -9 28 -1 -7 25 -10 56 46 31 51 59 44 33 -32 -22 -16 -18 -31 39 -39 -3 -42 -17 -8 -2 -15 47 -28 -12 -14 58 -11 -27 -54 61 -38 60 -47 -37 -4 -25 -34
right_child=2 4 5 11 8 23 9 20 17 29 14 18 13 45 15 42 36 -19 -20 -21 34 -23 -24 26 -26 52 27 -29 -30 37 32 -33 54 -35 -36 50 55 38 -40 -41 41 -43 -44 -45 -46 57 -48 -49 -50 -51 -52 -53 53 -55 -56 -57 -58 -59 -60 -61 -62 -63
leaf_value=0.0370168684055154 -0.0062502200823770174 0.090295927826613664 -0.0077344850594583126 -0.0092264368775705295 0.1060770258820955 -0.0094178711396436104 0.089714907989950021 0.089307859239563747 0.1096266589128127 0.09217992645347152 -0.011181509678411566 0.01081468706342726 0.052034320771605427 0.074061240366926073 -0.012676745820020194 -0.015794456249390149 0.096348687454143517 0.08868894550232799 0.031739067124048476 0.10646907031718944 0.068068297551794874 -0.019115674352118514 0.057445022437536963 -0.019854322941921892 0.10818994587154339 0.10548535078119031 -0.023882096113754334 -0.013047760666533426 -0.015825067918161472 0.092890267612535396 -0.017965307027439235 -0.015221310593611918 -0.018818969401468984 -0.021373992719966532 0.079543546424670181 -0.0083822463822880566 0.10492701581831693 0.086559421084455149 0.083302086877260165 0.098264696596044004 0.10170278899525116 0.09268119030031953 -0.013766705295710939 0.083422024345563145 -0.012446832476909749 0.086703054930328594 -0.024334236886548465 -0.015848579941458066 -0.010158896153606295 0.061729873674979667 -0.010263386712566224 0.085761259688897404 0.10051244439917917 0.10392139271013441 -0.015241002686577089 0.098611719477629922 -0.017659279096524028 0.07793303054400999 -0.00017154046407311327 -0.014909440023113016 -0.022574633227416548 -0.017849364637041246
leaf_weight=189.17916521430016 188.38427749276161 264.49467146396637 128.69424939155579 185.86372372508049 901.40817457437515 136.26281732320786 230.04225891828537 184.86535513401031 995.12164026498795 164.51698988676071 9078.4158256351948 432.05085691809654 147.66420036554337 156.73901164531708 2073.6440561413765 5561.8223761618137 2504.9936452507973 168.25494587421417 146.72520157694817 623.77028685808182 308.94243919849396 1443.9254721999168 113.64425331354141 653.27388119697571 5244.7311148643494 1126.888175547123 422.31120359897614 152.78185969591141 4465.500830322504 1058.4479665756226 2993.8998258113861 2362.625740557909 13609.979393720627 4485.896680533886 134.13454777002335 221.92471346259117 200.37565505504608 174.16490566730499 230.27548766136169 135.66871744394302 231.16672021150589 254.44544714689255 2689.2510510385036 940.40450143814087 5697.5880589485168 130.4554585814476 15150.65096282959 228.26761436462402 17501.263997584581 118.41615006327629 3724.4577617645264 1289.4413923621178 846.884889960289 1505.2350273132324 505.82677638530731 355.63552725315094 209.20541664958 120.66682410240173 105.44362881779671 327.62671682238579 20091.971584886312 7063.1382279396057
leaf_count=415 539 418 365 523 1273 392 375 310 1341 266 25890 1117 308 282 5941 16109 3754 262 346 925 548 4195 235 1922 7009 1554 1253 443 12930 1649 8762 6781 39808 13156 225 634 288 280 368 217 365 393 7750 1549 16305 226 45252 672 49882 233 10635 2094 1203 2074 1472 510 612 209 301 939 59296 20539
internal_value=-6.05449e-05 0.09483 -0.0171366 0.0409072 0.0994208 -0.0211781 0.0885777 0.0663322 0.10433 0.085373 -0.0122822 0.00995836 0.0793787 0.0702086 -0.0114894 -0.0132943 0.0991987 0.106387 0.0161192 0.0999999 0.0767724 -0.0145842 0.0446832 -0.0230981 0.106693 0.104939 -0.0231549 -0.0240928 -0.0140696 0.0889949 -0.018728 -0.0130841 -0.0188276 -0.0200096 0.0715422 -0.0108208 0.0971732 0.0912754 0.0881109 0.0916849 0.0946204 0.0969758 -0.0151152 0.0846588 -0.0122485 0.0792502 -0.0241996 -0.0210634 -0.0105042 0.0563492 -0.00989773 0.0864875 0.103598 0.102694 -0.0184102 0.100888 -0.0224408 0.082489 -0.00573762 -0.0128859 -0.022489 -0.0184877
internal_weight=143090 21815.7 121274 1695.41 20120.3 66159.8 6270.78 930.766 13849.5 4896.9 55114.2 764.64 1844.39 673.942 40956.2 14376.5 3962.41 9887.12 578.776 1373.88 627.942 14158 302.823 37044.7 9718.86 4474.13 36908.5 15954 12714.1 3052.52 29115.1 8248.6 28658.7 7479.8 443.077 6125.47 3061 1598.56 540.109 309.834 750.107 485.612 8251.07 1170.45 5885.97 407.861 15801.2 650.579 26579.7 266.08 4051.83 1453.96 3479.01 2352.12 21178.9 556.011 20954.5 251.122 327.368 456.321 20745.2 20673.1
internal_count=385919 33144 352775 3719 29425 194883 10157 1733 19268 8056 157892 1986 3182 1258 117142 41370 5825 13443 1463 2101 1083 40750 650 109842 13181 6172 109450 47620 36555 4874 85041 23625 83737 21918 773 17511 4552 2514 865 497 1176 758 23859 1924 16844 717 47177 1925 75772 541 11570 2360 4831 3277 61819 798 61830 435 935 1304 61218 60347
cat_boundaries=0 1 2 3 4 5 6 7
cat_threshold=4 5 2 1 1 1 1
is_linear=0
shrinkage=0.05


Tree=5
num_leaves=63
num_cat=2
split_feature=2 5 0 4 5 2 6 5 5 4 0 0 5 4 5 0 6 4 6 6 4 5 5 5 0 5 5 5 5 6 6 5 0 6 4 0 6 6 5 6 4 6 5 0 0 5 5 5 5 5 0 6 5 4 6 6 5 5 0 5 6 5
split_gain=80950.9 1555.35 992.427 518.905 316.589 124.208 102.997 115.767 57.3541 45.2629 42.9488 41.4296 41.4121 36.4364 32.1451 31.3386 42.323 30.9664 31.3842 38.9269 24.489 20.6707 12.5106 12.0746 11.8257 11.7172 10.3965 9.92458 9.43227 8.45478 7.71797 7.54421 7.53783 7.19858 6.79509 6.38927 12.4547 9.29739 6.4045 5.97724 5.87173 5.85567 5.67201 5.48192 5.46805 5.42891 5.27007 5.0487 4.89664 4.22972 4.20974 3.93767 4.60337 3.93452 3.85945 3.79511 3.31015 3.21877 3.19894 3.12846 3.12576 3.02232
threshold=0 29.950000000000003 11.550000000000002 3.5000000000000004 192.50000000000003 1 25.500000000000004 3.0500000000000003 337.50000000000006 1.5000000000000002 21.750000000000004 8.3500000000000032 76.500000000000014 1.5000000000000002 7.2500000000000009 1.1500000000000001 -40.499999999999993 3.5000000000000004 -4.4999999999999991 7.5000000000000009 1.5000000000000002 699.50000000000011 652.50000000000011 20.650000000000002 1.9500000000000002 0.75000000000000011 0.75000000000000011 499.50000000000006 43.95000000000001 30.500000000000004 21.500000000000004 10.15 5.2500000000000009 -8.4999999999999982 1.5000000000000002 1.1500000000000001 -26.499999999999996 -10.499999999999998 448.50000000000006 -17.499999999999996 1.5000000000000002 -4.4999999999999991 701.50000000000011 6.3500000000000005 1.0000000180025095e-35 118.50000000000001 67.500000000000014 285.50000000000006 358.50000000000006 192.50000000000003 15.950000000000001 1.5000000000000002 41.150000000000013 3.5000000000000004 -23.499999999999996 -24.499999999999996 145.50000000000003 177.50000000000003 1.7500000000000002 3.0500000000000003 1.0000000180025095e-35 56.850000000000001
decision_type=1 2 8 2 2 1 8 2 2 2 8 10 2 2 2 10 10 2 8 8 2 2 2 2 10 2 2 2 2 8 8 2 10 8 2 10 10 10 2 10 2 8 2 10 10 2 2 2 2 2 10 10 2 2 10 10 2 2 10 2 10 2
left_child=1 3 11 6 9 26 31 -8 20 41 50 13 17 22 59 29 32 46 -19 -20 -6 27 35 55 57 -12 53 34 -21 44 -13 -1 49 39 -10 37 -37 48 -38 -14 47 -3 54 -26 -15 -43 51 -28 -2 -17 -7 52 -11 -4 -27 -16 -35 -18 -51 -5 -33 -54
right_child=2 4 5 14 8 10 7 -9 21 12 25 30 33 15 23 16 24 18 19 28 -22 -23 -24 -25 43 42 40 -29 -30 -31 -32 60 -34 56 -36 36 38 -39 -40 -41 -42 45 -44 -45 -46 -47 -48 -49 -50 58 -52 -53 61 -55 -56 -57 -58 -59 -60 -61 -62 -63
leaf_value=0.083579333437530101 -0.01330768283516918 0.092883795628341467 -0.0093262046749579379 -0.01162009314034723 0.093203475888506998 -0.017909820994387652 0.016960221406767905 0.067488428881892562 0.095367484921097617 0.06725458371642333 -0.0081796643440694063 -0.013729219189249759 0.081693248018411047 -0.016450180097237702 0.0072501333420848654 -0.0091599430613957793 -0.012331340146867769 0.036537359216558464 0.091113111698643598 0.04627079337197338 0.08471957885688107 0.079251459057049209 -0.019552705362272885 0.027334220282633888 -0.006668991191441361 -0.024266482332063789 -0.018233960708729301 0.094916072201724447 0.063420783459796154 -0.0096541195765850671 -0.017260570599093004 0.077045210281393439 -0.014289424228085238 0.078436631131835952 0.090905373293721697 -0.015136406444818094 -0.0098206556972896021 -0.01718318513244086 -0.013571857589585012 0.069298172696181687 -0.018208289954679817 0.081409938629657591 -0.017726538448515797 -0.0096700932275199103 -0.013068755129334831 0.088396240439747101 0.066240957742764867 -0.020810740891761704 -0.0027300513223996918 -0.015326577493885843 -0.020525808019687029 0.080418143108868162 0.080652227655196612 -0.022034024033731673 -0.023159713592596713 0.018189807286520612 0.081973263664961618 -0.0093244656890009575 -0.011498875265761635 -0.00069887805090487623 0.066279213566057968 0.071501967098314301
leaf_weight=268.890112221241 282.07931819558144 243.38845431804657 409.59656625986099 121.1279616355896 1099.2712618112564 3540.7466577887535 201.00749397277832 259.97183120250702 1089.4637358784676 199.81788700819016 123.12607192993164 3058.5458554327488 139.87653368711472 1640.9906741678715 249.38123714923859 1793.31307092309 1208.200513869524 115.6980701982975 113.41841071844101 123.0660035610199 3759.9666672945023 260.85521680116653 824.40079909563065 156.23955854773521 10013.615481704473 15636.600804299116 3146.1768948733807 5741.3509172797203 230.02820146083832 1383.8417213857174 3131.3193823099136 136.93321985006332 2908.0134916901588 1673.8343021869659 3934.4314430356026 2878.407954365015 3511.3179630935192 1759.0711907148361 1683.3360104560852 319.24803727865219 22315.445466637611 662.6555689573288 401.25436925888062 1794.2932647168636 4404.5709578990936 479.13233190774918 171.84541416168213 4802.7577680051327 178.73939242959023 631.40029454231262 2718.7441303431988 303.57042026519775 208.09337943792343 71.550175726413727 15872.532338887453 116.2275170981884 1094.0752156376839 3379.5986561179161 4028.3893899023533 142.97325795888901 132.80871468782425 159.34603822231293
leaf_count=432 819 336 1185 344 1400 10471 457 432 1316 298 357 8867 208 4781 641 5198 3481 208 200 239 5116 363 2441 357 28650 47822 9372 6877 384 3983 9227 212 8512 2505 4929 8461 10130 5142 4893 473 66321 947 1189 5159 12743 645 260 14380 519 1826 8151 460 316 208 47987 292 1572 9732 11691 387 205 242
internal_value=-0.000209558 0.0837584 -0.0170099 0.0389042 0.0874165 -0.0209075 0.0628048 0.0454559 0.0911645 0.0778708 -0.0228282 -0.011684 0.0755949 -0.0111487 0.00850621 -0.0103187 -0.00949352 0.0690851 0.059848 0.0656292 0.0866388 0.0931589 -0.0136261 0.0156998 -0.00796205 -0.0235743 -0.018502 0.0934959 0.0574434 -0.0131796 -0.0155157 0.0776526 -0.0121759 0.0788728 0.091873 -0.0131514 -0.0124981 -0.015527 -0.0110362 0.0730744 -0.018624 0.0858426 -0.0236337 -0.00712503 -0.0139866 0.0843416 0.074243 -0.0197909 -0.0092049 -0.0112234 -0.019046 0.0758221 0.0733625 -0.011216 -0.023709 0.0107279 0.0798346 -0.0101163 -0.0120175 -0.00570781 0.0717445 0.0766841
internal_weight=143440 23908 119532 1785.56 22122.4 69038.5 999.611 460.979 15885.3 6237.09 38293 50493.4 4851.92 44303.6 785.95 33186.2 25756.8 1624.88 582.211 466.513 4859.24 11026.1 11117.4 521.848 16395.7 32033.5 30745.5 10765.2 353.094 7429.4 6189.87 538.632 9361.12 3227.03 5023.9 10293 8073.06 2219.89 5194.65 459.125 30264.4 1385.18 31910.4 11807.9 6045.56 1141.79 1042.67 7948.93 460.819 6453.1 6259.49 870.828 567.257 481.147 31509.1 365.609 2767.91 4587.8 4659.79 264.101 269.742 367.439
internal_count=386751 33053 353698 3759 29294 207443 1738 889 20001 9293 115977 146255 7365 128161 2021 95756 74249 2607 1031 823 6516 13485 32405 1290 47022 97355 91466 13122 623 21507 18094 849 27227 4758 6245 29964 23484 6480 15023 681 90073 1928 96998 33809 17524 1592 1576 23752 1338 18715 18622 1316 856 1393 95809 933 4077 13213 13517 731 417 558
cat_boundaries=0 1 2
cat_threshold=4 2
is_linear=0
shrinkage=0.05


Tree=6
num_leaves=63
num_cat=7
split_feature=2 0 4 2 0 0 4 4 0 2 2 0 2 0 2 4 0 0 0 2 0 0 0 0 0 4 0 4 4 0 0 0 0 0 0 0 4 4 0 0 0 0 4 0 0 0 0 0 0 0 0 4 0 0 0 4 4 0 0 0 0 4
split_gain=72470.8 968.888 176.381 124.587 47.1214 39.3329 33.4977 32.1197 28.872 30.7813 15.0372 7.81903 8.25442 6.50764 6.2917 6.17075 5.1578 5.05074 4.93858 4.65161 12.0293 4.81558 3.36378 3.25806 4.43393 3.18394 3.14407 3.1341 2.95619 3.87671 2.65721 2.6012 2.51902 2.35083 2.2359 2.16402 1.94153 1.75276 2.87608 1.92302 1.75178 1.56767 1.55201 2.55247 1.53078 1.43783 2.0113 3.10907 1.39316 1.38438 1.37352 1.367 1.27258 1.25697 1.77518 1.22018 1.20257 1.19017 1.93613 1.28498 1.15806 1.06355
threshold=0 11.550000000000002 3.5000000000000004 1 21.750000000000004 7.1500000000000012 1.5000000000000002 1.5000000000000002 1.7500000000000002 2 3 1.1500000000000001 4 32.050000000000004 5 1.5000000000000002 8.3500000000000032 15.950000000000001 2.0500000000000003 6 1.0000000180025095e-35 0.45000000000000007 1.5500000000000003 6.4500000000000011 2.6500000000000008 3.5000000000000004 28.250000000000004 2.5000000000000004 3.5000000000000004 4.1500000000000012 3.7500000000000004 0.95000000000000007 8.3500000000000032 0.65000000000000002 2.3500000000000001 8.6500000000000004 2.5000000000000004 3.5000000000000004 29.150000000000002 30.150000000000002 0.15000000000000005 5.6500000000000012 1.5000000000000002 39.350000000000009 9.8500000000000032 2.9500000000000006 3.2500000000000004 3.1500000000000008 6.0500000000000007 9.1500000000000004 2.6500000000000008 2.5000000000000004 6.7500000000000009 4.8500000000000005 2.4500000000000006 2.5000000000000004 3.5000000000000004 3.8500000000000001 4.3500000000000005 3.5500000000000003 5.6500000000000012 2.5000000000000004
decision_type=1 8 2 1 8 10 2 2 10 1 1 10 1 10 1 2 10 10 10 1 10 10 10 10 10 2 8 2 2 10 10 10 10 10 10 10 2 2 10 10 10 10 2 10 10 10 10 10 10 10 10 2 10 10 10 2 2 10 10 10 10 2
left_child=2 5 7 13 17 6 11 -1 19 23 16 14 18 15 33 -3 -7 -5 -13 21 -21 -8 -14 24 36 -23 -6 32 29 30 34 -22 -12 -2 51 -29 -10 38 -17 -39 -16 -26 -15 -44 49 -36 47 -47 50 -37 -20 -11 53 54 -24 -33 -28 59 -59 -52 -30 -9
right_child=1 3 -4 4 26 10 8 61 9 28 27 12 22 42 40 37 -18 -19 48 20 31 25 52 -25 41 -27 56 35 60 -31 -32 55 -34 -35 45 44 -38 39 -40 -41 -42 -43 43 -45 -46 46 -48 -49 -50 -51 57 -53 -54 -55 -56 -57 -58 58 -60 -61 -62 -63
leaf_value=0.081125180529807883 -0.0068883791188475542 -0.019597746930824948 0.068772990672630693 -0.017396063125781583 -0.022960042581017494 -0.0099161697410758576 -0.006302758762416723 0.077025700417423584 -0.0098061077346275009 -0.01146645167024994 -0.015629339924444749 -0.013576802655965718 -0.0081085038253752139 -0.0052781516934043132 -0.019622487548232388 -0.018377695398071998 -0.013582640375912228 -0.020304898733702424 -0.011553165647675829 -0.01645264567825638 -0.012823056226000116 -0.013050007124042154 -0.017448879621400439 -0.010665468057821523 -0.0059751160153563142 -0.0079540868593549214 -0.024209608113987924 -0.017539743714110059 -0.010538213191409214 -0.013750987825331904 -0.0070671549935461394 -0.012111974143781805 -0.019268541773624259 -0.015102514444174637 -0.014219068229465113 -0.015144195465375718 -0.0075562361530332441 -0.017249526888781046 -0.013221662734966276 -0.024829265248186086 -0.016283950736445778 -0.0082969564019637516 -0.0083009494808113787 -0.018672648042697228 -0.015649830987077017 -0.011570781860287212 -0.013168569646650908 -0.0017492452254521198 -0.013070848641968691 -0.01003221082784145 -0.0089391316193033078 -0.0072422139035830408 -0.010412320266392898 -0.017555401069178026 -0.013984253866330324 -0.010417992894954818 -0.023207435449719857 -0.013957192122535192 -0.0091317810256201972 -0.0046212614548297786 -0.0077469616237415403 0.076129010220738938
leaf_weight=5477.8258393406868 270.33224523067474 7808.4406538009644 7370.014710277319 3430.5537912249565 15273.722318053246 1381.3363002240658 704.39617422223091 6539.6909808814526 1447.7648905217648 374.1727302968502 690.22300872206688 1697.4062416851521 164.46618753671646 81.836771726608276 547.36345690488815 14291.094099402428 3138.7194656431675 2641.2534183561802 922.71077063679695 1629.535617262125 3281.6353597939014 933.84484991431236 528.42765825986862 663.66383856534958 5924.4254044294357 456.29147988557816 12103.48108330369 761.36688736081123 1941.7744827270508 2130.2950156629086 385.65237256884575 1608.0468354225159 1528.5784003436565 128.51156833767891 735.14186444878578 227.15376996994019 2839.6872325241566 7335.3454632163048 275.68137168884277 84.644513785839081 1392.5760594010353 828.68038299679756 124.02957141399384 113.69879350066185 746.23339375853539 248.89724433422089 548.85233181715012 119.15067628026009 399.71367824077606 317.63079440593719 953.42180597782135 392.33411023020744 117.9167927801609 680.51856505870819 1230.9806843101978 3136.4337097406387 3976.9911037683487 289.73314779996872 735.78668329119682 210.31270608305931 459.5399167239666 6689.3971707820892
leaf_count=6511 790 23786 10291 10329 47238 4025 2045 8058 4190 1097 2063 4987 490 240 1632 43340 9227 8083 2702 4826 9623 2735 1576 1925 17043 1326 37891 2266 5668 6323 1137 4693 4594 379 2158 680 8205 22099 835 255 4142 2386 372 336 2234 731 1612 350 1172 951 2788 1147 353 2037 3675 9137 12434 847 2152 615 1356 8298
internal_value=-8.66963e-05 -0.0168367 0.0752955 -0.0207406 -0.022687 -0.0115509 -0.010901 0.0779055 -0.0100762 -0.00887341 -0.0145861 -0.0133738 -0.0126246 -0.0183081 -0.0159144 -0.0183903 -0.0124347 -0.0186614 -0.0113406 -0.0120252 -0.012523 -0.0096248 -0.0149847 -0.00725675 -0.00705842 -0.0113773 -0.0234738 -0.0167945 -0.0114273 -0.0121431 -0.0109216 -0.0117407 -0.0181365 -0.00930184 -0.0115362 -0.0154256 -0.00831596 -0.0179615 -0.0182801 -0.017336 -0.0171376 -0.00626003 -0.011217 -0.0132614 -0.0141788 -0.0125717 -0.0112509 -0.00839119 -0.0102921 -0.0121637 -0.00993514 -0.00930429 -0.0154855 -0.0157306 -0.0150248 -0.0109921 -0.0239618 -0.00925319 -0.0104951 -0.0081588 -0.0100041 0.0765723
internal_weight=143469 117392 26076.9 67540.8 37426 49851.6 41060.4 18706.9 30790.2 19040 8791.24 10270.2 7931.39 30114.8 2338.78 29795.2 4520.06 6071.81 5209.09 11750.2 9655.65 2094.53 2722.31 11704.2 11040.6 1390.14 31354.2 4271.19 7335.81 4934.5 2804.2 8026.12 2218.8 398.844 2418.55 2052.38 4287.45 21986.8 14566.8 7419.99 1939.94 6753.11 319.565 237.728 1291.02 1652.04 916.9 368.048 3511.68 544.785 3111.97 766.507 2557.84 2439.93 1759.41 4744.48 16080.5 2189.25 1025.52 1163.73 2401.31 13229.1
internal_count=386486 353328 33158 207238 115975 146090 120050 22867 89713 55328 26040 30337 23394 91263 6943 90315 13252 18412 15263 34385 28279 6106 8131 33749 31824 4061 97563 12788 21579 14555 8232 23453 6657 1169 7095 6131 12395 66529 44175 22354 5774 19429 948 708 3865 4851 2693 1081 10276 1631 9104 2244 7641 7288 5251 13830 50325 6402 2999 3403 7024 16356
cat_boundaries=0 1 2 3 4 5 6 7
cat_threshold=4 2 1 1 1 2 2
is_linear=0
shrinkage=0.05


Tree=7
num_leaves=63
num_cat=0
split_feature=0 6 0 5 4 5 5 6 0 4 5 4 0 6 5 4 5 4 5 5 5 0 5 4 0 0 6 6 5 5 5 5 5 6 4 6 0 0 5 0 4 5 5 0 0 0 5 5 5 5 5 5 4 0 5 5 6 5 6 6 6 6
split_gain=32329 15899.6 697.426 294.472 154.958 183.607 82.1274 52.2945 55.4349 37.0844 34.2957 37.6446 27.9993 43.1081 24.1463 22.5705 17.6337 14.5455 25.8994 14.0767 13.6654 13.0832 13.0114 12.8395 12.5753 15.7976 9.95431 21.5251 8.94907 8.30077 8.26863 7.97422 7.50403 7.47937 7.32647 6.52946 17.3441 13.4807 6.36903 5.88118 5.36211 5.82493 5.25636 5.19159 4.95325 4.78641 4.18054 4.10721 4.01381 3.91437 3.63434 3.62061 3.58181 3.57214 3.55253 3.97038 3.54512 3.50599 3.31998 6.10725 3.73353 4.80776
threshold=inf -50.499999999999993 10.250000000000002 100.50000000000001 3.5000000000000004 35.850000000000001 333.50000000000006 inf 17.350000000000005 1.5000000000000002 4.8500000000000005 1.5000000000000002 1.1500000000000001 -40.499999999999993 580.50000000000011 1.5000000000000002 675.50000000000011 3.5000000000000004 27.650000000000002 635.50000000000011 695.50000000000011 7.0500000000000007 10.15 3.5000000000000004 8.1500000000000004 1.9500000000000002 -4.4999999999999991 6.5000000000000009 0.75000000000000011 231.50000000000003 38.350000000000001 61.500000000000007 139.50000000000003 -33.499999999999993 1.5000000000000002 -26.499999999999996 1.2500000000000002 0.65000000000000002 665.50000000000011 6.4500000000000011 1.5000000000000002 692.50000000000011 297.50000000000006 11.65 26.350000000000005 1.0000000180025095e-35 3.0500000000000003 333.50000000000006 10.15 663.50000000000011 463.50000000000006 418.50000000000006 3.5000000000000004 21.750000000000004 252.50000000000003 234.50000000000003 3.5000000000000004 652.50000000000011 5.5000000000000009 8.5000000000000018 -18.499999999999996 -8.4999999999999982
decision_type=8 10 10 2 2 2 2 8 10 2 2 2 10 10 2 2 2 2 2 2 2 10 2 2 10 10 10 10 2 2 2 2 2 10 2 10 10 10 2 10 2 2 2 10 10 10 2 2 2 2 2 2 2 10 2 2 10 2 10 10 10 10
left_child=2 10 9 4 34 22 15 8 43 19 23 14 33 21 31 -5 17 54 -19 35 -8 -14 -6 46 25 -15 -7 -28 52 58 -20 -12 -32 -11 -3 37 -37 47 57 -27 42 -42 -30 -4 -43 -35 -2 -1 -10 -34 -38 -39 -9 -50 55 -13 -24 -16 60 -60 -17 -62
right_child=1 3 7 6 5 26 20 28 48 12 11 16 13 24 38 29 -18 18 30 -21 -22 -23 56 -25 -26 39 27 -29 40 -31 32 -33 49 45 -36 36 50 51 -40 -41 41 44 -44 -45 -46 -47 -48 -49 53 -51 -52 -53 -54 -55 -56 -57 -58 -59 59 -61 61 -63
leaf_value=-0.0093742441538384961 -6.4210163674209192e-05 0.067201668770667813 -0.01429126622539046 0.074007029202237271 -0.0065975966588158689 0.04600905871170724 0.075703411620430677 -0.0095305764179114249 -0.017391042700316908 -0.0096494106746004699 0.013030757115452788 0.010341990325659245 -0.011287607474429327 -0.010265492775222531 -0.0011486075266091257 0.071007706067681295 0.0029475124352030214 0.0025413913194326527 0.026236588868757061 -0.018858950882013656 0.088485734099232563 -0.015578304444807303 0.021705080409458621 -0.011874649959872753 -0.012540825257518385 -0.0063252690540430007 0.073982817783011398 0.050321085616292276 -0.017901007316055102 0.069405951558648121 0.0094092081549908765 0.0062725001337191402 0.014520487578359265 -0.016253231840119481 0.06130713659261712 -0.016299420795355329 -0.0098927160057095676 -0.016904120299536248 -0.009279006405404808 -0.0096727780356294351 -0.01805236349559089 -0.015080995407803846 -0.020512026436746753 -0.01786576581154873 -0.0028156714644170756 -0.013052220666891082 0.010846758971090619 0.003914377034899998 -0.020655217808169847 0.0039110775838502405 -0.012829559597616863 -0.013408881090134151 -0.021908718094911933 -0.023093050893808288 0.0089386571344815986 0.016144940758835446 0.0092613271230658888 0.010057613580515788 0.074423706589886507 0.065413902326685827 0.058648542930957281 0.064838141014823991
leaf_weight=126.17257845401764 345.24454370141029 767.13336265087128 1342.759723752737 1505.0139269828796 95.986825346946716 172.9289932847023 9113.4547653198242 398.72699618339539 342.82381594181061 1248.3650438785553 489.96273866295815 3956.3558046221733 8104.6210100054741 4483.7283650636673 479.29413741827011 166.95018458366394 763.22748398780823 569.95344457030296 129.24487513303757 1164.0927959084511 214.00520759820938 2275.4394420683384 111.74542000889778 223.85842770338058 1497.3422968089581 9970.8192320764065 167.48963898420334 225.54785150289536 3283.6533851623535 2082.5547657012939 950.68490344285965 3998.1654014885426 4320.2303993701935 1591.6449524760246 1685.1179808974266 1893.3523015379906 3765.9300520122051 2107.2170062363148 237.93816876411438 1510.9042129814625 21897.910667300224 466.74949362874031 4667.3339839875698 4171.7530567348003 99.938247233629227 4385.6505007147789 117.72612333297729 107.84993693232536 1665.0507706701756 88.725454479455948 1462.535868614912 1142.6936177313328 68.480316877365112 15407.087709844112 6873.3871085345745 318.49305745959282 117.33442294597626 81.692606925964355 241.80636149644852 846.60148984193802 431.85130190849304 1147.0165603160858
leaf_count=372 847 945 4007 1647 239 259 9366 1184 1065 3657 1193 9671 24102 13181 1291 208 1905 1468 307 3555 245 6906 240 626 4452 28920 238 326 10156 2378 2342 10110 10218 4792 2215 5719 11102 6390 689 4431 67458 1429 14542 12834 306 13014 258 315 5203 229 4357 3465 207 48774 16980 759 246 203 297 1050 542 1412
internal_value=-0.000163907 0.0361059 -0.0156723 0.0701398 0.0566625 0.0388047 0.0730008 -0.0195554 -0.0213643 -0.0112112 0.00896809 0.00929327 -0.0103961 -0.00967636 0.00558465 0.0686493 0.0103844 0.0107143 0.0126862 -0.0136397 0.0759967 -0.0122282 0.00885613 -0.00204339 -0.00815954 -0.00774863 0.0560059 0.0604043 -0.0182123 0.0670093 0.0137396 0.00701029 0.0134382 -0.0131694 0.0631511 -0.0130668 -0.0121991 -0.0148406 -0.00242416 -0.00676577 -0.0183178 -0.0179228 -0.0194337 -0.0169954 -0.0129179 -0.0139046 0.00271028 -0.00325015 -0.0227477 0.014307 -0.0107142 -0.0156752 -0.0113449 -0.0228553 0.00964256 0.0107743 0.0153314 0.000483277 0.0652482 0.0674156 0.063897 0.0631452
internal_weight=143687 43036.7 100651 19092.5 3343.28 891.033 15749.3 53812.3 22929.5 46838.4 23944.2 23257.4 35068.5 27842.9 5287.05 6421.79 17970.3 17207.1 6058.84 11769.8 9327.46 10380.1 325.067 686.829 17462.8 15965.5 565.966 393.037 30882.8 4916.78 5488.89 4488.13 5359.64 7225.66 2452.25 10605.8 7121.82 3483.93 798.925 11481.7 30415.6 22464.6 7950.99 5514.51 566.688 5977.3 462.971 234.023 17415 4408.96 5228.47 3249.91 467.207 17072.1 11148.2 4274.85 229.08 560.987 2834.23 1088.41 1745.82 1578.87
internal_count=386844 80949 305895 21853 4708 1548 17145 167165 71883 138730 59096 57365 103455 81992 13486 7534 43879 41974 14564 35275 9611 31008 725 1731 50984 46532 823 564 95282 5887 13096 11303 12789 21463 3160 31720 21178 10542 2183 33351 93891 69193 24698 16841 1735 17806 1105 687 55042 10447 15459 9855 1391 53977 27410 10430 486 1494 3509 1347 2162 1954
is_linear=0
shrinkage=0.05


Tree=8
num_leaves=63
num_cat=2
split_feature=2 5 4 3 5 6 5 5 4 5 4 6 6 6 5 5 4 6 5 6 6 5 5 5 6 5 5 4 5 5 4 5 5 6 4 6 5 5 4 6 4 5 5 6 6 6 6 5 4 6 5 5 5 6 5 6 4 5 5 4 5 5
split_gain=59537.3 938.004 377.648 370.444 181.721 60.0571 77.9638 34.7333 33.3696 25.2426 24.7849 28.1627 30.6554 20.3417 47.6935 19.4659 18.3542 16.2859 14.0936 13.7857 12.1 10.3675 10.3477 9.5726 8.62835 8.58462 7.80749 6.95066 6.25978 5.48205 5.46685 5.18611 4.99551 4.9283 4.60573 3.86942 3.84815 3.75973 3.50182 3.27772 3.16112 2.85125 2.81976 2.67221 2.7504 2.66361 2.55384 2.54153 2.49031 2.4594 2.21746 2.13008 2.21307 2.09588 2.06923 2.05396 1.98247 1.93805 1.72705 2.78213 1.66395 1.61708
threshold=0 27.650000000000002 3.5000000000000004 1 255.50000000000003 37.500000000000007 3.0500000000000003 82.500000000000014 1.5000000000000002 7.2500000000000009 3.5000000000000004 14.500000000000002 4.5000000000000009 41.500000000000007 685.50000000000011 635.50000000000011 1.5000000000000002 32.500000000000007 436.50000000000006 9.5000000000000018 28.500000000000004 4.8500000000000005 391.50000000000006 701.50000000000011 8.5000000000000018 1.7500000000000002 27.650000000000002 3.5000000000000004 0.75000000000000011 695.50000000000011 1.5000000000000002 139.50000000000003 16.850000000000005 -13.499999999999998 3.5000000000000004 -2.4999999999999996 463.50000000000006 689.50000000000011 1.5000000000000002 -10.499999999999998 2.5000000000000004 3.0500000000000003 33.750000000000007 -8.4999999999999982 -11.499999999999998 -2.4999999999999996 14.500000000000002 49.050000000000004 2.5000000000000004 4.5000000000000009 7.2500000000000009 333.50000000000006 273.50000000000006 18.500000000000004 1.7500000000000002 -13.499999999999998 2.5000000000000004 201.50000000000003 54.150000000000013 2.5000000000000004 118.50000000000001 225.50000000000003
decision_type=1 2 2 1 2 8 2 2 2 2 2 8 10 8 2 2 2 8 2 8 8 2 2 2 10 2 2 2 2 2 2 2 2 10 2 8 2 2 2 10 2 2 2 10 10 8 10 2 2 10 2 2 2 10 2 10 2 2 2 2 2 2
left_child=1 2 5 8 7 21 -7 10 15 -4 24 12 -12 18 22 25 31 41 40 -11 43 -1 38 26 30 39 34 28 56 -20 35 -9 -21 61 54 -3 50 -30 -15 -2 -6 -10 -29 44 57 -32 -26 -13 -25 -23 -35 52 -42 -45 -5 -33 -19 -18 59 -47 -22 -27
right_child=3 4 9 23 13 6 -8 16 17 19 11 47 -14 14 -16 -17 20 27 29 32 60 49 -24 48 46 33 -28 42 37 -31 45 55 -34 36 -36 -37 -38 -39 -40 -41 51 -43 -44 53 -46 58 -48 -49 -50 -51 -52 -53 -54 -55 -56 -57 -58 -59 -60 -61 -62 -63
leaf_value=0.067317138801715831 -0.0055149176884443617 0.070262864833781455 -0.0091904541248048477 -0.014732838746501728 0.066963935759561707 0.012705289112713847 0.05307495751003935 0.062799470536809593 -0.0094558328646795059 -0.0021097946347206618 0.049322284241345681 0.053193550631379177 0.020834799180781648 0.073802388456666299 0.04742494329700285 -0.021143355951370381 0.05673400145638139 -0.01351200790605793 0.068859378932282944 0.010351900187258123 0.061177052886764574 0.056916815665367472 0.074225215864948221 -0.01836603470967273 0.048389298403130651 -0.016660158342413935 -0.024327006830382299 -0.01785911593761547 -0.016475802604140732 0.0766501287104705 0.054638575098846613 0.071963589728480146 0.022305851528188203 -0.0086223071336856329 -0.013066979223207082 0.061402252428702835 -0.017419621918568176 -0.012577665398757681 0.06800013568835421 -0.018066750334194959 0.066874794735591575 -0.014303393080706481 -0.014559435630182131 0.060380833638156974 0.052521444012765886 0.061700663473239076 0.056258281878755506 0.061482345025633191 -0.006732097542913755 0.048936188392024585 -0.015546023322864791 0.06574075014622581 0.061721040442505343 0.055948587467744483 -0.023440199146875666 0.067320735269982099 -0.005717460083825599 0.062980877366903984 0.062143209167624905 0.053382483399397065 0.06489881703132222 -0.017957279472698148
leaf_weight=218.67375212907791 238.16491833329201 173.51593565940857 268.56261566281319 84.188198447227478 2465.3241940140724 215.80115109682083 268.2781383395195 552.90081804990768 305.72223037481308 171.65893185138702 264.99783447384834 158.28703171014786 146.72368833422661 329.50881934165955 197.22034585475922 2618.0781393945217 392.33347600698471 154.63110792636871 6809.2563626766205 221.7095388174057 374.97245413064957 248.32994991540909 3055.3892956376076 92.832825630903244 220.57247740030289 3721.3369713425636 14136.128035843372 688.65101674199104 21769.416117548943 233.54494959115982 377.51120239496231 338.86798745393753 144.26611018180847 117.23359787464142 229.54719930887222 425.01861310005188 3488.6969688534737 636.65150055289268 1233.4454277157784 66.543293714523315 269.88990664482117 38923.141634255648 10822.964963674545 2815.3939930796623 261.14821881055832 197.04165154695511 193.61789321899414 222.44979310035706 91.174491733312607 157.93300873041153 8520.7300778031349 1486.1430519223213 912.76396429538727 294.63521593809128 359.95389178395271 801.9533314704895 172.66815134882927 181.64188724756241 384.60444432497025 205.21213728189468 1508.4463709592819 6781.155258089304
leaf_count=281 715 194 702 262 2432 447 384 621 931 379 392 265 224 344 225 8280 469 467 6402 524 481 314 3107 286 268 11627 44984 2124 67578 246 464 376 320 360 719 499 10851 1961 1372 203 288 119168 33314 3236 308 245 236 310 279 201 26325 1488 976 342 1137 814 521 204 483 256 1821 21282
internal_value=-0.00025061 0.0631795 0.0293684 -0.0166099 0.0655586 0.0482986 0.0350783 0.0603845 -0.0155024 0.00332762 0.0558058 0.0482345 0.0391703 0.0687533 0.0715042 -0.0170588 0.0621921 -0.0149611 0.0676654 0.00958072 0.0608607 0.0585392 0.0725325 -0.0239356 0.0585617 -0.0165925 -0.0240764 -0.0157579 -0.0162648 0.0691177 0.0600874 0.0667737 0.0150641 -0.0167048 -0.0188176 0.063971 -0.0160181 -0.016365 0.0692234 -0.00825603 0.0656731 -0.0142656 -0.0147568 0.0592866 0.0567754 0.0580912 0.0520677 0.0580364 -0.0126015 0.0538144 -0.0154521 0.0644806 0.0628972 0.0599609 -0.0217897 0.0686998 -0.00939996 0.0587109 0.0597476 0.0574571 0.0641578 -0.0174977
internal_weight=143419 29399.5 1915.21 114020 27484.3 1109.02 484.079 10491.8 99025.8 806.197 2969.55 792.458 411.722 16992.5 4815.56 25551.9 7522.29 73473.8 12176.9 537.635 5828.57 624.937 4618.34 14993.8 2177.09 22933.9 14809.8 34245 22733.4 7042.8 1762.9 1693.72 365.976 22629.2 673.689 598.535 12126.7 22406.1 1562.95 304.708 5134.12 39228.9 11511.6 3945.15 835.124 1164.37 414.19 380.737 184.007 406.263 8637.96 2668.8 1182.65 3110.03 444.142 1140.82 327.299 573.975 786.858 402.254 1883.42 10502.5
internal_count=386314 32940 3552 353374 29388 1627 831 12508 305707 1925 3836 1191 616 16880 5048 79643 8672 226064 11832 1223 6861 796 4823 47667 2645 71363 47102 105965 70527 6648 2141 1811 844 70445 2118 693 37536 69539 1716 918 5184 120099 35438 4559 981 1448 504 575 565 515 26685 2752 1264 3578 1399 1190 988 673 984 501 2302 32909
cat_boundaries=0 1 2
cat_threshold=4 1
is_linear=0
shrinkage=0.05


Tree=9
num_leaves=63
num_cat=2
split_feature=2 0 2 4 0 4 0 0 6 6 6 0 6 6 4 6 6 0 6 0 0 0 0 0 0 0 6 0 4 0 0 6 4 4 6 4 6 0 6 0 6 0 6 0 0 6 6 6 6 0 0 4 4 0 0 0 6 6 4 6 6 6
split_gain=54272.1 994.064 136.381 89.6447 47.7065 38.7467 29.4402 30.9354 34.6951 25.3492 31.133 13.6723 10.1935 17.9599 9.62157 9.33191 8.37865 20.56 8.03261 7.17783 6.32403 5.84956 5.62229 5.12086 5.0081 4.9006 4.48956 4.38642 4.20508 4.09482 3.92248 3.83739 3.39571 3.06944 2.88676 2.69969 2.44723 4.05145 3.99663 2.55949 2.43725 2.39979 2.39866 2.30556 2.22397 2.06352 1.96015 2.30897 1.88596 1.85888 1.81997 1.71667 1.66447 1.64299 1.61379 1.51565 1.50713 2.5938 1.7221 3.1614 6.16349 2.72501
threshold=0 11.550000000000002 1 3.5000000000000004 21.750000000000004 1.5000000000000002 7.0500000000000007 1.1500000000000001 30.500000000000004 -15.499999999999998 -4.4999999999999991 1.9500000000000002 2.5000000000000004 14.500000000000002 1.5000000000000002 50.500000000000007 16.500000000000004 1.2500000000000002 60.000000000000007 1.5500000000000003 31.650000000000002 15.950000000000001 1.0000000180025095e-35 8.8500000000000032 4.1500000000000012 8.1500000000000004 -23.499999999999996 7.8500000000000005 1.5000000000000002 1.0000000180025095e-35 2.6500000000000008 4.5000000000000009 2.5000000000000004 1.5000000000000002 3.5000000000000004 2.5000000000000004 7.5000000000000009 6.5500000000000007 9.5000000000000018 3.8500000000000001 -12.499999999999998 2.6500000000000008 -1.4999999999999998 6.3500000000000005 0.45000000000000007 -16.499999999999996 13.500000000000002 14.500000000000002 -9.4999999999999982 3.9500000000000006 1.3500000000000003 2.5000000000000004 3.5000000000000004 3.2500000000000004 0.15000000000000005 39.350000000000009 17.500000000000004 13.500000000000002 2.5000000000000004 3.5000000000000004 5.5000000000000009 -1.4999999999999998
decision_type=1 8 1 2 8 2 10 10 8 8 10 10 10 10 2 8 8 10 8 10 10 10 10 10 10 10 10 10 2 10 10 10 2 2 10 2 10 10 10 10 8 10 10 10 10 8 10 10 10 10 10 2 2 10 10 10 10 10 2 10 10 8
left_child=3 5 20 14 21 16 7 18 11 -5 40 35 42 31 34 25 17 44 22 54 28 -4 -7 30 49 -8 -6 -21 -3 -20 -19 -14 -31 -22 -1 -9 39 38 -38 -32 -11 -13 -12 46 -2 -16 -43 -48 -46 -10 -37 -17 -26 -49 -18 -35 57 58 61 -60 -61 -47
right_child=1 2 4 9 26 6 15 8 24 10 12 41 13 -15 45 51 19 23 29 27 33 -23 -24 -25 52 -27 -28 -29 -30 32 36 -33 -34 55 -36 50 37 -39 -40 -41 -42 43 -44 -45 48 56 47 53 -50 -51 -52 -53 -54 -55 -56 -57 -58 -59 59 60 -62 -63
leaf_value=0.061619293133614687 -0.019144769273672493 -0.019081514586426557 -0.017122752415234879 0.064413397496747696 -0.024088381040994204 -0.015804177171711491 -0.0083734595106082828 -0.01129284571966707 -0.010561103013079644 0.054716235279563236 0.05740568967633683 -0.0073578896067718145 0.056250590772974396 0.059927396006460742 0.056028108315149455 -0.016995348135163891 -0.0063495071716543105 -0.012082537901181675 -0.00578151718482851 -0.015130207454780071 -0.003219028698803784 -0.020329951447832253 -0.012297058330297305 -0.015160729774228863 -0.013722135069954232 -0.012699026584978909 -0.022859724694041024 -0.019150160481316077 -0.017695427812670729 -0.016834817403784941 -0.0078289273243763603 0.050345030722067224 -0.0089012934030289429 -0.010541041336736596 0.059107961323130398 -0.010716557515305824 0.0055242128692676697 -0.015949041271474104 -0.0075158486630538777 -0.011045505155379606 0.049637551035379146 -0.0057711465379440474 0.062106099980114363 -0.0085306269706983458 -0.0079249206985640263 0.057920050490915066 0.0033208130790064773 -0.0074966803893554675 -0.016149344136660679 -0.0062947401126968146 -0.0078874188165289731 -0.014485270972998425 -0.011231970698477577 -0.0027128229086520912 -0.011997554111519057 -0.018157477443993882 0.056995762781686027 0.06195875158661656 0.058918172383678941 0.05039390251452644 0.058055002630200928 0.060086715136272256
leaf_weight=5284.0673224627972 721.26011151075363 7411.5963109433651 3276.4497481882572 503.12259545922279 14914.617304861546 1556.7715339958668 911.53239059448242 1481.1893332898617 4765.8556327223778 250.79985609650612 466.34670448303223 3136.5590236783028 340.4051448404789 974.55467680096626 633.83211702108383 1033.9654911160469 192.10208335518837 2310.3969720602036 593.24599400162697 2696.1381878852844 87.921298563480377 2511.4938662946224 4296.9287353157997 677.45522052049637 2039.2308269441128 2324.7687367796898 14825.782990962267 906.83308151364326 20907.400997430086 206.39322090148926 997.03900095820427 1433.3356791138649 389.2523110806942 143.47479441761971 1460.6153374314308 782.9822718501091 100.48271882534027 67.565861850976944 141.50875627994537 1628.728291541338 4066.912162899971 5433.3799534142017 649.33298537135124 650.36109071969986 73.945485502481461 2047.1468373537064 115.45260941982269 262.51132953166962 1215.4488723278046 269.76683360338211 2074.7443350255489 1996.3274701237679 1000.1989779770374 567.45111456513405 370.17665901780128 119.90788602828979 936.75495272874832 735.12452918291092 5178.6659324169159 340.32068902254105 1148.589508831501 4984.9274387061596
leaf_count=5156 2263 23892 10371 522 48573 4832 2739 4473 14480 259 507 9322 368 995 643 3257 578 7059 1778 8457 266 8120 13104 2086 6305 7108 48726 2877 66614 625 3026 1627 1169 449 1401 2361 303 205 426 4968 5254 16056 670 1950 229 2010 341 775 3796 825 6238 6249 3049 1676 1142 370 948 732 5387 338 1144 5123
internal_value=-0.00023092 -0.0165015 -0.0205722 0.0578233 -0.0226612 -0.0110591 -0.0102342 -0.00957554 -0.00867315 0.0535202 0.0528503 -0.00721075 0.0561107 0.0544744 0.0594914 -0.0133477 -0.0135061 -0.0125527 -0.0124688 -0.015322 -0.0179692 -0.0185144 -0.0132298 -0.0110698 -0.0112999 -0.0114807 -0.0234759 -0.016142 -0.0180582 -0.00872182 -0.0105414 0.0514784 -0.0116503 -0.0113082 0.0610754 -0.00956047 -0.00932842 -0.00512371 -0.00210119 -0.00982413 0.0499326 -0.00620785 0.0601414 -0.00569468 -0.0169214 0.058824 -0.00540553 -0.00330433 -0.0156777 -0.0103325 -0.00866257 -0.0153417 -0.0129027 -0.00422592 -0.0100679 -0.0140085 0.0589392 0.0590654 0.0589101 0.0583344 0.0563039 0.059456
internal_weight=143621 112187 64198.6 31434.9 35528.3 47988 35888.9 29622.3 22579.7 8684.81 8181.69 14504.6 3863.98 2748.3 22750 6266.59 12099.1 7933.83 7042.59 4165.25 28670.3 5787.94 5853.7 5923.18 8075.05 3236.3 29740.4 3602.97 28319 1188.89 5245.72 1773.74 595.646 351.304 6744.68 4338.92 2935.32 309.557 241.991 2625.77 4317.71 10165.7 1115.68 7029.16 2010.65 16005.4 6378.8 945.415 1289.39 5035.62 2857.73 3030.29 3039.43 829.962 562.279 263.383 15371.5 14434.8 13699.7 6667.58 1488.91 7032.07
internal_count=386592 353508 207381 33084 115790 146127 108712 89359 67851 10202 9680 43192 4167 2990 22882 19353 37415 24361 21508 13054 91591 18491 17936 18073 24659 9847 97299 11334 90506 3572 15987 1995 1794 1085 6557 13072 8928 934 729 7994 5513 30120 1177 20798 6288 16325 18848 2792 4025 15305 8599 9506 9354 2451 1720 819 15682 14734 14002 6869 1482 7133
cat_boundaries=0 1 2
cat_threshold=4 2
is_linear=0
shrinkage=0.05


Tree=10
num_leaves=63
num_cat=9
split_feature=2 1 5 4 5 2 4 5 5 2 1 5 4 5 5 5 3 5 5 5 5 5 4 5 4 4 5 4 4 5 4 4 5 5 4 2 5 1 5 5 5 5 5 5 5 5 5 4 4 5 4 1 5 4 5 5 5 5 5 5 5 5
split_gain=49719 952.217 667.041 264.055 140 136.464 33.8731 32.4298 26.2785 25.6895 25.5631 23.843 15.0694 16.095 14.7977 14.716 11.2846 9.66083 8.12199 8.29382 7.87775 7.1972 6.9063 6.26622 6.24019 5.65067 4.64985 4.42447 4.36022 3.52552 3.45612 3.4007 3.35538 3.22124 2.98058 2.97032 6.51508 5.58169 4.98768 2.89751 2.63906 2.5399 2.43592 2.35687 2.32278 3.42567 3.15602 2.31327 2.26856 1.93573 1.85948 1.81527 2.53235 2.87709 1.78545 1.75934 1.73492 1.73061 1.89894 2.48066 1.85695 1.63553
threshold=0 1 27.650000000000002 3.5000000000000004 234.50000000000003 2 1.5000000000000002 1.7500000000000002 121.50000000000001 3 4 4.8500000000000005 3.5000000000000004 43.95000000000001 391.50000000000006 652.50000000000011 5 20.650000000000002 20.650000000000002 701.50000000000011 4.8500000000000005 697.50000000000011 1.5000000000000002 1.7500000000000002 3.5000000000000004 3.5000000000000004 264.50000000000006 3.5000000000000004 1.5000000000000002 64.500000000000014 1.5000000000000002 1.5000000000000002 1.7500000000000002 10.15 1.5000000000000002 6 469.50000000000006 7 415.50000000000006 697.50000000000011 656.50000000000011 706.50000000000011 7.2500000000000009 439.50000000000006 106.50000000000001 7.2500000000000009 151.50000000000003 2.5000000000000004 2.5000000000000004 16.850000000000005 2.5000000000000004 8 697.50000000000011 3.5000000000000004 583.50000000000011 687.50000000000011 514.50000000000011 637.50000000000011 94.500000000000014 41.150000000000013 33.750000000000007 692.50000000000011
decision_type=1 1 2 2 2 1 2 2 2 1 1 2 2 2 2 2 1 2 2 2 2 2 2 2 2 2 2 2 2 2 2 2 2 2 2 1 2 1 2 2 2 2 2 2 2 2 2 2 2 2 2 1 2 2 2 2 2 2 2 2 2 2
left_child=2 6 3 7 8 23 15 -1 12 50 27 -5 31 -14 34 35 33 -13 24 -20 -9 56 -10 28 32 26 -25 39 -3 -15 -28 -4 -18 -7 -6 36 42 38 -37 44 -29 -35 -2 -40 45 -11 -46 -21 49 -22 -8 52 -52 -54 -39 57 -16 58 59 60 -12 -32
right_child=1 5 4 11 14 16 9 20 22 10 55 17 13 29 21 -17 18 -19 19 47 48 -23 -24 25 -26 -27 30 40 -30 -31 61 -33 -34 41 -36 37 -38 54 43 -41 -42 -43 -44 -45 46 -47 -48 -49 -50 -51 51 -53 53 -55 -56 -57 -58 -59 -60 -61 -62 -63
leaf_value=0.024494190706352677 -0.0039494139829115062 -0.0061711031037802039 0.051851385133140006 -0.010544192660661032 0.057603519448789754 -0.017378769684263967 -0.010249843592080088 0.03805674593525827 0.056180726521763862 -0.017596783089816648 -0.014943556262762274 0.0060370697844014942 0.033014615381029941 0.041938230586764914 0.058066965237554717 -0.01952153802378169 -0.012743671795802082 0.020832681159904443 -0.024292597339696406 -0.01924857066461368 0.052925925872643415 0.051818953055874896 0.051976890166806171 -0.017499386617052901 -0.010602376099799207 -0.016813465297762144 -0.020273628681368866 -0.0073082650729179568 -0.015620730735861094 0.048009724380648704 -0.018646371672603797 0.048654550791130624 -0.024463897412241004 -0.022179656539084408 0.0551897497483049 -0.013977726429534688 -0.014663909951341354 -0.016614411141876936 0.00064703185435517402 -0.00059623008352219394 -0.014285891312980515 -0.01343126429676058 -0.0116243757558077 -0.0094203617574215442 -0.017076714893809908 -0.0066558708369152883 -0.011095101101993785 -0.0079569652743351309 0.044126719278882065 0.046073479824473976 -0.009009692698852172 -0.010221065221881726 -0.0096593673207096935 0.0025134073473716753 -0.012412634227035615 -0.010330913656191425 0.059246916508883002 -0.017218923063658489 -0.013954314374268223 -0.018515005660133057 -0.006186781263808774 -0.015000176769081885
leaf_weight=243.29195296764374 105.36473432183266 171.50670626759529 1208.2578856945038 199.5089650452137 1656.5011229515076 362.39199364185333 8515.4269682466984 293.38798397779465 1269.5964765548706 82.95907136797905 369.21984708309174 518.36411055922508 284.38617473840714 334.74372172355652 5360.3161162137985 960.86322969198227 78.605984389781952 140.16047590970993 13602.442904740572 89.594592064619064 249.50102525949478 385.52755403518677 4239.2435699701309 7073.7874700129032 189.78148093819618 6505.9019736945629 4192.6089856624603 1732.2070613503456 423.52016958594322 836.77712285518646 7625.8801213800907 2670.6560845375061 273.69658678770065 18097.009012669325 5611.1663020849228 1082.795704126358 2252.7496238052845 2185.0662300884724 64.766084551811218 68.088871270418167 147.0117652118206 83.347945928573608 5497.9634793698788 567.85352408885956 238.63115486502647 519.99092331528664 2905.1640690565109 91.866552203893661 254.51017946004868 175.5926359295845 10932.659642338753 5319.0818171799183 92.288031250238419 102.40403491258621 285.90686383843422 258.65009549260139 7437.8972269296646 551.88056570291519 5719.5660070180893 562.21952107548714 72.41524264216423 320.47736495733261
leaf_count=411 323 523 1229 517 1440 1185 25965 398 1181 254 1167 1155 449 438 4623 3109 254 272 45428 288 293 382 4412 23050 617 20983 13853 5264 1333 968 24848 2926 907 60608 5282 3412 7069 7025 203 208 447 274 17017 1784 733 1595 8943 290 306 199 33195 16233 281 310 922 814 6244 1747 18095 1777 229 1027
internal_value=-0.000191191 -0.0163603 0.0532803 0.025838 0.0551162 -0.0206826 -0.0113604 0.0408215 0.0505235 -0.0106121 -0.0124182 0.00459849 0.0480223 0.0436847 0.0575514 -0.0135668 -0.0228539 0.00918617 -0.0239148 -0.0241509 0.0449041 0.05855 0.0529457 -0.0179629 -0.0179115 -0.0180871 -0.0185184 -0.00982269 -0.012897 0.0462749 -0.0191121 0.0496503 -0.0218489 -0.0220465 0.0557399 -0.0130916 -0.0123773 -0.0143683 -0.0118479 -0.0108182 -0.00785413 -0.0221395 -0.0114801 -0.00838969 -0.0110039 -0.00816122 -0.0115491 -0.0135321 0.0478601 0.0500954 -0.00964624 -0.00933958 -0.00890104 -0.00325674 -0.0160632 -0.0143642 0.0587527 -0.0145273 -0.0143063 -0.0163121 -0.0135077 -0.0184993
internal_weight=143745 110376 33369.4 2074.32 31295.1 59182.4 51193.2 1216.28 10843.7 38189.9 13228 858.034 5334.82 1455.91 20451.4 13003.3 32868.7 658.525 14326 13783.9 972.992 13183.7 5508.84 26313.7 542.084 25718.7 19212.8 5694.05 595.027 1171.52 12139 3878.91 352.303 18542.7 7267.67 12042.5 7856.08 4186.39 1715.42 3814.83 1879.22 18180.4 5603.33 632.62 3746.75 602.95 3143.8 181.461 679.604 425.094 24961.9 16446.4 11127.4 194.692 2470.97 7533.95 12798.2 7275.3 6723.42 1003.85 441.635 7946.36
internal_count=386714 353589 33125 3551 29574 195468 158121 1607 11603 117257 41273 1944 6010 1855 17971 40864 109851 1427 47784 46006 1196 11249 5593 85617 1778 83761 62778 17444 1856 1406 39728 4155 1161 62067 6722 37755 24409 13346 5399 11733 5711 60882 17340 1987 11525 1849 9676 578 798 492 75984 50019 33786 591 7947 23829 10867 23015 21268 3173 1396 25875
cat_boundaries=0 1 2 3 4 5 6 7 8 9
cat_threshold=4 5 2 1 1 1 1 1 1
is_linear=0
shrinkage=0.05


Tree=11
num_leaves=63
num_cat=2
split_feature=2 5 3 4 5 6 5 4 5 6 6 5 5 5 5 5 4 5 5 6 5 6 5 6 5 4 5 6 6 5 4 5 4 4 6 6 5 5 5 5 6 6 5 5 5 6 6 5 5 6 5 6 6 5 5 5 4 5 5 4 5 5
split_gain=45620.3 520.856 379.879 264.462 111.21 55.9324 69.4847 29.9269 19.3287 19.032 19.0097 27.5919 15.7192 15.5444 12.4446 12.1405 11.5008 17.8506 10.2484 8.35953 11.8837 7.43603 6.48185 6.46731 6.43249 6.41353 6.15993 6.05399 8.94355 5.87312 5.28092 5.11607 5.01607 4.5485 4.39236 3.75098 3.27616 3.18171 3.11953 3.02409 3.00624 2.5533 2.48657 2.43306 2.22759 2.17461 5.33973 2.54864 2.86073 2.15691 2.06701 2.17378 3.10383 2.05543 2.00177 1.99071 1.9608 1.95236 1.78305 1.72956 1.71308 1.54665
threshold=0 29.950000000000003 1 3.5000000000000004 225.50000000000003 24.500000000000004 3.0500000000000003 1.5000000000000002 4.8500000000000005 28.500000000000004 38.500000000000007 685.50000000000011 88.500000000000014 635.50000000000011 1.7500000000000002 697.50000000000011 3.5000000000000004 41.150000000000013 333.50000000000006 9.5000000000000018 20.650000000000002 15.500000000000002 20.650000000000002 -20.499999999999996 701.50000000000011 3.5000000000000004 321.50000000000006 6.5000000000000009 -5.4999999999999991 64.500000000000014 1.5000000000000002 4.8500000000000005 1.5000000000000002 3.5000000000000004 1.5000000000000002 33.500000000000007 463.50000000000006 689.50000000000011 708.50000000000011 0.75000000000000011 -10.499999999999998 -8.4999999999999982 151.50000000000003 1.7500000000000002 10.15 1.5000000000000002 10.500000000000002 189.50000000000003 173.50000000000003 3.5000000000000004 38.350000000000001 10.500000000000002 -8.4999999999999982 689.50000000000011 158.50000000000003 1.7500000000000002 2.5000000000000004 145.50000000000003 54.150000000000013 2.5000000000000004 189.50000000000003 16.850000000000005
decision_type=1 2 1 2 2 8 2 2 2 8 8 2 2 2 2 2 2 2 2 8 2 8 2 10 2 2 2 10 10 2 2 2 2 2 10 8 2 2 2 2 10 10 2 2 2 10 10 2 2 10 2 10 10 2 2 2 2 2 2 2 2 2
left_child=1 3 7 5 12 31 -7 13 -5 38 15 26 16 14 40 18 32 -18 41 34 -21 36 33 42 -24 37 -12 28 29 -19 -25 -1 49 55 -10 50 61 39 43 -11 -2 -6 -14 56 -8 47 -47 48 57 -3 -34 52 -52 -27 -48 -4 -9 -32 -37 -45 -44 -16
right_child=2 4 22 8 10 6 44 9 19 25 11 -13 23 -15 21 -17 17 27 -20 20 -22 -23 24 30 -26 53 -28 -29 -30 -31 45 -33 35 -35 -36 58 -38 -39 -40 -41 -42 -43 60 59 -46 46 54 -49 -50 -51 51 -53 -54 -55 -56 -57 -58 -59 -60 -61 -62 -63
leaf_value=0.054369446965785773 -0.0035357397600245112 0.050448138425901679 -0.014791560461206665 -0.0084598412284605535 0.046735611294242842 0.0077331143914201889 0.038100416763501108 -0.014379432958237329 0.0073364000424034964 -0.011197888876407464 0.052938843392689665 0.038257030303595951 0.048406492660320405 -0.020422220521522077 -0.010971685398846453 0.062684534757425053 0.025944674750003019 0.035392741410433325 0.052492545175993124 0.0082052618312202594 0.026516777985137758 -0.017368274139817851 -0.024299031425231384 0.050043963133646355 -0.014742745246012929 -0.014625778993310665 0.056682075751690292 0.03525616844251208 0.054930267069562624 0.047282862470548422 0.043164787065216564 0.045763086969777558 0.046959119048052098 -0.0122310725455053 -0.0069451121873959944 0.04449953626358269 -0.016828105335655163 -0.012459150310533056 -0.00301180974949661 -0.016158728554629551 -0.015647664552712038 0.050108361475460599 0.053524434740767596 -0.014355164055083492 0.045995153002864081 0.049721876520405855 0.042271364512296128 0.048105655413992539 0.038173092958874055 0.044869657831906683 0.037909107225905236 0.03777610847484944 0.044969236774783428 -0.010447493439913072 0.046969138435272992 -0.024056436831257078 -0.0040135260893097912 0.047675379775546416 0.050151518399983476 -0.01363487508019751 0.049856773554480892 -0.015090691015382258
leaf_weight=252.52935934066772 237.16129523515701 616.38682913780212 74.718279242515564 204.64984086155891 686.78941762447357 244.14677500724792 167.6474387049675 76.556252002716064 119.69284549355507 311.7806990146637 1431.1779185533524 232.22159254550934 1023.4071725606918 2450.6216847598553 234.5286805331707 258.81632256507874 196.95142889022827 206.73505860567093 11739.895849823952 357.20202249288559 117.82796800136566 9945.0604140460491 13296.014803230762 1100.5268748998642 178.4560050368309 10952.13922432065 4736.1507531404495 199.71562534570694 171.76630282402039 208.70275962352753 711.09161061048508 546.09315264225006 239.59307849407196 186.53468483686447 97.851991385221481 250.25673997402191 3343.2650654613972 622.46796548366547 66.460548251867294 20921.426558732986 65.348083555698395 3067.2174915075302 645.78953921794891 12717.081942141056 191.31819677352905 1021.4464595317841 487.32776600122452 432.57742273807526 199.99251353740692 241.03672587871552 211.99147355556488 253.17315793037415 585.97246432304382 302.46622428297997 424.10413807630539 258.7901799082756 112.89534097909927 362.0457701086998 315.4141503572464 24181.755625247955 627.96207505464554 8065.8624314665794
leaf_count=276 732 597 245 536 614 455 212 242 249 981 1348 226 1071 8210 751 230 296 273 9298 796 219 32838 45496 961 576 35262 4034 237 196 244 724 584 246 613 204 271 10944 1997 212 68143 209 2678 649 40670 221 999 492 413 195 235 225 265 603 967 409 879 356 357 342 77194 623 26124
internal_value=-0.000239698 0.0492319 -0.0162708 0.0262373 0.0508544 0.0398049 0.0283117 -0.0151349 0.00504062 -0.0146115 0.0528783 0.0551764 0.0466774 -0.0166458 -0.0162231 0.0519448 0.0440379 0.0394068 0.0517654 0.00902989 0.0127473 -0.0163642 -0.0239611 0.0480645 -0.0241725 -0.0154832 0.0558134 0.0427761 0.0453337 0.041366 0.0470091 0.0484845 0.0457169 -0.0184836 0.000912555 0.044256 -0.0155066 -0.0159826 -0.0138347 -0.0160859 -0.00615216 0.0494913 0.0502417 -0.0138541 0.0423081 0.0460911 0.0472394 0.0447899 0.0436634 0.0488799 0.0427681 0.0418129 0.0430936 -0.0145135 0.0444573 -0.0219808 -0.00820233 0.0446865 0.047651 -0.0138831 0.0517163 -0.0149743
internal_weight=143787 35185.2 108601 2298.96 32886.2 1401.73 603.112 94606.9 897.225 70265 22152.3 6399.55 10734 24341.8 21891.2 15752.7 3697.7 983.871 15493.9 692.575 475.03 21588.7 13994.5 7036.27 13474.5 33110.3 6167.33 786.92 587.204 415.438 4739.11 798.623 2713.82 520.043 217.545 1856.4 11643.7 21855.7 37154.7 21233.2 302.509 3754.01 2297.16 37088.3 358.966 3638.59 1932.88 1705.71 1273.13 857.424 1290.73 1051.14 797.964 11254.6 911.432 333.508 189.452 1073.14 565.671 36898.8 1273.75 8300.39
internal_count=386744 33103 353641 3752 29351 1748 888 305832 2004 226024 18428 5608 10923 79808 71598 12820 4030 1246 12590 1468 1015 70657 47809 6893 46072 107350 5382 950 713 517 4550 860 2784 1737 453 1952 37819 71121 118674 69124 941 3292 2343 118462 433 3589 1900 1689 1276 832 1339 1093 828 36229 901 1124 598 1081 613 117864 1272 26875
cat_boundaries=0 1 2
cat_threshold=4 1
is_linear=0
shrinkage=0.05


Tree=12
num_leaves=63
num_cat=5
split_feature=2 1 2 4 4 1 6 6 6 6 6 6 6 4 4 6 4 4 1 6 6 6 4 6 6 6 6 6 4 6 6 6 6 6 6 6 6 6 6 6 4 4 6 4 4 6 6 4 6 6 6 6 6 6 6 6 6 6 6 6 4 4
split_gain=41926.2 961.78 148.083 48.6188 40.2473 18.4484 24.4573 15.3793 16.2476 10.9526 10.3336 12.9435 9.73681 8.85268 5.82498 5.39542 4.52731 3.41134 3.37362 2.12286 3.56346 1.9806 1.94128 1.93783 3.37562 1.66041 1.4719 1.4233 1.29004 1.26702 1.23464 1.19931 1.19666 1.13308 1.03231 0.952922 0.828615 0.864998 2.24005 1.29988 1.10912 1.02116 1.72128 1.69231 0.802086 0.983975 0.758779 0.74069 1.02049 0.955564 0.727607 0.861496 0.704331 0.697975 0.970658 0.677518 0.945577 0.664359 0.649094 0.875095 0.714682 0.639068
threshold=0 1 2 3.5000000000000004 1.5000000000000002 3 52.500000000000007 -3.4999999999999996 -12.499999999999998 34.500000000000007 2.5000000000000004 12.500000000000002 28.500000000000004 1.5000000000000002 3.5000000000000004 9.5000000000000018 2.5000000000000004 3.5000000000000004 4 -3.4999999999999996 4.5000000000000009 -16.499999999999996 1.5000000000000002 33.500000000000007 21.500000000000004 17.500000000000004 -27.499999999999996 -18.499999999999996 3.5000000000000004 -7.4999999999999991 -1.0000000180025095e-35 11.500000000000002 -1.4999999999999998 32.500000000000007 6.5000000000000009 -21.499999999999996 -14.499999999999998 -3.4999999999999996 2.5000000000000004 4.5000000000000009 3.5000000000000004 3.5000000000000004 3.5000000000000004 2.5000000000000004 4.5000000000000009 5.5000000000000009 1.0000000180025095e-35 2.5000000000000004 5.5000000000000009 17.500000000000004 -16.499999999999996 -15.499999999999998 9.5000000000000018 6.5000000000000009 3.5000000000000004 -21.499999999999996 -9.4999999999999982 -2.4999999999999996 -6.4999999999999991 -10.499999999999998 3.5000000000000004 2.5000000000000004
decision_type=1 1 1 2 2 1 8 10 8 8 10 10 8 2 2 10 2 2 1 10 10 10 2 8 10 10 10 10 2 8 10 10 8 10 10 10 10 10 10 10 2 2 10 2 2 8 10 2 10 10 10 10 10 10 10 10 10 10 10 10 2 2
left_child=3 4 14 13 12 16 26 8 21 -4 -9 34 19 15 22 27 31 -8 -14 -2 30 -5 -3 24 35 -13 -7 -1 -11 -10 -21 53 55 44 -12 -15 50 58 40 41 46 42 -40 -44 -34 -46 -39 48 -41 52 -28 -52 -49 54 -6 -18 -57 -42 59 -38 -60 -25
right_child=1 2 9 7 5 6 17 10 29 28 11 25 18 23 -16 -17 32 -19 -20 20 -22 -23 -24 61 -26 -27 36 -29 -30 -31 -32 -33 33 -35 -36 -37 37 38 39 47 57 -43 43 -45 45 -47 -48 49 -50 -51 51 -53 -54 -55 -56 56 -58 -59 60 -61 -62 -63
leaf_value=0.049565863920212616 -0.010995186119878306 -0.018791339307631324 -0.022023280020799209 0.048992038511676619 -0.0099912950095726576 -0.0025005252081930197 -0.01439116010501012 0.048988331069615199 0.0378351751255048 -0.024178954764883798 0.041999961945873243 0.044892709606844813 -0.013204248820393161 0.043203864614509091 -0.016345041068129323 0.04297737086686957 -0.011233140533909627 -0.01208739647166885 -0.016708250260571773 -0.014776421904575184 -0.011073477701328006 0.044197473058527767 -0.017727850890660021 0.047481531309025979 0.041861770525428312 0.04835229635052915 -0.010328051993177439 0.048043041585497936 -0.023063476158976519 0.040174208302907272 -0.013029824307885483 -0.012032998653886462 -0.0084173563455939154 -0.012186085756761523 0.039591473555505213 0.046063095622888919 -0.0077727826666819716 -0.0096617218252407315 -0.011696358469266093 -0.013197044181227897 -0.018136374061827075 -0.0035860515163210803 -0.00067544908469370285 -0.010276652561905537 -0.0087397168718789178 -0.00038585881713210172 -0.012385880838191938 -0.0096568697240207411 -0.0079504609577286528 -0.0083958309677848817 -0.017409694999828376 -0.010670506847643322 -0.011792570876290417 -0.0086478417251524536 -0.012090990312954636 -0.0083285855536113333 -0.0098958180752948283 -0.012749600788622925 -0.0064505848760122303 -0.010418044981519124 -0.010141670850318751 0.046418195780168946
leaf_weight=2154.7109518647194 1944.4734956622124 6550.2624363601208 17729.960953146219 556.74985799193382 5152.3220393657684 71.65652921795845 4938.6358293294907 1152.8416532576084 671.83237946033478 10379.663528889418 795.31070619821548 571.55581364035606 1792.0011318027973 298.38403767347336 6347.0749362707138 473.40499222278595 463.36733704805374 2381.9113037586212 2618.7715390324593 1606.5106493234634 1886.4787203669548 351.31313666701317 12441.183763056993 2783.1251967549324 513.56227362155914 882.05278745293617 448.23835787177086 5329.8710753917694 3454.5461653769016 4188.2377061843872 2733.1803221106529 836.18141368031502 9925.7192554473877 197.73507398366928 1009.7679873406887 12461.145149350166 536.45292845368385 728.52930641174316 190.36151042580605 103.16172623634338 67.235520422458649 160.05111485719681 103.503313601017 82.459418475627899 71.4749715924263 69.548407554626465 393.78353789448738 738.18270301818848 912.38690117001534 581.13233351707458 94.345088541507721 95.347343504428864 809.25422051548958 809.57032465934753 616.25298821926117 1709.0205392241478 2203.1082455813885 384.94447779655457 506.02109357714653 749.41606679558754 177.02014338970184 2870.2777404785156
leaf_count=1939 6202 22306 61548 483 16165 224 16168 1019 660 36396 777 505 5823 257 21120 403 1437 7688 8727 5177 6010 314 41864 2561 444 766 1402 4197 12009 4773 8812 2609 30918 618 984 10436 1678 2284 596 323 210 500 324 258 222 216 1234 2306 2856 1817 295 298 2528 2527 1926 5305 6841 1203 1584 2344 553 2680
internal_value=-0.000183191 -0.0160856 -0.0205315 0.0456281 -0.0110116 -0.0101891 -0.0115498 0.0426975 0.0409979 -0.0228388 0.0449198 0.0434804 -0.0134593 0.0467548 -0.0176494 0.048154 -0.00923855 -0.0136416 -0.0153525 -0.0124373 -0.0128877 0.0471371 -0.0180947 0.0461664 0.0458363 0.046992 -0.00963417 0.0484814 -0.0239004 0.0398509 -0.0136764 -0.0102494 -0.00873292 -0.00843778 0.0406526 0.0459962 -0.00969919 -0.00954665 -0.00988156 -0.00920636 -0.0114599 -0.00693135 -0.00835411 -0.00493281 -0.00836416 -0.00461985 -0.0106175 -0.00959447 -0.00848342 -0.0101246 -0.0114266 -0.0140223 -0.0107738 -0.0100227 -0.0102156 -0.0094253 -0.00921117 -0.0135506 -0.0086528 -0.00931447 -0.00740718 0.0469417
internal_weight=143857 106792 56902.7 37064.1 49889.7 37308.3 15254 10179.7 5768.13 31564.2 4411.53 3258.69 12581.4 26884.5 25338.5 7957.99 22054.3 7320.55 4410.77 8170.64 6226.17 908.063 18991.4 18926.5 13273.1 1453.61 7933.48 7484.58 13834.2 4860.07 4339.69 7414.33 14640 10264.5 1805.08 12759.5 7861.83 7223.9 5254.99 3680.49 1574.49 536.375 376.324 185.963 10066.7 141.023 1122.31 3144.12 1015.55 2128.57 637.931 189.692 1547.44 6578.15 5768.58 4375.5 3912.13 452.18 1968.91 1285.87 683.041 5653.4
internal_count=386649 353451 195243 33198 158208 117457 48673 10281 6230 109953 4051 3032 40751 22917 85290 6539 68784 23856 14550 26201 19999 797 64170 16378 11137 1271 24817 6136 48405 5433 13989 23227 45557 31974 1761 10693 24593 22598 16439 11508 4931 1678 1178 582 31356 438 3518 9830 3179 6651 1995 593 4834 20618 18091 13583 12146 1413 6159 4022 2137 5241
cat_boundaries=0 1 2 3 4 5
cat_threshold=4 5 2 1 1
is_linear=0
shrinkage=0.05


Tree=13
num_leaves=63
num_cat=2
split_feature=2 0 5 7 2 5 0 0 0 6 6 5 5 6 5 0 6 6 5 5 0 0 7 5 5 5 6 0 6 5 5 7 6 6 7 5 5 5 7 0 0 5 5 5 6 6 5 6 5 5 6 5 0 5 0 5 5 5 5 0 5 5
split_gain=38835.1 1006.05 433.393 193.416 136.155 86.2065 45.3558 40.3585 35.5785 52.5454 32.2303 52.1705 20.4097 17.1507 16.4044 16.0133 13.5308 13.377 21.15 11.2923 8.5787 8.01946 8.01309 14.3826 7.77835 7.04924 6.85098 6.40174 6.1917 5.85362 5.64231 5.60393 5.52125 5.23401 5.06183 5.00284 4.98557 4.7574 5.22899 4.75547 4.65659 4.56581 4.1851 3.98568 3.83142 4.12014 3.81105 3.19415 3.166 3.16538 3.04297 3.62514 2.74372 2.6635 2.91463 5.61146 3.54701 2.61838 2.55087 2.54584 3.14669 2.53616
threshold=0 11.550000000000002 27.650000000000002 1.0000000180025095e-35 1 234.50000000000003 19.950000000000003 8.3500000000000032 1.1500000000000001 30.500000000000004 28.500000000000004 3.0500000000000003 4.8500000000000005 28.500000000000004 100.50000000000001 2.0500000000000003 -27.499999999999996 38.500000000000007 685.50000000000011 1.7500000000000002 1.0000000180025095e-35 5.8500000000000005 1.0000000180025095e-35 59.350000000000001 442.50000000000006 701.50000000000011 18.500000000000004 4.0500000000000007 8.5000000000000018 4.8500000000000005 43.95000000000001 1.0000000180025095e-35 2.5000000000000004 -17.499999999999996 1.0000000180025095e-35 695.50000000000011 352.50000000000006 1.7500000000000002 1.0000000180025095e-35 0.45000000000000007 16.150000000000002 20.650000000000002 300.50000000000006 397.50000000000006 10.500000000000002 12.500000000000002 54.150000000000013 12.500000000000002 240.50000000000003 7.2500000000000009 1.5000000000000002 82.500000000000014 2.6500000000000008 7.2500000000000009 2.9500000000000006 677.50000000000011 613.50000000000011 27.650000000000002 41.150000000000013 2.7500000000000004 633.50000000000011 3.0500000000000003
decision_type=1 8 2 2 1 2 8 10 10 8 8 2 2 8 2 10 10 8 2 2 10 10 2 2 2 2 8 10 8 2 2 2 10 10 2 2 2 2 2 10 10 2 2 2 10 10 2 10 2 2 10 2 10 2 10 2 2 2 2 10 2 2
left_child=2 7 3 10 37 13 40 8 16 15 29 -12 -5 14 22 -10 39 24 43 -8 -18 31 47 30 -7 33 -9 34 -14 -1 -24 36 -25 -21 53 -26 49 -3 42 -2 -6 -30 -39 -19 -16 -46 -15 50 -23 -17 51 -4 -36 -11 -55 56 -56 -33 -40 -38 -61 -29
right_child=1 4 5 12 6 17 19 26 9 27 11 -13 28 46 44 21 20 18 -20 25 -22 48 23 32 35 -27 -28 61 41 -31 -32 57 -34 -35 52 -37 59 38 58 -41 -42 -43 -44 -45 45 -47 -48 -49 -50 -51 -52 -53 -54 54 55 -57 -58 -59 -60 60 -62 -63
leaf_value=0.045951373852341923 -0.0060625289527286019 -0.013171717491606323 0.038561777793100396 -0.009953551452604804 -0.016916080290087131 0.043754477489401832 -0.011499711033993382 -0.012637658400405283 -0.0096696194064786259 -0.019711667220050196 0.0078966700618423123 0.03731758815183002 0.00050488556684186289 0.039814308103097037 0.041692205666339965 0.0032569254410774783 -0.016469082378354143 0.046518633599559683 0.033310482838871718 -0.02412463051308604 -0.01256297570997807 -0.0066183898169770265 0.017373235382353119 0.042411169852123697 0.045680081703467074 -0.016326823793722602 -0.016179775616776981 -0.0030151739386326893 0.0083674978341553852 0.03685657043471182 0.03073652230052747 -0.012035925872322356 0.031905607990188621 -0.022736553133601702 -0.0063227741513065486 0.052142821236919934 -0.0094740882139655886 -0.017249504548839219 -0.020098991061932955 -0.011578897149775343 -0.020107172001397708 0.020293764061107344 -0.018733958049887544 0.049041651396058039 0.032340916378717055 0.039978713499579044 0.043935776354480365 0.033717941824806745 -0.010147745301635227 -0.0056096507548951532 0.040987609393008641 0.032100685198190114 -0.010478285930761506 -0.012334383769577129 -0.0095358275689408217 0.0040637294208724977 -0.017578576986876576 -0.0036973665060301406 -0.016216616095551355 -0.0060589673627693625 -0.010253449813880886 -0.013197365813028706
leaf_weight=275.49906855821609 887.20808082818985 591.89119979739189 974.90113806724548 211.75454789400101 3165.6028477549553 7829.8439160585403 202.55741804838181 2665.7684030234814 6131.4097144007683 97.702090710401535 262.78852081298828 353.19567739963531 207.23015570640564 674.46766811609268 4191.1280117034912 103.2535902261734 1907.8531088531017 2545.9754711389542 251.97907400131226 13765.989156931639 5339.8380359113216 955.47302055358887 162.31265711784363 266.95246607065201 8918.675754904747 352.8398594558239 2797.8529518246651 61.886603206396103 393.11061730980873 494.44090074300766 153.87166059017181 97.707092791795731 235.30501264333725 13403.662701934576 845.64923417568207 309.85258734226227 1514.1473090052605 8140.0985865294933 454.51904806494713 698.09382918477058 1789.4608031511307 100.83542829751968 11394.012461602688 4063.8456048965454 227.39126545190811 790.02618050575256 3330.907596051693 380.88921988010406 1896.942573517561 4006.3239061236382 857.68278074264526 279.29060101509094 749.07781186699867 2849.166690737009 1422.1786255836487 70.951454997062683 151.70974361896515 2581.4055244028568 6118.9065223932266 2178.97449696064 562.5757303237915 5175.4230300188065
leaf_count=273 2780 1923 894 537 10678 6008 685 8581 19392 314 464 394 419 736 3620 317 6251 2111 225 49377 17192 2997 236 271 6305 1209 9363 202 834 486 176 300 242 47803 2654 243 4758 27936 1541 2220 6255 179 39326 3082 201 700 3140 358 5982 12440 783 251 2357 9216 4601 230 493 7924 20676 6796 1780 17031
internal_value=-0.000219588 -0.01599 0.0425648 0.0215199 -0.0202848 0.0439039 -0.0224677 -0.010419 -0.00987207 -0.00908462 0.0332908 0.0247662 0.00365044 0.0405433 0.0392747 -0.00754115 -0.012676 0.0456635 0.0475278 -0.0232621 -0.0135912 -0.00660205 0.036523 0.0322304 0.0449136 -0.0233487 -0.0144515 -0.0117906 0.00775883 0.0401109 0.0238765 -0.00599164 0.0374894 -0.0234398 -0.0107016 0.0458971 -0.00662903 -0.0175978 -0.0177049 -0.00849168 -0.0180685 0.0108022 -0.0181154 0.0480698 0.0410241 0.0382717 0.0432418 0.0379324 -0.00896552 -0.00538688 0.0386925 0.037123 -0.00827471 -0.0115445 -0.0113669 -0.00969101 -0.0103111 -0.00400147 -0.0164851 -0.00782853 -0.00691969 -0.013077
internal_weight=143872 105128 38744.2 2298.85 59379.5 36445.3 32680.1 45748.6 40285 31452 1385.92 615.984 912.931 12525.1 8519.75 20028.2 8832.99 23920.2 6861.8 27725 7247.69 13896.8 3311.21 818.442 17058.4 27522.5 5463.62 11423.7 701.176 769.94 316.184 11044.4 502.257 27169.7 6186.44 9228.53 8365.28 26699.4 26107.5 1585.3 4955.06 493.946 19534.1 6609.82 5208.55 1017.42 4005.38 2492.76 2852.42 4109.58 2111.87 1254.19 1594.73 4591.71 4494.01 1644.84 1573.89 2679.11 6573.43 4255.7 2741.55 5237.31
internal_count=386748 353580 33168 3586 207409 29582 116007 146171 128227 99784 1617 858 1969 11608 7732 62686 28443 17974 5418 99074 23443 43294 3211 925 12556 98389 17944 37098 1432 759 412 34315 513 97180 19865 6548 26091 91402 89479 5000 16933 1013 67262 5193 4521 901 3876 2286 8979 12757 1928 1145 5011 14854 14540 5324 5094 8224 22217 13334 8576 17233
cat_boundaries=0 1 2
cat_threshold=4 2
is_linear=0
shrinkage=0.05


Tree=14
num_leaves=63
num_cat=4
split_feature=2 1 5 7 2 5 6 5 6 1 6 5 5 5 6 6 5 5 5 7 5 5 5 5 7 7 7 5 7 5 6 5 7 6 5 7 6 6 7 5 5 6 5 6 5 6 5 5 5 5 5 5 6 6 6 5 5 6 6 5 5 5
split_gain=35470 964.365 376.071 182.828 157.629 85.5394 31.6879 48.4017 30.7551 26.439 17.4976 20.3455 16.7379 16.6574 12.4523 11.7532 9.30657 8.99765 8.83475 19.4303 7.86103 7.82217 7.23053 7.13304 6.43818 6.08868 5.1898 5.1316 6.17814 4.72327 4.36221 4.26322 4.61795 3.91587 3.90855 3.52784 3.05783 5.72266 3.24102 3.55552 3.46838 2.92535 3.90084 3.21462 3.37384 4.75266 2.87861 2.86227 2.78393 2.77603 2.76053 2.73272 2.64971 2.50277 3.41498 5.21975 2.46228 2.12539 2.10695 2.05231 2.01665 1.92988
threshold=0 1 27.650000000000002 1.0000000180025095e-35 2 222.50000000000003 30.500000000000004 3.0500000000000003 32.500000000000007 3 38.500000000000007 685.50000000000011 20.650000000000002 0.75000000000000011 28.500000000000004 34.500000000000007 333.50000000000006 701.50000000000011 59.350000000000001 1.0000000180025095e-35 1.7500000000000002 43.95000000000001 3.0500000000000003 697.50000000000011 1.0000000180025095e-35 1.0000000180025095e-35 1.0000000180025095e-35 639.50000000000011 1.0000000180025095e-35 4.8500000000000005 -2.4999999999999996 27.650000000000002 1.0000000180025095e-35 7.5000000000000009 24.450000000000003 1.0000000180025095e-35 -3.4999999999999996 5.5000000000000009 1.0000000180025095e-35 27.650000000000002 56.850000000000001 -8.4999999999999982 121.50000000000001 7.5000000000000009 112.50000000000001 12.500000000000002 397.50000000000006 155.50000000000003 300.50000000000006 189.50000000000003 7.2500000000000009 701.50000000000011 -2.4999999999999996 5.5000000000000009 3.5000000000000004 79.500000000000014 46.550000000000004 -6.4999999999999991 -8.4999999999999982 406.50000000000006 54.150000000000013 595.50000000000011
decision_type=1 1 2 2 1 2 8 2 8 1 8 2 2 2 8 8 2 2 2 2 2 2 2 2 2 2 2 2 2 2 10 2 2 10 2 2 10 10 2 2 2 10 2 10 2 10 2 2 2 2 2 2 10 10 10 2 2 10 10 2 2 2
left_child=2 8 3 6 20 14 29 -8 27 24 16 46 22 57 18 34 58 31 19 56 26 -21 -5 -18 51 48 -3 36 33 -1 -24 32 -17 52 -15 -11 -2 38 40 -40 -38 42 -20 53 45 -45 -12 -44 -22 -49 -39 59 -29 54 55 -43 -4 -6 -7 -10 -16 -61
right_child=1 4 5 12 13 10 7 -9 9 35 11 -13 -14 15 60 17 23 -19 41 21 25 -23 30 -25 -26 -27 -28 28 -30 -31 -32 -33 -34 -35 -36 -37 37 50 39 -41 -42 43 47 44 -46 -47 -48 49 -50 -51 -52 -53 -54 -55 -56 -57 -58 -59 -60 61 -62 -63
